<?xml version="1.0"?>
<MethodSetup Method="BDT::tZq">
  <GeneralInfo>
    <Info name="TMVA Release" value="4.2.1 [262657]"/>
    <Info name="ROOT Release" value="6.18/04 [397828]"/>
    <Info name="Creator" value="ntonon"/>
    <Info name="Date" value="Fri Jan 17 19:00:46 2020"/>
    <Info name="Host" value="Linux cmspcx36679 4.15.0-1065-oem #75-Ubuntu SMP Wed Nov 20 10:51:26 UTC 2019 x86_64 x86_64 x86_64 GNU/Linux"/>
    <Info name="Dir" value="/home/ntonon/Postdoc/EFTSimulations/myAnalysis"/>
    <Info name="Training events" value="284808"/>
    <Info name="TrainingTime" value="4.33903805e+02"/>
    <Info name="AnalysisType" value="Classification"/>
  </GeneralInfo>
  <Options>
    <Option name="V" modified="Yes">False</Option>
    <Option name="VerbosityLevel" modified="No">Default</Option>
    <Option name="VarTransform" modified="No">None</Option>
    <Option name="H" modified="Yes">False</Option>
    <Option name="CreateMVAPdfs" modified="Yes">True</Option>
    <Option name="IgnoreNegWeightsInTraining" modified="No">False</Option>
    <Option name="NTrees" modified="Yes">1000</Option>
    <Option name="MaxDepth" modified="Yes">4</Option>
    <Option name="MinNodeSize" modified="Yes">5%</Option>
    <Option name="nCuts" modified="Yes">200</Option>
    <Option name="BoostType" modified="Yes">Grad</Option>
    <Option name="AdaBoostR2Loss" modified="No">quadratic</Option>
    <Option name="UseBaggedBoost" modified="No">False</Option>
    <Option name="Shrinkage" modified="Yes">1.000000e-01</Option>
    <Option name="AdaBoostBeta" modified="No">5.000000e-01</Option>
    <Option name="UseRandomisedTrees" modified="No">False</Option>
    <Option name="UseNvars" modified="No">3</Option>
    <Option name="UsePoissonNvars" modified="No">True</Option>
    <Option name="BaggedSampleFraction" modified="Yes">5.000000e-01</Option>
    <Option name="UseYesNoLeaf" modified="No">True</Option>
    <Option name="NegWeightTreatment" modified="Yes">pairnegweightsglobal</Option>
    <Option name="Css" modified="No">1.000000e+00</Option>
    <Option name="Cts_sb" modified="No">1.000000e+00</Option>
    <Option name="Ctb_ss" modified="No">1.000000e+00</Option>
    <Option name="Cbb" modified="No">1.000000e+00</Option>
    <Option name="NodePurityLimit" modified="No">5.000000e-01</Option>
    <Option name="SeparationType" modified="No">giniindex</Option>
    <Option name="RegressionLossFunctionBDTG" modified="No">huber</Option>
    <Option name="HuberQuantile" modified="No">7.000000e-01</Option>
    <Option name="DoBoostMonitor" modified="No">False</Option>
    <Option name="UseFisherCuts" modified="No">False</Option>
    <Option name="MinLinCorrForFisher" modified="No">8.000000e-01</Option>
    <Option name="UseExclusiveVars" modified="No">False</Option>
    <Option name="DoPreselection" modified="No">False</Option>
    <Option name="SigToBkgFraction" modified="No">1.000000e+00</Option>
    <Option name="PruneMethod" modified="No">nopruning</Option>
    <Option name="PruneStrength" modified="No">0.000000e+00</Option>
    <Option name="PruningValFraction" modified="No">5.000000e-01</Option>
    <Option name="SkipNormalization" modified="No">False</Option>
    <Option name="nEventsMin" modified="No">0</Option>
    <Option name="UseBaggedGrad" modified="Yes">False</Option>
    <Option name="GradBaggingFraction" modified="No">5.000000e-01</Option>
    <Option name="UseNTrainEvents" modified="No">0</Option>
    <Option name="NNodesMax" modified="No">0</Option>
  </Options>
  <Variables NVar="9">
    <Variable VarIndex="0" Expression="metEt" Label="metEt" Title="metEt" Unit="" Internal="metEt" Type="F" Min="8.82763863e-02" Max="1.12421179e+03"/>
    <Variable VarIndex="1" Expression="maxEtaJet" Label="maxEtaJet" Title="maxEtaJet" Unit="" Internal="maxEtaJet" Type="F" Min="5.06666116e-03" Max="4.90947247e+00"/>
    <Variable VarIndex="2" Expression="leptonCharge" Label="leptonCharge" Title="leptonCharge" Unit="" Internal="leptonCharge" Type="F" Min="-1.00000000e+00" Max="1.00000000e+00"/>
    <Variable VarIndex="3" Expression="maxDijetDelR" Label="maxDijetDelR" Title="maxDijetDelR" Unit="" Internal="maxDijetDelR" Type="F" Min="3.98503095e-01" Max="9.72530365e+00"/>
    <Variable VarIndex="4" Expression="deepCSV_2nd" Label="deepCSV_2nd" Title="deepCSV_2nd" Unit="" Internal="deepCSV_2nd" Type="F" Min="-9.00000000e+00" Max="9.99997795e-01"/>
    <Variable VarIndex="5" Expression="dEtaFwdJetBJet" Label="dEtaFwdJetBJet" Title="dEtaFwdJetBJet" Unit="" Internal="dEtaFwdJetBJet" Type="F" Min="0.00000000e+00" Max="6.84299088e+00"/>
    <Variable VarIndex="6" Expression="dEtaFwdJetClosestLep" Label="dEtaFwdJetClosestLep" Title="dEtaFwdJetClosestLep" Unit="" Internal="dEtaFwdJetClosestLep" Type="F" Min="0.00000000e+00" Max="5.60153913e+00"/>
    <Variable VarIndex="7" Expression="mHT" Label="mHT" Title="mHT" Unit="" Internal="mHT" Type="F" Min="1.23976486e+02" Max="3.65828320e+03"/>
    <Variable VarIndex="8" Expression="Mass_3l" Label="Mass_3l" Title="Mass_3l" Unit="" Internal="Mass_3l" Type="F" Min="8.10126038e+01" Max="2.08017749e+03"/>
  </Variables>
  <Spectators NSpec="0"/>
  <Classes NClass="2">
    <Class Name="Signal" Index="0"/>
    <Class Name="Background" Index="1"/>
  </Classes>
  <Transformations NTransformations="0"/>
  <MVAPdfs>
    <PDF Name="tZq_PDFSig" MinNSmooth="0" MaxNSmooth="0" InterpolMethod="2" KDE_type="1" KDE_iter="1" KDE_border="1" KDE_finefactor="1.0000000000000000e+00">
      <Histogram Name="BDT_tr_S_original" NBins="5696" XMin="-9.3615818023681641e-01" XMax="9.7878825664520264e-01" HasEquidistantBins="1">
        0.00000000e+00 0.00000000e+00 0.00000000e+00 0.00000000e+00 0.00000000e+00 0.00000000e+00 0.00000000e+00 0.00000000e+00 0.00000000e+00 0.00000000e+00 0.00000000e+00 0.00000000e+00 0.00000000e+00 0.00000000e+00 0.00000000e+00 0.00000000e+00 0.00000000e+00 0.00000000e+00 0.00000000e+00 0.00000000e+00 0.00000000e+00 0.00000000e+00 0.00000000e+00 0.00000000e+00 0.00000000e+00 0.00000000e+00 0.00000000e+00 0.00000000e+00 0.00000000e+00 0.00000000e+00 0.00000000e+00 0.00000000e+00 0.00000000e+00 0.00000000e+00 0.00000000e+00 0.00000000e+00 0.00000000e+00 1.70073563e-02 0.00000000e+00 0.00000000e+00 2.30187497e-02 0.00000000e+00 0.00000000e+00 0.00000000e+00 0.00000000e+00 0.00000000e+00 0.00000000e+00 0.00000000e+00 0.00000000e+00 0.00000000e+00 0.00000000e+00 0.00000000e+00 0.00000000e+00 0.00000000e+00 0.00000000e+00 0.00000000e+00 0.00000000e+00 0.00000000e+00 0.00000000e+00 0.00000000e+00 0.00000000e+00 0.00000000e+00 0.00000000e+00 0.00000000e+00 0.00000000e+00 0.00000000e+00 0.00000000e+00 0.00000000e+00 0.00000000e+00 0.00000000e+00 0.00000000e+00 0.00000000e+00 0.00000000e+00 0.00000000e+00 0.00000000e+00 0.00000000e+00 0.00000000e+00 0.00000000e+00 0.00000000e+00 0.00000000e+00 0.00000000e+00 0.00000000e+00 2.32242062e-02 0.00000000e+00 0.00000000e+00 0.00000000e+00 0.00000000e+00 0.00000000e+00 0.00000000e+00 0.00000000e+00 0.00000000e+00 0.00000000e+00 0.00000000e+00 0.00000000e+00 0.00000000e+00 1.79744394e-02 0.00000000e+00 4.75861654e-02 2.11110906e-02 2.05341102e-02 0.00000000e+00 0.00000000e+00 1.93460494e-02 2.26297453e-02 0.00000000e+00 0.00000000e+00 0.00000000e+00 0.00000000e+00 0.00000000e+00 0.00000000e+00 0.00000000e+00 0.00000000e+00 2.55470171e-02 0.00000000e+00 0.00000000e+00 0.00000000e+00 2.45250002e-02 0.00000000e+00 1.91178452e-02 0.00000000e+00 2.52056143e-02 0.00000000e+00 0.00000000e+00 0.00000000e+00 0.00000000e+00 0.00000000e+00 0.00000000e+00 0.00000000e+00 0.00000000e+00 0.00000000e+00 0.00000000e+00 0.00000000e+00 0.00000000e+00 5.21715505e-03 0.00000000e+00 0.00000000e+00 2.44396886e-02 0.00000000e+00 0.00000000e+00 0.00000000e+00 0.00000000e+00 3.62240790e-02 0.00000000e+00 9.22381263e-03 0.00000000e+00 0.00000000e+00 3.92962906e-02 0.00000000e+00 3.79129532e-02 2.13530982e-02 0.00000000e+00 0.00000000e+00 0.00000000e+00 0.00000000e+00 2.40750453e-02 0.00000000e+00 2.45996045e-02 0.00000000e+00 0.00000000e+00 2.14485210e-02 0.00000000e+00 0.00000000e+00 0.00000000e+00 2.46166031e-02 0.00000000e+00 2.38573314e-02 2.26482928e-02 0.00000000e+00 0.00000000e+00 0.00000000e+00 0.00000000e+00 0.00000000e+00 0.00000000e+00 0.00000000e+00 2.01622569e-02 1.54907542e-02 4.34866711e-02 0.00000000e+00 0.00000000e+00 0.00000000e+00 0.00000000e+00 0.00000000e+00 1.98271757e-02 2.39219919e-02 1.43209854e-02 4.39567346e-02 2.52238816e-02 2.70562018e-02 4.96348401e-02 2.45283724e-02 0.00000000e+00 0.00000000e+00 1.67210754e-02 0.00000000e+00 3.78409550e-02 0.00000000e+00 0.00000000e+00 0.00000000e+00 0.00000000e+00 0.00000000e+00 0.00000000e+00 2.47318833e-02 4.74121123e-02 4.25339119e-02 0.00000000e+00 1.60509103e-02 0.00000000e+00 2.48031099e-02 0.00000000e+00 9.17234971e-02 0.00000000e+00 1.95488079e-02 2.17684600e-02 4.57997840e-02 0.00000000e+00 2.75756917e-02 0.00000000e+00 0.00000000e+00 1.70550979e-02 0.00000000e+00 8.11058520e-02 0.00000000e+00 1.52607088e-02 0.00000000e+00 1.67637765e-02 2.73157861e-02 0.00000000e+00 0.00000000e+00 4.27846453e-02 0.00000000e+00 0.00000000e+00 0.00000000e+00 5.97825947e-02 0.00000000e+00 0.00000000e+00 0.00000000e+00 7.13293933e-02 4.06040241e-02 0.00000000e+00 0.00000000e+00 0.00000000e+00 2.52417631e-02 0.00000000e+00 1.69911238e-02 0.00000000e+00 2.60602513e-02 2.64887149e-02 3.61451700e-02 3.98776332e-02 0.00000000e+00 0.00000000e+00 2.19030016e-02 0.00000000e+00 0.00000000e+00 2.29038155e-02 1.20380362e-02 1.69804706e-04 5.00913147e-02 4.55047003e-02 2.01090642e-02 3.81297348e-02 0.00000000e+00 8.42697092e-02 1.47551088e-02 2.28482941e-02 0.00000000e+00 1.80692924e-02 5.33192170e-02 0.00000000e+00 3.97500641e-02 2.60660950e-02 2.21736775e-02 4.78052908e-02 0.00000000e+00 1.42255186e-02 1.72433554e-02 2.37681779e-02 2.37136231e-02 4.02494495e-02 5.08213590e-02 0.00000000e+00 0.00000000e+00 4.34781512e-02 6.99229787e-02 1.98836130e-02 4.19674698e-02 0.00000000e+00 0.00000000e+00 4.86688829e-02 4.08755912e-02 1.96435112e-02 4.61096377e-02 0.00000000e+00 2.00289868e-02 0.00000000e+00 6.75478360e-02 3.44540289e-02 3.84259389e-02 4.94983364e-02 4.11365238e-02 1.61713423e-02 2.41238799e-02 4.13279792e-02 0.00000000e+00 2.60452161e-02 4.79772403e-02 4.54057679e-02 2.44227724e-02 1.43815488e-02 8.66009785e-02 1.08616739e-01 8.15573406e-02 0.00000000e+00 0.00000000e+00 8.00015149e-02 2.39794769e-02 7.48607176e-02 4.41088790e-02 7.66530862e-02 6.93882779e-02 0.00000000e+00 5.38519611e-02 6.07611485e-02 8.32651714e-03 7.31568651e-02 5.02695553e-02 5.35720375e-02 4.69657974e-02 7.66180248e-02 0.00000000e+00 5.77154645e-02 0.00000000e+00 6.60999602e-02 8.32786481e-02 9.61111808e-02 0.00000000e+00 9.03388745e-02 1.12522199e-01 1.25006995e-01 0.00000000e+00 5.56105790e-02 5.00959032e-02 1.71983997e-02 2.75492162e-02 1.14677303e-01 2.44770498e-02 0.00000000e+00 2.40056119e-02 2.39287392e-02 5.28721016e-02 5.97365447e-02 1.93285565e-02 4.55413146e-02 6.44569149e-02 7.24105373e-02 3.28477736e-02 8.77637388e-02 0.00000000e+00 6.75738090e-02 7.28080066e-02 4.17845536e-02 5.90200056e-02 4.24756168e-02 8.33884003e-02 6.36597485e-02 2.13582033e-02 3.69387974e-02 4.55311923e-02 5.63036400e-02 4.59805966e-02 1.84717089e-02 2.00395704e-02 3.69316080e-02 4.38308054e-02 3.77645594e-03 9.64846008e-02 4.01346389e-02 5.87586349e-02 0.00000000e+00 0.00000000e+00 5.81273374e-02 1.14550702e-01 3.08554106e-02 5.79608856e-02 2.50989543e-02 2.10289851e-02 0.00000000e+00 8.20598292e-02 5.54624111e-02 1.03117106e-01 2.44727933e-02 4.19939056e-02 1.09991151e-01 1.27071440e-01 7.19901542e-02 6.02857705e-02 2.43769311e-02 6.43051647e-02 2.67185980e-02 7.07787663e-02 7.36971296e-02 4.30737795e-02 1.83337937e-02 3.92728729e-02 2.29236070e-02 8.30225157e-02 2.39229531e-02 6.78041538e-02 2.54261183e-02 1.30011972e-01 7.88954997e-02 2.00001221e-02 3.86322357e-02 6.65421587e-02 5.99403261e-02 2.27527010e-02 7.01995423e-02 2.01269553e-02 1.09292152e-03 6.52044099e-02 2.25254676e-02 6.56177217e-02 1.56727608e-02 7.72781418e-02 2.13203381e-02 7.78175892e-02 8.25995554e-02 3.73033570e-02 2.77046641e-02 1.67506753e-01 1.06110604e-01 7.48952907e-02 5.08394121e-02 6.78369290e-02 7.80789407e-02 9.25539145e-02 0.00000000e+00 6.63024770e-02 5.97835092e-02 4.26122482e-02 4.80266770e-02 9.31790223e-02 1.05044745e-01 5.06642222e-02 4.85980874e-02 1.11525975e-01 8.26752280e-02 8.15911387e-02 1.01765803e-01 7.13931164e-02 8.32456052e-02 3.08792041e-02 1.51411604e-01 4.61761959e-02 3.79935524e-02 2.37986134e-02 9.30186834e-02 2.38187811e-02 5.59172322e-02 6.05285944e-02 1.14485877e-01 6.10095725e-02 8.14798761e-02 5.03233631e-02 1.68595393e-01 8.11303640e-02 5.81790197e-02 7.21931131e-02 2.36246294e-01 1.45244963e-01 8.24261964e-02 2.27393245e-02 3.46605777e-02 1.30819942e-01 4.85289771e-02 7.62379729e-02 1.00179716e-01 9.26810580e-02 3.50267424e-02 7.29072617e-02 9.77215196e-02 9.65833712e-02 4.70350307e-02 1.08383645e-01 1.31434853e-01 1.47794340e-01 8.18082103e-02 5.77759702e-02 7.54460179e-02 5.54564080e-02 1.22896352e-01 9.48765739e-02 1.06807400e-01 1.18240286e-01 5.78648957e-02 8.50267195e-02 8.53122493e-02 2.50814119e-02 4.46297392e-02 6.47549946e-02 1.90216830e-01 5.95077803e-02 1.53194277e-01 1.19797641e-01 1.28396567e-01 1.77500055e-01 1.13097141e-01 2.32439051e-01 4.30217743e-02 1.92008499e-01 5.01658964e-02 1.36305147e-01 8.00197869e-02 6.01848149e-02 4.97829984e-02 2.37055495e-02 1.35147293e-01 1.41305830e-01 4.27125001e-02 8.21054933e-02 2.93117130e-02 6.06786009e-02 1.19384743e-01 9.89010275e-02 4.79201893e-02 7.07434221e-02 6.69390527e-02 1.05573906e-01 7.92211101e-02 2.12292129e-01 8.25272207e-02 7.49251481e-02 1.28869691e-01 4.90227202e-02 9.52423889e-02 6.59806981e-02 9.69478896e-02 9.58625989e-02 8.40708269e-02 5.31035338e-02 9.99718536e-02 3.86979000e-02 1.47864807e-01 8.87177173e-02 1.69941715e-01 6.95822318e-02 9.83690935e-02 6.11297380e-02 7.34246274e-02 3.25014731e-02 4.50948157e-02 5.94411741e-02 5.17611757e-02 1.05573934e-01 1.43432366e-01 5.58244044e-02 1.23121268e-01 1.19802901e-01 1.66255759e-01 8.02681387e-02 0.00000000e+00 7.05669057e-02 1.49525538e-01 1.69307365e-01 7.62942935e-02 1.76440510e-01 1.56899421e-01 1.55102577e-01 5.50416532e-02 0.00000000e+00 1.91490376e-01 5.75342907e-02 5.34329518e-02 1.04072638e-01 1.15583586e-01 6.22673550e-02 1.51228545e-01 9.77777728e-02 8.78458305e-02 1.49446016e-01 1.34242532e-01 6.62458260e-02 9.25966183e-02 4.54056073e-02 1.48821355e-01 9.78422920e-02 5.18371270e-02 8.77458463e-02 6.44198036e-02 1.28383343e-01 4.89490468e-02 1.39206527e-01 1.25032935e-01 8.15544393e-02 1.24052827e-01 2.45981591e-01 5.19154044e-02 1.10705575e-01 8.75596347e-02 1.59627073e-01 1.78229210e-01 1.41603758e-01 1.08740667e-01 1.26114962e-01 1.19292910e-01 1.15559260e-01 8.25142335e-02 1.15627130e-01 4.35681710e-02 3.10695910e-02 5.78770075e-02 1.27666555e-01 7.67122490e-02 1.34560697e-01 1.97446613e-01 8.61727534e-02 8.58096735e-02 2.44600705e-02 1.58516209e-01 1.19851513e-01 2.60568779e-01 1.29031978e-01 9.10188048e-02 1.64855685e-01 1.05261486e-01 1.95218073e-01 6.03945650e-02 1.25388224e-01 1.17044792e-01 1.27778108e-01 1.12405759e-01 1.57571790e-01 2.56554810e-01 9.75580322e-02 1.48760624e-01 2.33674512e-01 8.37915020e-02 1.77993092e-01 4.41298210e-02 1.15555215e-01 2.19449294e-01 1.86668160e-01 1.88247992e-01 1.65942397e-01 1.98727589e-01 8.13428108e-02 1.46725092e-01 1.34731395e-01 2.30083858e-01 9.78528804e-02 3.68856569e-02 1.39369319e-01 1.47441479e-01 1.08515255e-01 1.39719658e-01 8.23772801e-02 1.12089709e-01 1.80705541e-01 1.42569251e-01 8.91331972e-02 9.30451974e-02 2.10317745e-01 7.69350185e-02 1.11429076e-01 1.26841835e-01 1.78371420e-02 1.23908604e-01 1.73683135e-01 1.28448107e-01 3.26084723e-02 6.81317833e-02 2.04738812e-01 1.56452118e-01 6.95899846e-02 1.08785832e-01 1.05280437e-01 1.36526822e-01 2.01082964e-01 1.55876964e-01 1.58022256e-01 9.68381676e-02 2.12834451e-01 1.51624922e-01 2.15120276e-01 1.14435687e-01 1.41392788e-01 1.78551203e-01 1.52489486e-01 1.93399501e-01 1.75504491e-01 1.47274470e-01 5.60647036e-02 1.86272208e-01 8.31008054e-02 2.02099392e-01 1.93288442e-01 1.30456417e-01 5.78823132e-02 8.25349154e-02 1.34566381e-01 2.14263668e-01 1.02821743e-01 9.17479166e-02 1.23562921e-01 9.50453245e-02 1.94344313e-01 1.91143958e-01 1.84779881e-01 1.00754512e-01 1.34377664e-01 2.05792358e-01 1.90700911e-01 1.58494681e-01 1.02757591e-01 1.53243465e-01 2.49779230e-01 7.45510402e-02 2.39125069e-01 1.11455174e-01 1.39448856e-01 1.44359273e-01 1.54515592e-01 1.35873997e-01 9.93258360e-02 2.32476352e-01 2.05666884e-01 2.30005361e-01 3.30665153e-01 1.86757207e-01 1.73573105e-01 9.57264165e-02 1.87880768e-01 1.21305561e-01 1.22636024e-01 1.55605371e-01 2.07920177e-01 8.90793413e-02 1.16748371e-01 1.88366292e-01 1.34088416e-01 2.26580190e-01 2.05776921e-01 6.73045267e-02 9.86850300e-02 6.10415609e-02 1.84171777e-01 1.42451288e-01 1.89200121e-01 2.68714168e-01 1.31426961e-01 1.09234234e-01 1.53858980e-01 1.08673679e-01 1.57599525e-01 9.23252050e-02 2.00090215e-01 1.62532025e-01 1.04568324e-01 1.95638036e-01 2.35506152e-01 1.17348054e-01 1.34098710e-01 6.41866071e-02 2.18170780e-01 8.90422203e-02 9.76445811e-02 7.10111325e-02 2.01495570e-01 8.94773523e-02 2.58058049e-01 1.96790187e-01 1.49240497e-01 1.60630082e-01 1.42854389e-01 2.91361576e-01 3.45804763e-01 2.45080138e-01 5.33990874e-02 3.97385727e-01 1.68395312e-01 1.87131844e-01 1.91772367e-01 1.92322221e-01 2.00098335e-01 1.48339078e-01 1.27593084e-01 2.28703753e-01 9.40165741e-02 1.62347693e-01 1.77048744e-01 1.52471158e-01 2.18816138e-01 1.52353560e-01 2.85093014e-01 1.90259541e-01 1.38631495e-01 1.27508151e-01 1.31757338e-01 6.57872985e-02 9.37954203e-02 1.57796317e-01 1.80500661e-01 1.60266377e-01 1.54335637e-01 1.28713927e-01 1.70091383e-01 1.46677842e-01 1.48515181e-01 9.07757318e-02 1.68046521e-01 2.56707229e-01 2.00927808e-01 1.10998437e-01 1.74199241e-01 1.71008664e-01 1.20229218e-01 1.02426786e-01 1.98277769e-01 2.16879587e-01 3.21061941e-01 1.04266172e-01 2.40704349e-01 1.36382203e-01 8.35966744e-02 1.25570333e-01 1.96391134e-01 9.61561241e-02 1.62090624e-01 1.75516623e-01 1.64031993e-01 2.04115233e-01 1.98239777e-01 1.72922943e-01 2.41471445e-01 9.46876989e-02 9.84423159e-02 1.37719376e-01 2.12826045e-01 1.21500346e-01 3.42239979e-01 1.03410566e-01 1.35948871e-01 2.44972354e-01 1.42876252e-01 1.74448671e-01 2.42419520e-01 1.96819393e-01 2.06819525e-01 1.80967952e-01 1.77105086e-01 1.48902434e-01 3.31950105e-01 2.87109164e-01 5.85922766e-02 2.67663239e-01 1.45342407e-01 1.81723690e-01 1.73375647e-01 1.03957812e-01 2.03033848e-01 3.14027751e-01 2.06477586e-01 8.71716190e-02 1.97968953e-01 9.03608601e-02 1.29573623e-01 2.79319316e-01 2.30331099e-01 1.35684988e-01 1.55527500e-01 1.73822768e-01 2.53649350e-01 1.97572086e-01 2.79481802e-01 1.34452975e-01 2.53245219e-01 1.73730654e-01 2.66260192e-01 2.30864994e-01 1.62994031e-01 1.95934284e-01 2.31355381e-01 8.88030234e-02 1.73611413e-01 2.55031487e-01 1.36709439e-01 1.55290436e-01 2.51696053e-01 1.83358169e-01 1.73406873e-01 1.60767539e-01 1.34935247e-01 1.93527755e-01 2.54962744e-01 9.46876399e-02 2.14657999e-01 2.09084946e-01 2.40817395e-01 1.91549640e-01 2.18089646e-01 1.90764151e-01 1.23909885e-01 6.75960706e-02 1.21955149e-01 2.75868220e-01 1.53626738e-01 3.77309509e-01 2.09482452e-01 2.26475716e-01 1.11154526e-01 1.22997571e-01 2.91038678e-01 2.84958082e-01 2.74343438e-01 1.86968570e-01 1.93251125e-01 2.25611709e-01 1.81932367e-01 1.83963577e-01 2.45700893e-01 2.73467642e-01 1.80449822e-01 2.21784194e-01 1.73723395e-01 1.80952954e-01 2.06116881e-01 2.73004146e-01 1.36273889e-01 1.75798745e-01 2.89394716e-01 1.78591831e-01 1.15125468e-01 3.59609232e-01 2.24092763e-01 3.53513477e-01 1.63985342e-01 1.95290428e-01 1.94122590e-01 1.02918547e-01 2.30479654e-01 2.09436942e-01 1.56279171e-01 2.77526517e-01 1.78603922e-01 1.96170194e-01 1.61267013e-01 2.50700384e-01 1.88539924e-01 1.97823710e-01 2.25958213e-01 3.39244712e-01 2.89700710e-01 2.19818372e-01 1.54668503e-01 1.40701499e-01 2.64017554e-01 2.10570735e-01 2.43603981e-01 2.86588984e-01 2.54160628e-01 2.22944608e-01 2.97786371e-01 2.10249627e-01 2.34058743e-01 2.10923608e-01 3.19458274e-01 2.13679245e-01 1.02086262e-01 1.15744785e-01 2.01015899e-01 2.11166291e-01 1.57975043e-01 2.98457611e-01 3.40414472e-01 2.11167952e-01 2.13644121e-01 3.03009197e-01 2.41564404e-01 1.91758979e-01 1.58947553e-01 2.69979224e-01 1.79772730e-01 2.52220612e-01 3.27814347e-01 3.05450866e-01 2.25364360e-01 2.32034387e-01 2.41734670e-01 2.41151004e-01 2.01278762e-01 1.65997753e-01 1.85993118e-01 3.09261450e-01 2.68350387e-01 2.80955564e-01 3.26422029e-01 2.46409758e-01 1.51442406e-01 2.93939656e-01 1.57666705e-01 2.76460098e-01 1.53682443e-01 2.41102061e-01 1.78100306e-01 1.42656226e-01 1.58606040e-01 3.45375350e-01 3.07705781e-01 2.03955295e-01 2.33462983e-01 2.88043164e-01 2.37595795e-01 2.08462346e-01 2.35203804e-01 2.21051912e-01 1.20902893e-01 3.02874358e-01 2.42843745e-01 3.10648415e-01 2.49610641e-01 3.09753854e-01 1.84461258e-01 1.95778484e-01 2.89157326e-01 1.80397469e-01 2.05313533e-01 2.24072339e-01 1.50633457e-01 2.92896796e-01 2.90597694e-01 2.79326761e-01 1.70794238e-01 3.53560924e-01 2.93055874e-01 2.55797189e-01 1.80504959e-01 2.17633806e-01 2.04191957e-01 2.61275923e-01 2.43367128e-01 2.31415247e-01 1.47845470e-01 2.30477328e-01 2.26086344e-01 1.82803516e-01 2.08503441e-01 1.58132064e-01 3.37716388e-01 2.38553988e-01 3.72161554e-01 3.63279957e-01 2.93333159e-01 1.70255459e-01 3.07779265e-01 3.56192194e-01 2.65735174e-01 2.53573143e-01 2.19047003e-01 2.68000640e-01 2.30204062e-01 3.34432916e-01 2.65009775e-01 2.59264123e-01 2.70144597e-01 5.13079059e-01 2.45751185e-01 1.91901574e-01 3.28357004e-01 2.58408487e-01 3.67574560e-01 3.18686881e-01 2.97003102e-01 2.52271620e-01 1.66160049e-01 1.51914646e-01 1.65422598e-01 2.68000847e-01 1.61127639e-01 4.08275686e-01 2.79478788e-01 3.31017150e-01 2.60761876e-01 1.95716662e-01 1.40516579e-01 3.14095586e-01 1.14100051e-01 2.81576567e-01 2.71647034e-01 2.82358140e-01 1.76054552e-01 1.84431290e-01 1.27207356e-01 2.29278588e-01 1.94726484e-01 2.27526448e-01 4.03672187e-01 1.83029841e-01 2.26465819e-01 2.88487506e-01 3.27744621e-01 2.85164281e-01 2.44638017e-01 3.32290142e-01 2.51347596e-01 2.53315739e-01 2.88481551e-01 3.32142231e-01 3.13950514e-01 3.43988436e-01 2.51313172e-01 3.68478599e-01 3.06714159e-01 1.84494309e-01 6.82950440e-02 3.22288057e-01 2.41780679e-01 3.50392868e-01 2.99549647e-01 4.19016756e-01 1.59677946e-01 1.25728771e-01 3.78791951e-01 3.28929496e-01 4.01379281e-01 1.95815753e-01 3.89419258e-01 2.82460201e-01 3.35788992e-01 2.77800774e-01 2.42575997e-01 3.59999974e-01 3.53369856e-01 3.02817993e-01 1.78685694e-01 3.55092922e-01 3.07316485e-01 2.67895062e-01 1.95341651e-01 2.00782286e-01 2.67868725e-01 2.63470623e-01 2.78943176e-01 3.05496862e-01 2.52887022e-01 2.88003268e-01 4.16613699e-01 2.81659948e-01 2.66905877e-01 3.25582746e-01 2.42212607e-01 3.79630033e-01 1.68421619e-01 3.14421493e-01 3.98627410e-01 2.56785562e-01 1.34772895e-01 2.68567800e-01 3.74015618e-01 2.10176729e-01 4.34889199e-01 3.54785702e-01 2.94429865e-01 3.76029100e-01 3.38164921e-01 3.22168946e-01 2.64859636e-01 2.07136851e-01 1.83338018e-01 2.17880798e-01 3.03475943e-01 3.24119106e-01 2.26675383e-01 2.79931184e-01 3.78468528e-01 2.99359937e-01 1.60428636e-01 4.81054597e-01 3.07449215e-01 1.95510531e-01 2.74243382e-01 3.19384238e-01 3.14710414e-01 2.22219143e-01 3.62756428e-01 3.13846592e-01 2.64145731e-01 3.68177715e-01 2.71550303e-01 3.01475933e-01 1.35530670e-01 2.24162422e-01 3.16520890e-01 2.77756894e-01 3.63117716e-01 2.98531617e-01 2.65394442e-01 3.00806049e-01 4.52412226e-01 2.22066467e-01 3.88478134e-01 3.16465770e-01 2.42470709e-01 3.03171895e-01 9.85909605e-02 3.99625242e-01 2.07165497e-01 2.08928116e-01 3.31763574e-01 3.50271313e-01 3.48992689e-01 2.44437685e-01 2.02387466e-01 2.38803901e-01 1.69114997e-01 2.60873961e-01 2.97432254e-01 3.18291922e-01 3.41526311e-01 4.22912177e-01 2.55121162e-01 2.69414806e-01 3.16849872e-01 2.15638650e-01 2.72377469e-01 3.63544038e-01 1.96934085e-01 2.08771079e-01 2.44046991e-01 3.28833353e-01 2.28109907e-01 2.65164128e-01 2.49062941e-01 3.03450715e-01 2.17125198e-01 2.66167307e-01 3.12396327e-01 2.03169909e-01 2.58728270e-01 1.90210558e-01 3.06152468e-01 2.93776377e-01 3.99030634e-01 2.77359210e-01 3.80028798e-01 3.68272428e-01 4.01289609e-01 4.38418184e-01 2.54708604e-01 2.19413647e-01 2.95530491e-01 2.34395911e-01 1.92904117e-01 3.66350753e-01 4.77994464e-01 2.04690671e-01 3.45154675e-01 2.91917088e-01 2.43725902e-01 1.37930191e-01 1.37916476e-01 2.48999855e-01 2.21355197e-01 3.44031424e-01 3.68318227e-01 2.20532527e-01 2.03259868e-01 4.03050531e-01 2.65169538e-01 2.78355735e-01 2.84302569e-01 1.60338465e-01 4.24358425e-01 4.19300095e-01 2.02971817e-01 3.28421870e-01 2.46352870e-01 3.36425676e-01 2.43916087e-01 2.37817845e-01 2.95546825e-01 2.78195815e-01 2.67890539e-01 2.04240622e-01 2.98834945e-01 2.65733569e-01 1.42099224e-01 4.11789939e-01 3.26010281e-01 3.92011580e-01 2.77096770e-01 3.25101846e-01 3.16118894e-01 3.06960377e-01 2.31624327e-01 4.43301642e-01 1.61115716e-01 1.67895865e-01 2.46066754e-01 3.72826670e-01 2.89736031e-01 3.00887888e-01 2.45238732e-01 2.37428804e-01 3.48079943e-01 3.37014574e-01 4.74249893e-01 2.42732364e-01 3.52459746e-01 2.05804368e-01 3.41079370e-01 2.48980729e-01 4.20042125e-01 2.16069737e-01 4.50268447e-01 3.11487767e-01 2.62233167e-01 1.87538695e-01 4.12819871e-01 1.90922015e-01 2.35073061e-01 3.40888072e-01 2.59412505e-01 2.14290226e-01 2.79169091e-01 2.47503336e-01 3.87129182e-01 4.07825229e-01 4.76669321e-01 3.25279528e-01 1.72114429e-01 2.94014410e-01 3.43391779e-01 2.80126141e-01 3.75713668e-01 4.83189660e-01 2.44962102e-01 5.18104315e-01 4.80747293e-01 4.79652190e-01 1.36934349e-01 1.81437537e-01 4.64225003e-01 4.65537339e-01 3.56238624e-01 1.57069344e-01 2.44216761e-01 2.93116835e-01 2.45036359e-01 3.34254395e-01 1.58801845e-01 2.95513400e-01 3.97590491e-01 4.03598183e-01 2.55180818e-01 3.49564765e-01 2.92859745e-01 2.53955461e-01 2.67604411e-01 3.02362427e-01 3.54073401e-01 2.64245735e-01 2.96290082e-01 3.81688391e-01 5.56545832e-01 3.09082870e-01 2.75773586e-01 3.50838340e-01 2.39463379e-01 4.91347743e-01 3.14740694e-01 4.76280073e-01 3.97168165e-01 4.48841326e-01 3.70816515e-01 2.04620061e-01 2.60622845e-01 3.32671771e-01 4.30612708e-01 2.11258760e-01 3.11016304e-01 2.56839108e-01 2.74859445e-01 3.00690560e-01 4.15669313e-01 3.20503221e-01 3.86568563e-01 3.66341729e-01 1.84748485e-01 2.69838271e-01 2.91032977e-01 3.64387823e-01 2.69190833e-01 4.28999638e-01 4.82137445e-01 2.29203249e-01 3.33740659e-01 3.91123025e-01 2.87490803e-01 2.66905690e-01 4.15320378e-01 4.24196112e-01 2.25310625e-01 2.96713605e-01 3.52826344e-01 4.10944847e-01 5.14409809e-01 4.47045337e-01 2.47120168e-01 1.55743255e-01 4.44623672e-01 5.58977618e-01 3.89450579e-01 5.04328703e-01 3.17378914e-01 3.43039214e-01 5.34313694e-01 3.46039442e-01 2.57772821e-01 2.52315993e-01 3.51671676e-01 3.57173517e-01 1.77540095e-01 3.61269616e-01 1.46875659e-01 3.13591021e-01 3.46965926e-01 3.05470593e-01 2.53124031e-01 2.87217651e-01 2.96320890e-01 1.81686467e-01 3.66467292e-01 3.10631433e-01 4.97933736e-01 3.59421071e-01 3.26112949e-01 2.58619180e-01 2.96055064e-01 3.47494956e-01 2.61029924e-01 2.58728824e-01 1.38438404e-01 4.78327943e-01 3.21492341e-01 2.45491467e-01 3.55803753e-01 3.65869023e-01 3.38221543e-01 2.95061471e-01 3.57405693e-01 2.94284893e-01 2.36506616e-01 4.19960918e-01 3.69091647e-01 3.26096039e-01 4.45362705e-01 3.33469584e-01 4.48127114e-01 3.11937631e-01 3.54804020e-01 3.16136561e-01 2.44450607e-01 3.42846230e-01 3.45645427e-01 3.29171797e-01 4.99163962e-01 3.91326206e-01 5.02192803e-01 2.71535776e-01 3.27878214e-01 3.15866279e-01 2.21329543e-01 2.09496303e-01 4.28749997e-01 2.95553431e-01 2.89801220e-01 3.99521841e-01 3.56590931e-01 5.94032223e-01 3.39256064e-01 2.34266515e-01 2.89560832e-01 3.71429683e-01 2.49834409e-01 2.82089396e-01 2.35217833e-01 2.68064339e-01 2.55935557e-01 3.82568857e-01 5.08888952e-01 3.25902076e-01 4.12408860e-01 3.52224848e-01 3.41698043e-01 2.78102429e-01 4.21296333e-01 2.97339423e-01 3.50487021e-01 3.94047355e-01 2.23803734e-01 1.66198124e-01 3.98902918e-01 4.19801153e-01 5.16697409e-01 3.70998443e-01 2.07504236e-01 2.65682557e-01 4.50389926e-01 4.90599332e-01 2.99780547e-01 5.29773291e-01 4.30219560e-01 2.44846887e-01 3.79426682e-01 4.24253601e-01 5.27034545e-01 3.67745607e-01 2.42428455e-01 2.97251345e-01 6.19758924e-01 3.86004158e-01 3.22288479e-01 4.48863185e-01 3.57271050e-01 3.82620694e-01 2.33292779e-01 3.21145870e-01 4.06876190e-01 4.16625215e-01 2.91658570e-01 3.36583936e-01 3.36147608e-01 3.85985703e-01 5.16805544e-01 3.25389086e-01 4.74674822e-01 3.59452852e-01 3.86241548e-01 3.79969666e-01 4.31517053e-01 3.65198184e-01 3.33292044e-01 3.62177005e-01 2.82585281e-01 3.67717722e-01 3.37361957e-01 2.67926381e-01 4.95782942e-01 3.14912383e-01 4.42622255e-01 3.39396263e-01 4.32558927e-01 2.86886368e-01 5.44953769e-01 3.26885038e-01 5.05055715e-01 3.08837118e-01 3.73164795e-01 3.86678437e-01 4.64753315e-01 4.66082414e-01 4.32835154e-01 2.04095845e-01 3.17562809e-01 4.15862277e-01 3.34341154e-01 2.74087231e-01 2.88681985e-01 3.75853811e-01 4.26445136e-01 3.95271314e-01 4.05692411e-01 3.88131338e-01 2.91213980e-01 4.14990930e-01 2.12458659e-01 4.54301229e-01 4.32425934e-01 3.58818823e-01 2.86104157e-01 3.72669848e-01 3.06978089e-01 2.93396511e-01 4.50102192e-01 4.33585039e-01 3.92855428e-01 3.58176417e-01 4.12740377e-01 3.13033215e-01 4.52738601e-01 2.72641184e-01 4.37107889e-01 4.28367797e-01 3.16251866e-01 4.13696312e-01 2.61360320e-01 2.26413394e-01 2.70268237e-01 2.89242801e-01 5.23416786e-01 3.67833787e-01 3.97467218e-01 2.77877460e-01 3.26032269e-01 3.00252581e-01 3.22925629e-01 3.67827568e-01 3.48045442e-01 5.41262989e-01 2.59766805e-01 3.32460060e-01 3.43243435e-01 4.89914152e-01 4.18131376e-01 2.71523936e-01 4.52082578e-01 3.22434464e-01 4.25546433e-01 5.57764040e-01 4.43635938e-01 4.74030433e-01 2.02871692e-01 4.16827264e-01 2.88121858e-01 3.46348157e-01 2.43292513e-01 3.46567532e-01 4.60201361e-01 4.31372476e-01 5.19683877e-01 3.57447312e-01 2.81928147e-01 4.73214154e-01 3.72665302e-01 4.78763086e-01 3.03162086e-01 4.53750701e-01 4.04530819e-01 4.71265679e-01 4.70287617e-01 4.03953113e-01 4.34279241e-01 4.76810004e-01 2.97602950e-01 4.87014022e-01 4.23967028e-01 4.73786299e-01 3.47151469e-01 3.86868564e-01 2.68734582e-01 4.29230087e-01 4.42062617e-01 3.28125758e-01 1.92946279e-01 3.05351753e-01 4.42442716e-01 4.23282363e-01 3.59642374e-01 4.55028067e-01 3.55402128e-01 3.57263617e-01 2.87443689e-01 3.79255623e-01 4.44137432e-01 3.92811153e-01 2.73672894e-01 3.55766478e-01 3.47024431e-01 4.76753251e-01 5.72282847e-01 3.82269289e-01 5.02319128e-01 4.27763712e-01 4.67127798e-01 3.16787664e-01 4.46338918e-01 4.94816557e-01 2.57988680e-01 5.33059320e-01 5.67464937e-01 4.77796269e-01 5.16397425e-01 3.45734426e-01 2.54472606e-01 6.10412655e-01 3.41551649e-01 5.20681413e-01 2.74501150e-01 5.14806828e-01 5.73413271e-01 4.59333141e-01 3.33693663e-01 3.47625033e-01 2.90485312e-01 3.73341677e-01 4.25084091e-01 3.46595866e-01 3.12116388e-01 5.25369887e-01 2.07569863e-01 4.70603183e-01 3.25039644e-01 3.34752214e-01 5.11778477e-01 3.85356617e-01 4.24607274e-01 4.24182571e-01 3.97735424e-01 4.01511841e-01 4.04122870e-01 5.80132714e-01 4.21874897e-01 4.69677943e-01 3.33157892e-01 2.58380668e-01 3.70537650e-01 4.52095656e-01 3.63542126e-01 3.74248032e-01 3.18911259e-01 5.69194157e-01 3.26141019e-01 4.21785660e-01 3.95509733e-01 3.76293087e-01 3.88025852e-01 5.00725795e-01 4.37547152e-01 4.38538216e-01 5.43978550e-01 5.04034756e-01 2.49495170e-01 4.54305918e-01 4.59759084e-01 2.64024595e-01 3.40680605e-01 4.25575925e-01 4.85578261e-01 3.55088738e-01 4.17670780e-01 5.06219935e-01 4.17692819e-01 3.63855895e-01 4.19358069e-01 5.70624674e-01 3.72032545e-01 4.72656668e-01 4.19421764e-01 3.27144655e-01 4.96301778e-01 6.00521537e-01 4.22914453e-01 4.62196169e-01 2.67280336e-01 3.48689100e-01 4.20833095e-01 3.36981483e-01 4.66555243e-01 4.37534653e-01 5.21462389e-01 3.19962357e-01 4.07699481e-01 3.74501772e-01 4.02344663e-01 3.84694532e-01 4.13025621e-01 4.62125279e-01 2.61558153e-01 5.23573871e-01 4.15720452e-01 4.20929482e-01 4.15110604e-01 3.03313363e-01 4.91386764e-01 5.14475178e-01 4.13346055e-01 3.97773684e-01 4.53367051e-01 5.11673527e-01 4.69990111e-01 5.38817784e-01 3.37580096e-01 3.64420977e-01 5.71790787e-01 6.07412411e-01 4.51985466e-01 3.20538191e-01 5.19322837e-01 5.09539133e-01 3.15706699e-01 4.81177452e-01 3.93291934e-01 4.45829517e-01 4.03291691e-01 3.31315886e-01 4.01437015e-01 4.69661503e-01 4.02115104e-01 3.86097704e-01 4.57905188e-01 5.19038348e-01 3.70218427e-01 5.21809346e-01 3.34536790e-01 3.55097265e-01 3.39549358e-01 2.71953406e-01 4.88149744e-01 4.47543976e-01 2.78027341e-01 5.65418389e-01 5.35610292e-01 3.54139245e-01 3.90075077e-01 4.68051513e-01 3.07569468e-01 3.69284270e-01 5.16751172e-01 4.12440916e-01 2.85270811e-01 3.85428746e-01 6.27085580e-01 5.65505601e-01 4.53180515e-01 3.96333753e-01 3.93862682e-01 3.76280914e-01 5.26688719e-01 4.23508850e-01 3.54133524e-01 5.95539869e-01 3.05978370e-01 2.84482360e-01 3.78961846e-01 4.76858518e-01 4.43896261e-01 4.15671517e-01 4.17244584e-01 3.62683653e-01 5.47499083e-01 1.18837692e-01 4.95399460e-01 4.89350947e-01 3.01129512e-01 4.11446598e-01 4.26037517e-01 5.36916779e-01 4.44627129e-01 5.27943003e-01 4.75814096e-01 3.53788203e-01 3.44446505e-01 4.73868238e-01 2.51826243e-01 4.20088223e-01 3.90370752e-01 5.46329978e-01 3.83744667e-01 4.39462329e-01 4.56729110e-01 5.09467615e-01 4.18900854e-01 3.82046612e-01 4.09496746e-01 2.12735740e-01 3.78758856e-01 4.42239403e-01 3.80436545e-01 2.49818844e-01 3.20641332e-01 3.84397322e-01 3.52621479e-01 4.72568860e-01 4.74670934e-01 4.70937695e-01 3.80023779e-01 4.20489227e-01 3.03105971e-01 2.83617246e-01 6.17347345e-01 5.85162412e-01 4.58717290e-01 4.82170735e-01 3.83663948e-01 4.04165760e-01 4.16413351e-01 4.03350275e-01 3.17486592e-01 5.40151752e-01 3.46442084e-01 3.10151630e-01 5.05455068e-01 3.32771820e-01 4.09956012e-01 4.34298340e-01 4.08158296e-01 2.69585882e-01 5.07013182e-01 5.61291061e-01 3.14733286e-01 4.64647436e-01 2.74622784e-01 3.73521173e-01 5.26096150e-01 4.26284556e-01 4.59300254e-01 3.41822875e-01 6.25080247e-01 3.23583130e-01 4.15170177e-01 4.38504290e-01 3.20798800e-01 5.37935895e-01 3.43226805e-01 3.55967589e-01 4.12221401e-01 3.90746274e-01 3.55818276e-01 4.01793187e-01 3.51413225e-01 6.21798387e-01 4.32295107e-01 3.63611390e-01 4.29912598e-01 4.17228677e-01 5.86202391e-01 5.73348643e-01 4.52765200e-01 5.75122039e-01 4.96154529e-01 4.66831921e-01 3.64014715e-01 5.59041121e-01 3.70339787e-01 4.90363099e-01 5.12720552e-01 2.93376690e-01 3.80157735e-01 3.81520341e-01 6.70827653e-01 3.64999290e-01 4.15119262e-01 6.64670073e-01 5.14115339e-01 6.19351378e-01 6.39475207e-01 4.34247127e-01 6.60805380e-01 3.81634029e-01 6.68084265e-01 4.02027978e-01 3.68083519e-01 4.41750273e-01 3.72259732e-01 3.67590802e-01 4.23010248e-01 1.50495598e-01 4.06169150e-01 4.07659579e-01 2.62123904e-01 3.93817944e-01 3.30585090e-01 4.92967126e-01 4.48046850e-01 3.36857065e-01 4.87642183e-01 4.91321427e-01 4.20888979e-01 3.76983256e-01 3.72104638e-01 4.02445394e-01 2.78183783e-01 4.43576569e-01 4.01471154e-01 6.41378859e-01 3.60839052e-01 4.43716713e-01 6.46625779e-01 2.93203761e-01 4.26878577e-01 4.68447568e-01 4.96706748e-01 3.42201767e-01 3.57796155e-01 5.07100710e-01 3.41764270e-01 3.65228302e-01 4.45063358e-01 5.75683633e-01 4.37751552e-01 6.44863053e-01 4.10138685e-01 2.92660221e-01 5.63310325e-01 3.00946536e-01 5.24120177e-01 4.94595276e-01 5.70475409e-01 5.71610914e-01 6.14996723e-01 3.00738459e-01 4.85839617e-01 3.85987800e-01 3.75712491e-01 5.54535885e-01 3.30210480e-01 4.41191138e-01 4.73227174e-01 2.84263464e-01 4.69235695e-01 4.00193573e-01 4.69051326e-01 4.08801984e-01 4.12925577e-01 6.10555914e-01 4.95603085e-01 4.78031219e-01 2.81533158e-01 5.14833351e-01 4.73010649e-01 5.44021234e-01 3.85842493e-01 3.19649368e-01 3.61850645e-01 4.16799744e-01 5.83514323e-01 5.71716770e-01 3.60957781e-01 5.00982076e-01 5.28334892e-01 3.99334093e-01 3.85588733e-01 3.66905477e-01 3.93360538e-01 4.51064473e-01 4.72065350e-01 5.68893888e-01 2.05387508e-01 5.49789147e-01 4.06072147e-01 4.51941535e-01 4.30778576e-01 4.89617369e-01 4.07776313e-01 5.65424619e-01 4.99431367e-01 4.38410592e-01 3.91435610e-01 6.50837863e-01 4.61949681e-01 5.97393627e-01 7.17883551e-01 3.92072407e-01 5.63523416e-01 3.47186274e-01 5.23675632e-01 2.86269049e-01 3.05296614e-01 3.91463754e-01 4.34319438e-01 5.53962458e-01 3.93360661e-01 5.11700525e-01 5.76603933e-01 3.15796243e-01 3.61506744e-01 5.95737635e-01 3.07890107e-01 4.32460896e-01 5.50479042e-01 2.82381825e-01 5.16762325e-01 4.85081708e-01 4.95623726e-01 3.74096179e-01 4.07788561e-01 5.40127237e-01 6.97463978e-01 3.80335736e-01 4.47729351e-01 3.78037765e-01 5.44522604e-01 5.08432770e-01 4.74598295e-01 4.82288809e-01 4.08093412e-01 5.16311659e-01 5.25213572e-01 6.16698721e-01 3.57430430e-01 3.74481477e-01 4.22239760e-01 3.75020170e-01 3.78486640e-01 6.64103754e-01 4.78254957e-01 5.18930526e-01 4.21636527e-01 3.65654532e-01 4.99064220e-01 4.50977499e-01 3.76185405e-01 3.25714941e-01 2.82795554e-01 3.11191951e-01 5.17778052e-01 4.90298209e-01 3.51236435e-01 4.46913582e-01 5.22646816e-01 3.36115011e-01 3.27028021e-01 4.73249628e-01 3.92718606e-01 5.20811492e-01 4.16268042e-01 2.70000956e-01 4.59036335e-01 3.48153700e-01 4.81331214e-01 4.64964379e-01 3.10080663e-01 3.73430542e-01 3.55058630e-01 4.19570593e-01 4.69431331e-01 4.09363496e-01 4.26543822e-01 4.37651649e-01 5.27787092e-01 4.07743424e-01 4.61070862e-01 4.05565577e-01 3.23588877e-01 3.64270858e-01 7.00629308e-01 4.82444491e-01 3.75418247e-01 3.92751716e-01 4.48144156e-01 3.62419006e-01 3.88178996e-01 3.87266442e-01 3.35210555e-01 6.73932573e-01 3.53592214e-01 3.77570119e-01 5.79097497e-01 3.83519550e-01 6.29301481e-01 4.89970657e-01 5.13068649e-01 2.82741438e-01 3.94355069e-01 1.98446992e-01 4.66770137e-01 4.55378009e-01 4.61610021e-01 5.70446484e-01 5.63548930e-01 6.09708073e-01 5.65681717e-01 5.58871193e-01 4.95189605e-01 3.21153421e-01 3.63437579e-01 5.59022474e-01 4.67190540e-01 4.87692373e-01 3.78010125e-01 3.45714845e-01 3.61676521e-01 4.38001649e-01 5.96732841e-01 4.83357324e-01 6.42973538e-01 3.90122133e-01 5.50363123e-01 5.82521660e-01 4.96978118e-01 5.88042896e-01 2.59618974e-01 5.07695939e-01 4.59921127e-01 6.83024479e-01 3.55032691e-01 3.87877212e-01 3.10681008e-01 2.99979386e-01 4.50581551e-01 4.17762219e-01 6.23389556e-01 2.38570571e-01 5.83233360e-01 4.40548996e-01 4.00882353e-01 4.51414776e-01 3.61160475e-01 4.92439850e-01 5.69501309e-01 4.45610070e-01 4.04987082e-01 5.10663057e-01 3.06941819e-01 5.06786706e-01 5.55240716e-01 4.06243796e-01 5.62864988e-01 3.68222727e-01 4.28862481e-01 6.06040094e-01 4.56225464e-01 5.37758980e-01 4.58015555e-01 4.19734764e-01 3.96363290e-01 4.54514911e-01 5.35687749e-01 4.57865078e-01 3.89301931e-01 4.33890510e-01 5.05649798e-01 4.60550094e-01 4.74254271e-01 4.14697595e-01 4.16562523e-01 5.90429501e-01 4.37721371e-01 4.80097851e-01 4.43476872e-01 6.60735938e-01 3.43350881e-01 3.85283243e-01 6.50580505e-01 5.94331528e-01 4.84886375e-01 4.61987623e-01 6.59040401e-01 6.21884871e-01 4.16129519e-01 5.03624552e-01 3.70389203e-01 5.41247505e-01 4.65785402e-01 3.79955003e-01 5.16431423e-01 5.19504935e-01 4.44026296e-01 6.79837580e-01 5.34839588e-01 3.86538650e-01 5.57911416e-01 4.76101758e-01 4.75158428e-01 5.02102409e-01 4.88658496e-01 5.46640510e-01 5.18862929e-01 4.16088656e-01 4.39151795e-01 5.18948858e-01 5.15687135e-01 4.70531780e-01 6.28162188e-01 4.99478051e-01 3.75577414e-01 3.22537676e-01 5.27025095e-01 5.91155953e-01 5.99991472e-01 6.21992065e-01 4.68184805e-01 4.23493586e-01 2.90466055e-01 3.82038131e-01 3.41641113e-01 3.14148772e-01 6.00388386e-01 4.64208628e-01 4.49315128e-01 5.50555254e-01 5.91728874e-01 5.53756672e-01 4.46638798e-01 4.40321751e-01 4.71663447e-01 5.02468945e-01 5.90896079e-01 5.65978654e-01 3.51151231e-01 3.74827578e-01 4.95745697e-01 4.74017857e-01 6.35087771e-01 7.49215073e-01 6.29627820e-01 4.77266638e-01 5.96785794e-01 5.55874185e-01 4.51740097e-01 3.14747848e-01 5.51419640e-01 5.55602924e-01 6.00875572e-01 6.55894683e-01 5.71086353e-01 3.16780720e-01 7.27912609e-01 7.42765235e-01 4.76687540e-01 6.21917601e-01 4.49202257e-01 7.64940729e-01 4.19692432e-01 7.12986600e-01 2.46374649e-01 5.81159595e-01 6.96710681e-01 6.09355282e-01 5.59204537e-01 3.54618380e-01 4.10934109e-01 4.44047876e-01 3.51955561e-01 5.60353660e-01 5.57893908e-01 6.35727763e-01 5.31783528e-01 6.95435572e-01 4.79288886e-01 5.35370624e-01 4.11895835e-01 3.22954635e-01 5.28524855e-01 5.94023218e-01 3.55099465e-01 4.33608308e-01 6.15297130e-01 4.71447957e-01 3.07802630e-01 3.75768586e-01 5.38129956e-01 4.62306773e-01 4.88303434e-01 6.88407797e-01 4.54340253e-01 5.39952195e-01 3.72810743e-01 4.33957517e-01 5.59371186e-01 6.80992656e-01 5.49480064e-01 2.75314007e-01 5.77694555e-01 4.20597325e-01 4.96202663e-01 5.09442790e-01 5.07349686e-01 4.59860421e-01 4.74706767e-01 3.65222489e-01 6.48415804e-01 4.37509564e-01 6.20785315e-01 7.60833680e-01 3.71087682e-01 4.81204783e-01 4.68518024e-01 4.85260250e-01 6.41637173e-01 5.47668849e-01 2.79344170e-01 4.82964946e-01 4.79523228e-01 3.23496900e-01 4.94909043e-01 4.05228201e-01 4.49212734e-01 3.52050798e-01 4.21351432e-01 6.70855154e-01 5.81291369e-01 5.63658414e-01 5.13972146e-01 4.83811319e-01 4.83659212e-01 5.09499141e-01 4.18952716e-01 3.20105371e-01 4.73056165e-01 4.84008798e-01 4.26938073e-01 2.46043493e-01 5.33204305e-01 3.44846675e-01 4.17509130e-01 5.02754488e-01 3.81029395e-01 5.15701824e-01 5.81695691e-01 4.79793833e-01 6.48535088e-01 3.80648607e-01 6.00400325e-01 6.83253115e-01 4.55946731e-01 3.45341831e-01 3.95425536e-01 4.41595768e-01 5.10611852e-01 2.67980365e-01 6.67080262e-01 3.49729409e-01 5.51920405e-01 5.19710650e-01 6.00487351e-01 5.62238229e-01 5.11030859e-01 3.69010225e-01 4.83652723e-01 5.22197701e-01 5.64593862e-01 5.87279606e-01 5.97949629e-01 4.72356352e-01 4.18058164e-01 4.63546202e-01 4.85017793e-01 6.78885661e-01 3.52644839e-01 4.59989943e-01 4.55239769e-01 5.46872138e-01 5.18517149e-01 4.89299629e-01 6.25800219e-01 4.02520421e-01 5.17554839e-01 4.64063784e-01 5.06640978e-01 5.68360990e-01 6.57939174e-01 4.36207354e-01 6.46394107e-01 5.90050673e-01 5.97659141e-01 4.52122213e-01 4.26966057e-01 4.29298063e-01 5.94116446e-01 5.09910554e-01 3.76607926e-01 4.50211681e-01 4.29058809e-01 6.29611435e-01 5.09559398e-01 4.09727575e-01 4.34227485e-01 2.92844012e-01 4.68175282e-01 5.98810652e-01 4.92242292e-01 4.29134096e-01 5.21534409e-01 4.84319056e-01 5.11368025e-01 4.71622213e-01 6.41830227e-01 4.01235631e-01 5.21176836e-01 4.54452223e-01 5.56831807e-01 5.61860759e-01 4.29496725e-01 6.26003995e-01 5.81850960e-01 2.45856734e-01 5.28508030e-01 5.57076566e-01 3.69788535e-01 5.01040760e-01 4.22834309e-01 7.61589671e-01 4.79181172e-01 5.67540868e-01 4.50847010e-01 1.01598105e+00 3.89905345e-01 4.78635044e-01 5.00292787e-01 3.23857610e-01 4.05457090e-01 4.66031167e-01 6.04686504e-01 7.47417733e-01 6.57069227e-01 5.15354040e-01 3.92288965e-01 6.01397734e-01 4.65859193e-01 5.87437859e-01 6.50857333e-01 3.71985222e-01 5.40125655e-01 2.51740397e-01 4.33359505e-01 5.68584160e-01 5.14422163e-01 4.89535086e-01 4.25778210e-01 5.49762010e-01 5.30095576e-01 4.25212344e-01 4.66006923e-01 4.39905335e-01 4.19719516e-01 5.33586664e-01 5.53250509e-01 6.05397924e-01 3.13567259e-01 7.46511164e-01 5.44467764e-01 2.92694331e-01 5.38006249e-01 6.35925017e-01 5.33752834e-01 3.43084274e-01 4.91902322e-01 4.90494158e-01 4.34187276e-01 2.74846559e-01 4.03163492e-01 6.35385439e-01 5.15078492e-01 5.06611451e-01 4.75820514e-01 5.19930793e-01 5.36591306e-01 5.77842095e-01 5.27112163e-01 3.21349781e-01 5.61128765e-01 3.69535326e-01 4.52594002e-01 5.60811261e-01 4.20923909e-01 8.39873302e-01 5.71807126e-01 4.16366626e-01 7.14594675e-01 4.26387390e-01 7.04631653e-01 4.26530530e-01 4.12002875e-01 3.31346910e-01 7.90301627e-01 5.34202915e-01 5.28905320e-01 4.28677464e-01 4.91213652e-01 6.21393363e-01 3.94956370e-01 6.22922070e-01 6.85900873e-01 6.54331423e-01 4.49382338e-01 4.87788972e-01 4.50262780e-01 5.37356866e-01 4.74928243e-01 4.11144478e-01 7.54748226e-01 6.37012904e-01 4.47917339e-01 5.19574607e-01 7.32428341e-01 3.33356248e-01 4.60221331e-01 4.57714651e-01 6.16448658e-01 5.33348534e-01 4.41816381e-01 2.30503852e-01 6.27342112e-01 7.40362139e-01 4.67957940e-01 3.73607825e-01 6.89802379e-01 4.00771744e-01 4.55896321e-01 5.37491802e-01 5.24811283e-01 5.18491284e-01 5.71890181e-01 5.32480827e-01 5.93216325e-01 4.13126122e-01 4.59572430e-01 7.47238335e-01 6.59738561e-01 5.76248234e-01 4.65770988e-01 5.26465043e-01 3.61036666e-01 6.19686655e-01 5.93775814e-01 6.23283325e-01 6.51559705e-01 4.65915290e-01 5.68862027e-01 6.73644935e-01 3.95984410e-01 5.95766912e-01 4.56116208e-01 6.78518080e-01 5.45901240e-01 4.67552763e-01 4.76930020e-01 8.05750977e-01 7.92680912e-01 5.66010602e-01 3.42645307e-01 5.92906420e-01 5.06131498e-01 6.58094735e-01 5.56880730e-01 7.78549967e-01 4.92692987e-01 7.27120830e-01 6.09462882e-01 6.74242370e-01 4.92016177e-01 5.52489834e-01 5.26147833e-01 5.21323472e-01 5.72419734e-01 3.92891423e-01 4.67068702e-01 4.67699976e-01 5.87674608e-01 5.39062830e-01 5.80794026e-01 5.35402839e-01 7.15515197e-01 5.94129337e-01 3.63735706e-01 4.63048663e-01 6.35960831e-01 6.07666094e-01 6.36860084e-01 2.37125759e-01 3.95002287e-01 5.26624329e-01 6.34017651e-01 6.35272064e-01 5.61458584e-01 5.72808057e-01 4.82684933e-01 5.62878948e-01 5.57220989e-01 6.10884950e-01 4.34033557e-01 7.17250299e-01 5.37634880e-01 6.30184183e-01 4.81367612e-01 7.32859533e-01 6.95823193e-01 5.47595331e-01 5.70733855e-01 3.75360609e-01 4.06129211e-01 4.75213066e-01 6.18968033e-01 4.34268350e-01 5.77359116e-01 6.39155304e-01 4.66167413e-01 5.75263274e-01 6.33385173e-01 5.14520414e-01 5.07540164e-01 5.93899184e-01 5.17286264e-01 7.52189023e-01 5.78020072e-01 6.11888603e-01 5.74260631e-01 7.11234998e-01 6.97924053e-01 5.67127169e-01 5.83954479e-01 7.29474327e-01 5.50328629e-01 3.91323891e-01 5.13863036e-01 5.95741315e-01 6.49316481e-01 4.08283300e-01 6.59916881e-01 4.55410784e-01 6.04859145e-01 4.81284871e-01 5.04849105e-01 6.17102074e-01 6.45283384e-01 4.20601097e-01 4.02948396e-01 4.84072679e-01 4.37871501e-01 4.16612797e-01 5.73872023e-01 5.34009326e-01 5.52615509e-01 5.81839442e-01 5.78453319e-01 3.60716194e-01 6.20164264e-01 5.85754433e-01 5.44832893e-01 3.96852799e-01 3.46279235e-01 4.76710946e-01 5.84227129e-01 4.30733973e-01 6.29990461e-01 4.25749606e-01 7.56881927e-01 5.42739355e-01 8.38837722e-01 5.18361971e-01 5.33725108e-01 7.52524890e-01 6.06426451e-01 4.65643761e-01 4.87898956e-01 4.94282843e-01 5.11536419e-01 4.99682115e-01 5.14838824e-01 7.52453661e-01 7.86112606e-01 5.86567395e-01 5.48658237e-01 5.99510715e-01 7.61949999e-01 4.17503818e-01 3.20956978e-01 4.53919049e-01 5.28983958e-01 5.56216253e-01 5.06203632e-01 5.28551088e-01 6.91234149e-01 6.77639473e-01 4.91455221e-01 5.59236384e-01 5.91829973e-01 4.46076880e-01 6.78222528e-01 4.78986238e-01 4.61253182e-01 5.34371547e-01 5.96743172e-01 7.55083654e-01 6.67356053e-01 4.73462110e-01 6.46525925e-01 5.37897688e-01 7.13064927e-01 7.72191820e-01 5.85423070e-01 6.87381719e-01 7.18619409e-01 6.06533409e-01 4.55047318e-01 4.95899247e-01 4.04545597e-01 4.43822009e-01 6.11681868e-01 4.61258913e-01 4.20196915e-01 4.05871806e-01 4.47439877e-01 6.40720428e-01 4.27528679e-01 4.45078518e-01 7.45255994e-01 5.50576102e-01 6.01257067e-01 4.70176801e-01 4.32231747e-01 5.82049742e-01 5.67646974e-01 4.70480316e-01 5.23830823e-01 6.87055327e-01 7.09159275e-01 4.65559115e-01 6.07523903e-01 3.68258325e-01 5.07165803e-01 3.68578160e-01 3.61880394e-01 5.80664169e-01 5.06133675e-01 5.41093405e-01 4.32660841e-01 6.02069924e-01 5.98808668e-01 7.25474346e-01 5.71589005e-01 6.30946688e-01 4.43933334e-01 4.69587735e-01 6.53615996e-01 5.18720466e-01 5.21865644e-01 4.52405423e-01 5.95175873e-01 5.39996964e-01 6.80723730e-01 5.27063143e-01 6.46875716e-01 6.65741623e-01 5.53776315e-01 5.18962223e-01 4.66195118e-01 6.53446960e-01 6.54794320e-01 6.22554587e-01 4.90728710e-01 3.45870329e-01 6.25783619e-01 6.07754219e-01 7.79408700e-01 5.40879812e-01 4.70607910e-01 6.84227932e-01 4.19066455e-01 5.64662700e-01 5.74706425e-01 5.79539259e-01 4.34056176e-01 4.53565947e-01 7.71953120e-01 4.59296541e-01 4.21051719e-01 4.77108539e-01 3.82217204e-01 5.52030845e-01 4.69285072e-01 5.90035331e-01 6.10193550e-01 3.50782710e-01 6.37639041e-01 5.78293058e-01 5.55931279e-01 3.15041971e-01 6.52176235e-01 5.96348023e-01 5.39815535e-01 5.89629032e-01 6.16942174e-01 4.33214578e-01 5.81632313e-01 5.81760116e-01 5.81104745e-01 4.38243221e-01 3.15935247e-01 4.56891773e-01 7.64876432e-01 7.30541306e-01 4.40880002e-01 8.08621597e-01 5.47207918e-01 5.33073184e-01 6.26019010e-01 4.54869505e-01 4.08750911e-01 5.03674541e-01 3.66554355e-01 5.90251714e-01 7.09724509e-01 4.86167517e-01 4.27135241e-01 6.92115735e-01 6.61436592e-01 5.85644464e-01 5.06312516e-01 5.84534064e-01 4.91098530e-01 6.04044526e-01 3.70195555e-01 7.70097108e-01 7.12704613e-01 5.22305389e-01 6.43397207e-01 5.34438192e-01 6.88865589e-01 5.36566972e-01 4.61935611e-01 8.09793319e-01 5.33705218e-01 3.33623798e-01 3.99649365e-01 4.83266238e-01 6.05742838e-01 6.18863243e-01 5.46728987e-01 5.40168693e-01 6.21648868e-01 4.85673672e-01 7.22181689e-01 6.03002767e-01 6.81459936e-01 4.53112072e-01 7.89333366e-01 5.84993622e-01 6.46526683e-01 7.64032570e-01 6.77208523e-01 6.79292890e-01 6.59983739e-01 6.15766957e-01 5.75688053e-01 5.10087344e-01 3.63370798e-01 5.94648241e-01 5.32103281e-01 5.46520439e-01 2.86737648e-01 4.72205250e-01 7.59337150e-01 4.16714087e-01 4.39088036e-01 7.06100453e-01 3.88180456e-01 5.85320244e-01 6.82721606e-01 6.26434472e-01 4.08535303e-01 6.88262099e-01 3.70918720e-01 5.05061915e-01 6.50577818e-01 5.48586062e-01 7.86280562e-01 5.43958705e-01 6.95839751e-01 5.62973094e-01 5.82607788e-01 7.27658288e-01 5.77464929e-01 4.78118247e-01 5.93687970e-01 5.81549954e-01 5.58582611e-01 7.58705289e-01 5.88608476e-01 5.00575081e-01 6.16278367e-01 6.49369483e-01 4.94145177e-01 3.53366245e-01 7.75247936e-01 7.02534719e-01 4.76164432e-01 6.30025113e-01 7.72238761e-01 5.85839216e-01 5.24922032e-01 6.66011714e-01 4.56988004e-01 7.14188892e-01 4.57728063e-01 5.80547939e-01 5.44671237e-01 4.81348715e-01 7.02360025e-01 5.74029304e-01 5.02802705e-01 7.07182418e-01 6.97633009e-01 2.78084623e-01 5.63661538e-01 8.50325679e-01 4.73179592e-01 7.98093952e-01 4.26933653e-01 5.29304940e-01 6.01934353e-01 5.45807433e-01 7.95886501e-01 4.60574829e-01 5.20736228e-01 4.99692952e-01 7.72891896e-01 5.69548531e-01 5.22808771e-01 5.97932767e-01 7.36721606e-01 6.37263177e-01 6.60267541e-01 5.71724414e-01 4.02443411e-01 6.08400764e-01 5.49189957e-01 4.99203230e-01 7.47223037e-01 5.76555162e-01 5.01223689e-01 5.95132070e-01 6.19381013e-01 6.12687796e-01 5.34798895e-01 5.57581525e-01 5.37336303e-01 5.83515536e-01 4.78499114e-01 5.46691937e-01 4.44847838e-01 5.33175123e-01 6.50285143e-01 5.48115811e-01 8.06237324e-01 6.65427821e-01 3.23118285e-01 7.19989025e-01 6.12152666e-01 4.93859528e-01 5.28878882e-01 3.05629942e-01 5.36459772e-01 6.86436235e-01 7.13576587e-01 6.85469370e-01 5.46492900e-01 5.56042691e-01 5.60995915e-01 6.34225902e-01 7.13813822e-01 6.34027879e-01 5.64902136e-01 5.46347167e-01 5.18901048e-01 4.02673651e-01 7.63429913e-01 4.53098692e-01 7.40788308e-01 6.10735533e-01 5.14995573e-01 5.41412296e-01 7.32762409e-01 4.97298104e-01 6.49441980e-01 5.16829631e-01 6.82134803e-01 4.11107500e-01 4.82242411e-01 4.05832405e-01 6.27985818e-01 7.46969223e-01 5.84074209e-01 6.11558798e-01 5.10269045e-01 7.27698254e-01 5.68654381e-01 3.57740771e-01 5.49278458e-01 6.79010017e-01 4.90544889e-01 5.86188731e-01 8.25325115e-01 5.24171886e-01 7.10636160e-01 6.19921129e-01 4.32184175e-01 6.68068115e-01 5.90150560e-01 4.63927235e-01 6.60344897e-01 4.43717973e-01 5.93985918e-01 3.69031361e-01 7.17962454e-01 5.74669163e-01 6.52753529e-01 7.02981297e-01 4.87136374e-01 4.51297457e-01 6.62659832e-01 6.36214831e-01 5.90512226e-01 6.71007043e-01 5.35288630e-01 8.08742396e-01 5.73372570e-01 5.71589718e-01 4.44214543e-01 5.97962350e-01 8.07621266e-01 3.81139565e-01 4.71556554e-01 5.48088392e-01 6.60630521e-01 5.73128516e-01 6.17239854e-01 4.89777560e-01 4.39059133e-01 4.89802823e-01 5.59378417e-01 3.97579336e-01 9.10770620e-01 6.42185409e-01 6.57359297e-01 5.37361935e-01 6.75379843e-01 5.85686153e-01 4.75397961e-01 5.70661157e-01 7.70137172e-01 5.84914837e-01 5.49438480e-01 5.21580406e-01 6.49431961e-01 5.40590146e-01 7.07159129e-01 4.69149026e-01 5.18631248e-01 6.32834791e-01 5.38351518e-01 7.03021482e-01 5.50070474e-01 5.97972728e-01 3.96647251e-01 5.56722443e-01 5.55195592e-01 6.81314171e-01 6.14849423e-01 4.64711401e-01 6.67662899e-01 6.07788118e-01 4.82211842e-01 7.93017862e-01 5.82329547e-01 5.59129329e-01 5.42944095e-01 7.32326367e-01 4.98482417e-01 5.98501708e-01 6.35799437e-01 5.22534329e-01 5.81784320e-01 6.18680141e-01 5.37064555e-01 7.71975423e-01 5.29286635e-01 4.08108941e-01 7.77136893e-01 5.07385560e-01 8.46329895e-01 6.70430388e-01 5.38369662e-01 7.23173888e-01 7.29498738e-01 6.32825794e-01 5.66766803e-01 5.57857086e-01 4.88854134e-01 5.99278708e-01 6.19564924e-01 8.82301572e-01 5.24855410e-01 5.31770110e-01 7.12481202e-01 8.20506390e-01 6.18152810e-01 7.17727563e-01 6.54341492e-01 6.76550926e-01 5.75026907e-01 6.20757081e-01 6.21046944e-01 5.85958987e-01 4.14557424e-01 4.49268005e-01 7.12078539e-01 5.07451880e-01 5.30209517e-01 6.55837721e-01 7.81283456e-01 6.62403254e-01 5.40640770e-01 5.83523720e-01 7.64164427e-01 4.43705797e-01 5.81320187e-01 5.79840692e-01 6.66263899e-01 7.62986008e-01 7.60634748e-01 5.00294641e-01 6.82039752e-01 7.03310100e-01 8.08349810e-01 6.16658011e-01 6.03353204e-01 7.12017572e-01 6.85231362e-01 6.07734716e-01 3.90750670e-01 6.02267233e-01 7.23315586e-01 5.20955634e-01 6.38361541e-01 6.15418040e-01 8.30615550e-01 6.47418485e-01 5.61887079e-01 5.83526330e-01 6.54296080e-01 7.67967422e-01 4.68564560e-01 6.13433866e-01 6.58496385e-01 5.48822344e-01 7.10849485e-01 4.94351591e-01 9.19180932e-01 9.06777686e-01 7.29582117e-01 6.14312117e-01 6.15827059e-01 6.43509641e-01 7.14591749e-01 5.56543099e-01 6.16770702e-01 7.11727377e-01 8.07583194e-01 5.85446577e-01 6.65314599e-01 5.42057611e-01 5.75342682e-01 6.51781429e-01 6.65733173e-01 4.49433782e-01 5.73698747e-01 5.99542905e-01 6.05788979e-01 6.07716764e-01 6.12867936e-01 4.70720116e-01 5.71134037e-01 6.80167541e-01 5.31608591e-01 4.79267102e-01 8.09462518e-01 5.34290261e-01 5.60185992e-01 6.54012475e-01 6.14070053e-01 7.46253909e-01 7.45337690e-01 7.00821089e-01 7.48244895e-01 8.02406044e-01 7.56031757e-01 6.06322676e-01 6.29538565e-01 7.38729651e-01 7.56307332e-01 6.86390965e-01 5.32531452e-01 8.53793805e-01 6.27380846e-01 5.66708688e-01 7.45718036e-01 5.49625875e-01 6.63168760e-01 5.99996169e-01 6.52352327e-01 4.36473865e-01 6.98007593e-01 7.37760215e-01 6.08757663e-01 5.71977556e-01 7.19924501e-01 7.75496417e-01 6.95375453e-01 6.52395614e-01 7.92825176e-01 4.22509746e-01 5.84781761e-01 6.82344961e-01 7.78194693e-01 6.99746329e-01 4.01176598e-01 4.95478520e-01 7.86676425e-01 6.40291882e-01 5.52743678e-01 5.02440935e-01 7.58092166e-01 7.13579211e-01 5.60787585e-01 4.55319008e-01 5.06135521e-01 6.65136883e-01 7.29523998e-01 6.91012180e-01 6.83243453e-01 6.90383981e-01 6.92804640e-01 5.34491912e-01 5.20027800e-01 8.40735027e-01 6.99199873e-01 6.71649701e-01 9.33104232e-01 7.90937308e-01 7.69661295e-01 3.98803563e-01 4.88767886e-01 5.37837481e-01 6.42132003e-01 7.15570835e-01 6.84095717e-01 7.49771804e-01 8.34181653e-01 6.56062498e-01 6.25381384e-01 4.87404275e-01 8.77290441e-01 8.58895468e-01 5.65635636e-01 5.97986347e-01 7.22987943e-01 7.20892622e-01 7.04885574e-01 6.49905453e-01 6.94779639e-01 7.13358681e-01 5.06206268e-01 5.40190110e-01 6.69863589e-01 4.75134403e-01 5.13877605e-01 6.85547197e-01 6.46386669e-01 8.94837637e-01 8.23972573e-01 6.19882380e-01 6.63739649e-01 6.39098506e-01 5.76672807e-01 7.89403497e-01 5.96164707e-01 5.41566977e-01 4.78096976e-01 6.00545957e-01 5.60857858e-01 6.26553271e-01 8.39455056e-01 7.27499059e-01 6.25243183e-01 6.35932336e-01 7.58985064e-01 6.57222766e-01 7.36317342e-01 7.98947311e-01 8.55944572e-01 5.47750591e-01 9.53711452e-01 6.84633598e-01 7.70120007e-01 5.08590674e-01 6.71276794e-01 4.62252975e-01 6.23417072e-01 6.75434150e-01 8.62094140e-01 6.27180078e-01 5.34880433e-01 6.93068841e-01 5.84750365e-01 7.43259313e-01 7.48457033e-01 7.71001818e-01 7.42487467e-01 7.59354493e-01 4.79281715e-01 7.18349140e-01 7.04246546e-01 6.00737141e-01 7.63800602e-01 8.77830959e-01 6.38233350e-01 4.72981055e-01 8.02117293e-01 4.78893092e-01 4.95167209e-01 7.85829604e-01 7.31006601e-01 5.62285405e-01 7.03636677e-01 6.17231086e-01 6.59898017e-01 6.78629452e-01 8.09161005e-01 6.59107187e-01 4.71059189e-01 6.47333374e-01 5.95102685e-01 6.38795855e-01 5.63427110e-01 5.28734669e-01 6.25099489e-01 6.14440262e-01 7.82641378e-01 6.77086981e-01 6.27748161e-01 6.87256783e-01 8.64518622e-01 6.97848426e-01 4.47459122e-01 6.89586342e-01 5.62669476e-01 6.47728509e-01 8.53828544e-01 5.97459703e-01 4.78726244e-01 6.93221803e-01 5.22615762e-01 7.51507437e-01 4.34793159e-01 8.29723219e-01 7.85820159e-01 7.18214891e-01 8.50840546e-01 6.60828623e-01 7.76552513e-01 6.99411053e-01 5.56898260e-01 7.66278972e-01 5.84741536e-01 3.58751879e-01 7.22640448e-01 7.25805234e-01 6.54902348e-01 6.26460856e-01 1.06337882e+00 8.86610060e-01 6.82421459e-01 5.76153780e-01 8.24285307e-01 7.67912552e-01 7.45670101e-01 5.54159299e-01 6.37921972e-01 6.79043662e-01 5.77391171e-01 6.18540145e-01 6.96225439e-01 6.45337044e-01 4.73780580e-01 6.41207755e-01 6.65415768e-01 5.50609367e-01 8.95504495e-01 6.66896038e-01 6.81009197e-01 8.24857929e-01 7.42208472e-01 6.42922387e-01 6.62816962e-01 8.32783899e-01 6.49731486e-01 6.05477667e-01 5.84527007e-01 5.41566307e-01 7.29184498e-01 8.20072357e-01 5.79748507e-01 7.50505070e-01 5.17692178e-01 8.04995553e-01 6.48216681e-01 4.64894750e-01 7.19416054e-01 7.33471984e-01 8.03123318e-01 7.54599179e-01 5.71370458e-01 7.29131541e-01 6.81255545e-01 8.56509640e-01 7.14638686e-01 7.65257515e-01 7.76681909e-01 4.91603879e-01 5.72598733e-01 6.51371637e-01 7.70772215e-01 6.30342111e-01 6.39013072e-01 7.58389869e-01 6.99829007e-01 7.33800078e-01 5.42229826e-01 6.24295275e-01 7.27372407e-01 6.17187071e-01 5.86364760e-01 5.54492752e-01 7.13849943e-01 8.28465098e-01 7.22923390e-01 8.29975123e-01 6.03126110e-01 6.89495901e-01 8.67524679e-01 6.58842362e-01 9.08739670e-01 6.08184223e-01 7.97467125e-01 6.71728531e-01 4.56577216e-01 7.06953148e-01 4.33474175e-01 7.59276056e-01 6.54348552e-01 7.36321248e-01 7.70417351e-01 6.55245045e-01 7.17838080e-01 4.41365532e-01 4.80220970e-01 3.82209606e-01 8.97268885e-01 7.08622156e-01 6.89817454e-01 5.00227833e-01 6.69224752e-01 6.73702188e-01 4.39659798e-01 5.92348762e-01 5.78901568e-01 4.01829057e-01 6.59055541e-01 5.96798800e-01 7.73048940e-01 7.31541766e-01 6.81408677e-01 8.59186099e-01 5.88125543e-01 6.22313126e-01 5.99146737e-01 7.96108531e-01 6.18808604e-01 8.20548047e-01 6.91931733e-01 9.52435431e-01 7.86019525e-01 6.40735113e-01 5.37225200e-01 6.12625539e-01 6.78664731e-01 9.75778271e-01 8.11101868e-01 7.91917678e-01 7.44798535e-01 8.35196683e-01 6.11512466e-01 6.79203298e-01 6.87964400e-01 7.95055567e-01 5.99786064e-01 8.14612846e-01 8.69671252e-01 9.11252597e-01 5.02790021e-01 7.38346441e-01 7.06262306e-01 6.72069328e-01 5.97005082e-01 5.36323011e-01 8.09152089e-01 5.18322072e-01 7.36466855e-01 6.32887975e-01 5.47698432e-01 5.62832152e-01 7.58670399e-01 6.28379674e-01 8.03937616e-01 4.99184089e-01 7.31994382e-01 5.19374890e-01 7.48721395e-01 6.97127251e-01 8.20089266e-01 8.14460720e-01 7.12658084e-01 6.64566133e-01 6.44968099e-01 6.83651161e-01 5.27298285e-01 6.46357010e-01 8.42407199e-01 6.28975299e-01 7.97013721e-01 5.88187622e-01 7.34200640e-01 7.37329551e-01 5.35299773e-01 6.13515484e-01 7.35480970e-01 6.10963067e-01 5.47452207e-01 8.81102462e-01 5.92506142e-01 6.02828520e-01 6.57177342e-01 7.60994096e-01 7.94625548e-01 6.54268344e-01 7.17321112e-01 6.05836504e-01 6.55648510e-01 8.16503340e-01 6.42563259e-01 4.94255365e-01 5.30911702e-01 7.91718403e-01 6.52051099e-01 6.28073909e-01 8.81014185e-01 7.79054792e-01 7.75842678e-01 6.83234549e-01 6.60896879e-01 5.31930142e-01 6.60635438e-01 6.58273436e-01 6.74064235e-01 6.33410222e-01 5.32300182e-01 7.38614196e-01 5.91058630e-01 6.65636067e-01 5.74904564e-01 9.70970203e-01 7.80630831e-01 8.21410038e-01 8.11054841e-01 7.67472455e-01 7.71554005e-01 4.90853385e-01 5.21300554e-01 5.96762033e-01 9.47470515e-01 5.02987955e-01 6.89608221e-01 6.91806902e-01 8.77752409e-01 6.47015072e-01 5.91289061e-01 8.95273331e-01 5.47952329e-01 6.90487466e-01 9.12071763e-01 6.73266443e-01 6.52571140e-01 6.37396902e-01 8.57050546e-01 6.82363570e-01 7.12111323e-01 6.44935712e-01 8.06876827e-01 8.42205285e-01 6.02106280e-01 8.99855421e-01 7.57792051e-01 6.84733976e-01 6.95160323e-01 4.63945965e-01 7.79987559e-01 7.06190556e-01 8.35429798e-01 6.84099700e-01 6.84868860e-01 9.25680013e-01 5.92875604e-01 7.56220659e-01 8.56367269e-01 6.87388842e-01 8.77932376e-01 5.93283724e-01 9.29919938e-01 6.83736465e-01 9.21900812e-01 6.63095818e-01 1.07941447e+00 6.87953831e-01 6.77349379e-01 7.29241903e-01 6.35876638e-01 1.06882752e+00 6.78516145e-01 7.56678751e-01 6.56879725e-01 7.88482519e-01 8.60123962e-01 4.92925729e-01 5.17532537e-01 8.62648291e-01 6.40197483e-01 8.19984179e-01 7.76829139e-01 1.04278702e+00 6.93475027e-01 8.62849644e-01 7.10285333e-01 9.60366260e-01 6.59227907e-01 5.85810810e-01 8.63941789e-01 9.96909931e-01 5.43937815e-01 7.31699609e-01 6.22103514e-01 5.09576964e-01 5.35867679e-01 4.72176052e-01 1.18035811e+00 6.68711307e-01 7.61264704e-01 8.33106255e-01 7.73289746e-01 5.40521326e-01 9.51947801e-01 8.32085573e-01 5.71163768e-01 5.93700006e-01 8.57466532e-01 7.53133574e-01 8.22135098e-01 7.92243306e-01 7.14308449e-01 9.13960896e-01 7.92609850e-01 8.79808792e-01 6.96912034e-01 5.92225600e-01 5.89582064e-01 6.27271339e-01 6.05335200e-01 7.55749220e-01 5.78215323e-01 5.77717329e-01 7.16651988e-01 8.31819718e-01 8.16024699e-01 8.29660398e-01 7.12456507e-01 6.94578275e-01 6.54507941e-01 8.42120131e-01 8.16800030e-01 7.14713384e-01 8.43429854e-01 7.42841128e-01 6.70566257e-01 6.77576461e-01 6.54786236e-01 9.78292090e-01 7.70943778e-01 7.03723316e-01 9.58228487e-01 7.32027470e-01 6.75498794e-01 7.46778676e-01 7.98940485e-01 7.44937941e-01 6.77630948e-01 7.96547341e-01 8.19013009e-01 6.77068816e-01 7.98011312e-01 7.97738259e-01 6.72593069e-01 8.19120080e-01 4.76773961e-01 7.44906616e-01 5.35357982e-01 7.01445833e-01 8.13453006e-01 7.96737038e-01 7.91942404e-01 1.14837333e+00 7.11120053e-01 5.54667050e-01 5.50377885e-01 7.32536454e-01 8.92930112e-01 8.17983570e-01 7.20257397e-01 6.95746046e-01 6.74016928e-01 8.58294686e-01 8.70046950e-01 5.81882034e-01 7.84208393e-01 7.32165045e-01 8.91844024e-01 6.74007834e-01 6.69789285e-01 9.45307370e-01 8.34809304e-01 6.99078818e-01 8.07933554e-01 6.90683489e-01 9.97667566e-01 5.92553245e-01 6.57708797e-01 8.29692822e-01 7.65784061e-01 7.86374523e-01 7.36471005e-01 6.52950509e-01 5.94603947e-01 7.73601854e-01 8.63022943e-01 8.53656135e-01 1.05385472e+00 8.34890352e-01 6.76574697e-01 6.30169909e-01 7.06062971e-01 1.01590416e+00 7.38466785e-01 5.65541898e-01 6.28627514e-01 4.22594927e-01 8.66894521e-01 6.97565979e-01 7.22948687e-01 7.89493092e-01 7.91129131e-01 7.52045879e-01 5.90236873e-01 6.98808622e-01 7.58413897e-01 7.66896886e-01 8.44414622e-01 1.03046436e+00 8.51626507e-01 6.95884358e-01 4.84732374e-01 6.30458555e-01 5.23073418e-01 8.50659612e-01 8.27429644e-01 8.98964731e-01 9.14969232e-01 6.07737577e-01 8.13787143e-01 6.37063413e-01 7.66205779e-01 7.86170428e-01 7.42438072e-01 4.48980544e-01 1.08292610e+00 8.10923414e-01 6.96680289e-01 7.20602747e-01 7.71630328e-01 8.70163664e-01 6.98410165e-01 5.93571054e-01 7.27814805e-01 6.50425108e-01 8.36862096e-01 5.44456145e-01 7.51948822e-01 5.93108768e-01 8.10926156e-01 6.96824140e-01 6.36036433e-01 7.66996497e-01 6.49265001e-01 7.42392588e-01 9.02344829e-01 9.28750161e-01 9.05786488e-01 8.33679616e-01 8.19776059e-01 1.03999000e+00 8.04222705e-01 6.02580158e-01 8.78378400e-01 7.35859462e-01 6.95190592e-01 6.19537191e-01 6.75354384e-01 7.54801820e-01 6.70046446e-01 6.67773605e-01 6.91648843e-01 9.15711530e-01 7.56381112e-01 8.38170362e-01 9.19479324e-01 7.48246337e-01 6.95762480e-01 4.62350593e-01 8.87183296e-01 9.44675163e-01 8.65048219e-01 9.53471210e-01 5.51717919e-01 1.00788247e+00 7.15089262e-01 7.79017030e-01 9.14108371e-01 6.94071600e-01 8.44959538e-01 1.09659703e+00 8.07235070e-01 7.95751394e-01 7.29054779e-01 5.41127397e-01 7.18959671e-01 7.17365275e-01 7.05353705e-01 6.96751233e-01 7.97946927e-01 7.68752531e-01 9.29502043e-01 8.37004765e-01 9.48186945e-01 7.76283831e-01 6.67817414e-01 7.64505302e-01 7.52685143e-01 7.89133843e-01 7.70862273e-01 6.65117668e-01 7.29183564e-01 6.61347705e-01 5.17247379e-01 8.86159440e-01 8.07855153e-01 9.45559371e-01 7.78138391e-01 6.39044115e-01 6.64967859e-01 7.45171442e-01 6.88528226e-01 8.98205477e-01 8.41486989e-01 8.11289432e-01 5.51320802e-01 9.12202425e-01 6.82357684e-01 8.11019945e-01 8.25449081e-01 5.68070483e-01 7.57977971e-01 9.46184764e-01 1.00880540e+00 7.55180215e-01 8.88989385e-01 6.53714342e-01 8.25481190e-01 6.78224017e-01 8.60042100e-01 5.69338704e-01 8.12015304e-01 8.90934189e-01 6.96118062e-01 7.68411042e-01 7.83417712e-01 9.21291557e-01 9.68390460e-01 9.54615309e-01 6.35521829e-01 6.27842179e-01 7.53586706e-01 8.43986275e-01 8.95617694e-01 8.70352751e-01 7.88411185e-01 7.05031324e-01 7.14000002e-01 6.02928830e-01 9.43337491e-01 5.28067360e-01 9.57490492e-01 9.23818454e-01 8.18603869e-01 7.01798101e-01 7.79645043e-01 7.49235793e-01 9.03786672e-01 8.28827792e-01 5.31620306e-01 6.60006301e-01 6.99583405e-01 7.63025259e-01 8.02879468e-01 1.14470769e+00 5.65526640e-01 7.23681284e-01 6.90045304e-01 5.75483188e-01 8.16159776e-01 7.96788502e-01 8.39679074e-01 7.22584590e-01 8.17546025e-01 6.97057463e-01 8.28745453e-01 7.57780015e-01 7.57984955e-01 8.03903362e-01 7.17119039e-01 8.81604183e-01 9.32386800e-01 7.47981802e-01 8.47067271e-01 7.21551815e-01 6.95175260e-01 8.61239974e-01 8.17321982e-01 1.20464325e+00 6.65924865e-01 5.26031319e-01 9.09613916e-01 8.28503731e-01 6.53015902e-01 6.16451653e-01 8.01013538e-01 1.09783756e+00 7.46825896e-01 5.36797104e-01 7.62948083e-01 8.48924579e-01 8.53518632e-01 6.99981761e-01 8.88898159e-01 7.91635722e-01 9.20839472e-01 6.55507814e-01 8.63058743e-01 6.28995474e-01 6.47478646e-01 8.80781623e-01 1.04715177e+00 6.92271545e-01 9.04673186e-01 7.92331267e-01 8.88097092e-01 7.47655677e-01 8.05193926e-01 6.80411165e-01 7.99902986e-01 7.67972102e-01 7.56276787e-01 8.71012446e-01 9.09540629e-01 8.91273198e-01 6.68292884e-01 5.91920428e-01 7.96917417e-01 7.65584347e-01 7.67876228e-01 8.26773113e-01 9.47797964e-01 9.19577027e-01 8.97914518e-01 6.88364680e-01 6.76681791e-01 1.11038301e+00 6.90567819e-01 8.53777657e-01 9.23909399e-01 5.78404188e-01 9.39172975e-01 9.64842673e-01 7.46194885e-01 9.22399475e-01 7.57969713e-01 8.03136166e-01 7.52504553e-01 9.32690378e-01 9.19198522e-01 9.09798189e-01 6.55142621e-01 7.72455317e-01 5.59044937e-01 8.44968058e-01 6.10341109e-01 1.03030835e+00 6.45117054e-01 8.08902330e-01 7.67231435e-01 7.86443122e-01 8.37173684e-01 8.01640448e-01 7.22406591e-01 9.00450174e-01 9.11301655e-01 9.02673830e-01 7.41352321e-01 9.93968210e-01 6.56891672e-01 6.89443575e-01 8.76376483e-01 7.67692663e-01 7.18416088e-01 8.33604456e-01 1.00221538e+00 1.15660311e+00 7.25728696e-01 6.53599157e-01 9.70572791e-01 8.73166618e-01 7.94968076e-01 9.00252891e-01 7.82085498e-01 1.06475713e+00 8.83890841e-01 1.02356604e+00 7.79946101e-01 9.03364733e-01 8.68741356e-01 8.58927176e-01 6.43055279e-01 8.74980085e-01 8.57146895e-01 6.79477909e-01 6.39704017e-01 9.14630819e-01 9.09819208e-01 5.83442374e-01 6.82342263e-01 7.98293149e-01 9.98530949e-01 7.32061603e-01 9.74072021e-01 1.06732004e+00 1.07485785e+00 1.13808847e+00 8.57177008e-01 8.20554566e-01 8.38429863e-01 7.21433893e-01 8.02415344e-01 1.06935099e+00 8.79467725e-01 1.09028371e+00 8.31123361e-01 9.08412120e-01 6.92679190e-01 7.67515845e-01 8.11398739e-01 8.31625851e-01 8.87072287e-01 6.26198890e-01 7.36949991e-01 1.07083965e+00 9.10584698e-01 7.00313507e-01 8.87452655e-01 7.48072793e-01 9.19150380e-01 7.19729635e-01 8.11224003e-01 8.73719421e-01 7.73637756e-01 8.98949481e-01 7.80945299e-01 7.33604673e-01 6.16175231e-01 7.99528147e-01 7.83907163e-01 1.05950862e+00 8.58344624e-01 9.05272161e-01 9.68275794e-01 6.58770116e-01 8.50015654e-01 8.85683720e-01 8.30429808e-01 7.81809778e-01 1.01337033e+00 8.91941755e-01 7.87786585e-01 7.82440246e-01 7.81196917e-01 7.64679869e-01 1.02593589e+00 9.85082271e-01 1.15628614e+00 1.10369481e+00 8.38002632e-01 8.61891749e-01 5.96389029e-01 9.25022826e-01 6.87145440e-01 7.15017669e-01 9.17808611e-01 8.90708556e-01 1.14421966e+00 9.23308866e-01 1.17609314e+00 9.65256298e-01 9.82952010e-01 8.48745495e-01 6.78591681e-01 1.34456124e+00 6.71034711e-01 9.52620149e-01 7.74588030e-01 7.15349122e-01 7.48831768e-01 9.35233946e-01 9.62844561e-01 8.33116233e-01 7.41108686e-01 8.92107569e-01 7.91836836e-01 6.04425101e-01 7.70513574e-01 7.35328276e-01 1.03837402e+00 6.59627404e-01 6.98358754e-01 5.83945122e-01 9.23864369e-01 7.06510179e-01 7.93075171e-01 6.79271282e-01 8.68174583e-01 7.34787252e-01 7.35651942e-01 9.42708852e-01 1.00137961e+00 8.57313777e-01 5.89436053e-01 8.55131772e-01 8.09944925e-01 7.21298333e-01 9.71390852e-01 6.90697496e-01 8.34369419e-01 8.27047900e-01 1.25719596e+00 8.86708645e-01 7.92314455e-01 8.45212357e-01 6.87666498e-01 8.60060643e-01 7.78936727e-01 7.39068025e-01 8.72047798e-01 8.99617831e-01 7.96964526e-01 8.90448290e-01 8.20453781e-01 8.54984756e-01 1.08855370e+00 9.32601599e-01 7.08195815e-01 7.48772731e-01 7.89475856e-01 9.45855032e-01 7.78808568e-01 9.27380297e-01 8.45312337e-01 8.13376382e-01 6.85429020e-01 9.33473925e-01 1.10364947e+00 6.55945657e-01 8.18789887e-01 9.37449704e-01 8.01465747e-01 8.47102695e-01 7.68734492e-01 9.76814983e-01 9.35185670e-01 9.56724435e-01 9.54896595e-01 7.36194050e-01 6.57925412e-01 8.25666050e-01 7.30258792e-01 8.75623593e-01 9.14773104e-01 1.06744331e+00 7.92859200e-01 6.87194099e-01 7.92848352e-01 6.71882243e-01 8.68038357e-01 8.29757536e-01 7.98811339e-01 8.16096145e-01 9.96575326e-01 9.05244288e-01 7.31293678e-01 7.88968357e-01 8.33756752e-01 1.19343567e+00 9.40918604e-01 7.55265498e-01 1.06821714e+00 7.70194572e-01 4.63141465e-01 7.52539831e-01 9.07599329e-01 9.68610688e-01 9.06586925e-01 7.90791218e-01 8.90359855e-01 5.56177715e-01 6.77591607e-01 6.84548628e-01 9.22370426e-01 8.46982614e-01 7.52223601e-01 6.69888209e-01 9.66322287e-01 8.00787512e-01 8.31595355e-01 9.12887696e-01 8.53576672e-01 1.07353476e+00 1.02243370e+00 1.07109734e+00 9.38303432e-01 8.41188907e-01 9.51429616e-01 6.00243395e-01 7.63313941e-01 9.20829364e-01 9.09305250e-01 9.83033426e-01 9.51855846e-01 7.37025088e-01 8.28576588e-01 9.66409290e-01 5.74231030e-01 8.15970792e-01 7.00112288e-01 9.66538212e-01 8.72885930e-01 6.96267545e-01 7.55308561e-01 7.77509327e-01 5.46541364e-01 8.91444923e-01 1.11579248e+00 6.23621287e-01 9.79541571e-01 6.03782254e-01 9.85977932e-01 1.03976576e+00 5.74419692e-01 9.28239166e-01 1.04469496e+00 7.50948093e-01 9.27608909e-01 6.76964275e-01 9.03097621e-01 9.60857597e-01 7.72185084e-01 8.76201045e-01 1.02660042e+00 8.02276113e-01 8.77452646e-01 8.44152845e-01 8.65182718e-01 8.70873665e-01 8.80789079e-01 7.08912821e-01 8.52741294e-01 7.51891058e-01 6.98990751e-01 6.48859986e-01 1.01967144e+00 9.24541679e-01 7.58621126e-01 8.87854107e-01 9.03089103e-01 8.15992218e-01 9.68615027e-01 8.49996633e-01 9.92474918e-01 8.41884622e-01 7.14055097e-01 8.93782893e-01 9.08595815e-01 8.62731125e-01 1.13655877e+00 9.84632603e-01 9.83654221e-01 9.12370559e-01 9.59741502e-01 8.17406156e-01 9.38774631e-01 6.21862538e-01 6.88930403e-01 8.75116812e-01 1.18508170e+00 6.33290831e-01 7.84289102e-01 1.01312100e+00 7.38906440e-01 8.98032860e-01 8.12646226e-01 8.85032924e-01 6.84930627e-01 7.43831513e-01 6.73380060e-01 8.29448004e-01 9.73531778e-01 8.41577192e-01 4.95240303e-01 8.70927731e-01 1.18435424e+00 1.06844251e+00 7.01856252e-01 9.16041752e-01 8.78427538e-01 9.95355769e-01 7.72280310e-01 9.84802478e-01 1.14437413e+00 6.89933443e-01 8.46095847e-01 8.33427917e-01 7.94191672e-01 9.49393620e-01 9.56088404e-01 9.22206462e-01 9.24211995e-01 1.06710684e+00 8.99785601e-01 6.86581570e-01 7.37864430e-01 8.38459003e-01 7.50590585e-01 6.51291446e-01 7.40449168e-01 7.61350963e-01 9.76009305e-01 9.05319173e-01 1.07459682e+00 9.66489363e-01 9.37708421e-01 6.83996819e-01 7.54953824e-01 9.92132896e-01 9.05200907e-01 9.64618373e-01 9.35974379e-01 7.17067201e-01 7.94247735e-01 7.00145386e-01 1.07602744e+00 9.81635198e-01 9.13977572e-01 9.13006453e-01 7.72548837e-01 1.01180796e+00 1.25096435e+00 9.31043448e-01 1.08737767e+00 9.23653686e-01 8.45755226e-01 1.11080770e+00 8.35289492e-01 8.81107049e-01 8.51461166e-01 8.94623977e-01 6.66020669e-01 1.03153105e+00 9.76016456e-01 8.43177983e-01 9.12952770e-01 9.03940131e-01 9.35943182e-01 7.90214400e-01 7.28396356e-01 1.12239401e+00 8.11359047e-01 9.19017990e-01 8.64393507e-01 7.76310243e-01 7.92471334e-01 1.02471027e+00 7.97164091e-01 7.27059244e-01 5.03624080e-01 7.44049894e-01 9.24036821e-01 9.54717302e-01 9.57071262e-01 1.21412187e+00 7.83540354e-01 7.77905836e-01 1.03616116e+00 6.49984756e-01 8.22269300e-01 1.12361878e+00 9.38549888e-01 1.00260253e+00 8.54081965e-01 1.09095088e+00 9.23328443e-01 8.69300564e-01 1.09260179e+00 1.18030862e+00 6.79383905e-01 1.15554700e+00 7.04231740e-01 8.72811047e-01 1.02228329e+00 9.07358759e-01 8.65386258e-01 6.78264239e-01 7.24610451e-01 7.58256204e-01 1.01903829e+00 8.68203194e-01 8.62688893e-01 9.64469163e-01 6.16420033e-01 7.83288543e-01 1.15670926e+00 8.28634442e-01 7.18966256e-01 9.41694773e-01 9.30889925e-01 7.98865200e-01 9.38380762e-01 7.54100036e-01 8.65743090e-01 1.08745320e+00 9.50858378e-01 9.61579267e-01 1.06250529e+00 1.01897856e+00 9.13148174e-01 5.66274234e-01 8.64246364e-01 1.06792285e+00 9.84058238e-01 9.51488353e-01 8.48706566e-01 8.58403953e-01 9.34023553e-01 7.63120564e-01 7.67349515e-01 7.93948509e-01 7.69117796e-01 9.62652711e-01 8.89020828e-01 8.97817355e-01 7.42211206e-01 1.00937047e+00 9.12264530e-01 1.03234864e+00 9.00844428e-01 8.37034673e-01 1.13517618e+00 7.51262976e-01 1.15334580e+00 7.64622035e-01 6.58848329e-01 9.15937125e-01 9.38850648e-01 1.13149160e+00 7.68255428e-01 8.38151248e-01 7.33871239e-01 6.80476900e-01 9.07051571e-01 8.93521812e-01 8.41506507e-01 7.86069136e-01 9.18217160e-01 5.94000183e-01 8.90708025e-01 1.08957349e+00 9.04260935e-01 8.03101240e-01 1.06708085e+00 6.24214266e-01 7.31767232e-01 6.11623959e-01 8.58212971e-01 7.43567869e-01 1.08982668e+00 1.09031918e+00 7.93814131e-01 8.63195096e-01 6.16991513e-01 7.93673222e-01 1.06295688e+00 1.11727682e+00 7.88251505e-01 7.20845358e-01 9.38891125e-01 8.09179110e-01 6.82077600e-01 6.58242553e-01 7.87589040e-01 9.26879406e-01 7.01249810e-01 7.23823586e-01 6.67101018e-01 7.85733522e-01 9.66018905e-01 8.78493933e-01 9.69732992e-01 9.42093364e-01 9.88336573e-01 1.08861295e+00 8.09461236e-01 9.74917229e-01 9.07601030e-01 8.05671796e-01 8.44363046e-01 7.10200134e-01 7.03095848e-01 1.03404566e+00 1.03170640e+00 7.96340797e-01 1.14317656e+00 9.77940180e-01 7.77915872e-01 8.33166258e-01 7.57238917e-01 9.07370862e-01 8.25482595e-01 8.53789955e-01 9.25216144e-01 9.76765823e-01 8.33906792e-01 1.05366709e+00 9.36153915e-01 8.95358098e-01 7.09154138e-01 8.92884417e-01 1.12183466e+00 7.66144793e-01 6.72677763e-01 8.29820621e-01 7.94356150e-01 8.96057250e-01 7.16396814e-01 9.74769417e-01 8.58251784e-01 9.21225746e-01 6.54160724e-01 7.01348040e-01 9.34637932e-01 6.95542599e-01 9.79185148e-01 7.88544811e-01 7.63206255e-01 8.14685584e-01 9.05907630e-01 8.23922536e-01 8.87590186e-01 8.41826353e-01 1.02960391e+00 9.13725645e-01 8.55818052e-01 1.00579741e+00 7.61345978e-01 7.83864139e-01 7.72070802e-01 1.03612642e+00 8.19948908e-01 1.07246870e+00 8.95043281e-01 7.94318582e-01 8.10666346e-01 7.86832449e-01 9.69375311e-01 6.22199801e-01 8.33670243e-01 7.30885731e-01 8.48198197e-01 7.29715999e-01 7.88091474e-01 8.18301308e-01 8.31760687e-01 1.02361630e+00 8.26423846e-01 8.34376057e-01 8.15654895e-01 7.37439044e-01 9.18082573e-01 8.99613214e-01 9.46595237e-01 1.01634067e+00 7.06213537e-01 9.69750980e-01 8.36960852e-01 1.07658526e+00 1.01590696e+00 1.09743828e+00 7.94056902e-01 7.75672042e-01 7.74422375e-01 7.92263056e-01 7.45307547e-01 1.28680183e+00 7.66876951e-01 1.04105757e+00 8.53523789e-01 7.77795305e-01 9.40204506e-01 9.77796831e-01 8.40623351e-01 9.37765153e-01 8.71033808e-01 8.05368595e-01 8.41892474e-01 8.83743446e-01 7.68642380e-01 9.10176916e-01 1.15225224e+00 8.81576878e-01 8.78723624e-01 1.08078273e+00 7.95013696e-01 9.55034197e-01 8.95803555e-01 7.86235887e-01 1.15800180e+00 8.63510681e-01 8.86244649e-01 1.10522375e+00 1.16608288e+00 1.01485426e+00 7.27232321e-01 9.19807379e-01 1.04434716e+00 8.15711269e-01 9.08546973e-01 9.67984831e-01 9.29411674e-01 9.28979011e-01 6.73558067e-01 6.67221548e-01 8.29772648e-01 7.44924582e-01 1.19467434e+00 8.71249249e-01 7.13311011e-01 1.16087073e+00 1.02050086e+00 9.24477784e-01 7.29659680e-01 7.32960720e-01 8.68702363e-01 8.96811675e-01 8.89896072e-01 1.01779611e+00 9.82257131e-01 1.00221123e+00 7.29945171e-01 1.05775654e+00 9.90944541e-01 7.02753226e-01 6.93843458e-01 9.15876161e-01 9.53429241e-01 9.49230294e-01 9.60264829e-01 7.29772954e-01 7.23659614e-01 9.88603521e-01 9.03705706e-01 9.06165268e-01 1.18900964e+00 9.87956259e-01 9.74571048e-01 8.48089577e-01 8.52922112e-01 9.42689388e-01 9.05370371e-01 8.37841072e-01 7.94939253e-01 5.85287758e-01 7.57631935e-01 7.93213400e-01 9.42150674e-01 8.64402824e-01 9.25045959e-01 1.02952871e+00 6.54228785e-01 6.99469442e-01 7.95328051e-01 1.14224681e+00 9.62842537e-01 9.29317485e-01 8.71565798e-01 8.61575742e-01 8.55767081e-01 8.06400796e-01 1.01333858e+00 8.84924743e-01 1.13160966e+00 7.71857020e-01 9.05366003e-01 1.10482347e+00 1.04348609e+00 9.30922008e-01 8.57381101e-01 5.70380023e-01 9.38918927e-01 8.17605183e-01 8.11596620e-01 7.44339437e-01 9.65212542e-01 6.90821653e-01 1.10275273e+00 9.59290641e-01 7.59974737e-01 7.80165202e-01 1.05886660e+00 4.43827180e-01 9.26516501e-01 7.77364444e-01 8.12228387e-01 8.04716013e-01 6.68069577e-01 1.15519527e+00 9.33013243e-01 9.25107664e-01 8.95009015e-01 8.98445026e-01 7.87409850e-01 6.99755625e-01 8.84112309e-01 9.02420833e-01 8.54563160e-01 1.01537819e+00 9.50388662e-01 9.18513686e-01 7.80572716e-01 8.89198638e-01 8.83394144e-01 1.06117787e+00 8.59393601e-01 7.45747992e-01 8.68460217e-01 8.03530134e-01 7.21095323e-01 8.74397959e-01 9.58188197e-01 7.76142093e-01 9.02549367e-01 9.12427049e-01 1.09828518e+00 7.79051111e-01 1.26937693e+00 8.91069278e-01 9.55584492e-01 1.00667978e+00 7.62772118e-01 8.46827071e-01 1.04701913e+00 7.72187276e-01 7.38116437e-01 9.06548256e-01 8.50941794e-01 8.72176639e-01 9.62102616e-01 8.72599177e-01 9.05967257e-01 9.85270429e-01 7.24258190e-01 9.48110022e-01 8.67530848e-01 7.50723336e-01 8.97461655e-01 8.43022223e-01 6.78241553e-01 8.11765863e-01 1.04131317e+00 8.07573400e-01 8.98061225e-01 8.38380483e-01 8.16435054e-01 7.29610851e-01 9.54265584e-01 8.04286382e-01 7.92872055e-01 7.47741246e-01 8.01881939e-01 9.08237072e-01 1.03299275e+00 8.55506778e-01 9.80117376e-01 9.93431155e-01 7.95416743e-01 7.65436691e-01 9.61764709e-01 6.68121842e-01 8.81746610e-01 4.99652899e-01 8.62868436e-01 7.85033020e-01 9.57902127e-01 7.74801631e-01 7.84586068e-01 7.47183563e-01 7.94688242e-01 8.87348751e-01 7.75480599e-01 7.14027263e-01 7.82375320e-01 1.15690287e+00 9.10517625e-01 7.12088418e-01 1.01923138e+00 6.04979945e-01 8.45219396e-01 8.34133621e-01 1.11665860e+00 5.35151230e-01 6.57431188e-01 7.98996842e-01 9.28757041e-01 7.92900668e-01 1.19688274e+00 7.94198279e-01 9.66379459e-01 8.18784284e-01 5.21176082e-01 1.16991608e+00 9.41531423e-01 7.72582223e-01 9.36673942e-01 6.80897393e-01 8.03084487e-01 1.00766615e+00 9.80256056e-01 8.62786031e-01 8.01389056e-01 1.26736730e+00 8.62120071e-01 9.00850514e-01 9.08681185e-01 6.42107311e-01 6.72280452e-01 9.83443143e-01 8.58614854e-01 7.74294697e-01 8.66593747e-01 7.67435842e-01 8.55571345e-01 7.80677901e-01 7.95130746e-01 8.08796012e-01 8.38807926e-01 8.46368900e-01 1.06471149e+00 7.73321711e-01 8.03882561e-01 8.36947088e-01 9.43317898e-01 6.65750693e-01 9.80644011e-01 8.33626861e-01 8.72327205e-01 7.92634755e-01 1.09143584e+00 8.89871865e-01 8.26656677e-01 8.47990660e-01 1.00578050e+00 6.88935946e-01 7.51617365e-01 6.08738279e-01 8.88010682e-01 7.93639314e-01 6.99251362e-01 8.28717488e-01 8.32572237e-01 6.24892368e-01 7.52022434e-01 7.93999027e-01 6.64050805e-01 1.02328162e+00 9.97767512e-01 9.01066367e-01 9.77962641e-01 1.03705431e+00 1.01299245e+00 8.75934433e-01 8.95875794e-01 7.61830456e-01 1.03455847e+00 8.88704759e-01 6.21867256e-01 1.04551945e+00 1.14128702e+00 8.51000123e-01 1.01782930e+00 9.54570304e-01 9.02894871e-01 9.51501504e-01 8.30411536e-01 8.02896607e-01 8.03978568e-01 6.89663581e-01 9.54096621e-01 9.69322526e-01 7.20318598e-01 8.09696523e-01 7.13370014e-01 9.68692057e-01 7.95208229e-01 1.11391567e+00 6.48598716e-01 9.72897125e-01 6.28296720e-01 7.50049393e-01 8.26807337e-01 7.43151191e-01 7.98644473e-01 7.67285187e-01 1.02027198e+00 8.28439201e-01 6.35022799e-01 9.89687004e-01 9.59096856e-01 7.86154129e-01 7.23975311e-01 9.65172379e-01 7.05058429e-01 8.82488029e-01 8.79018582e-01 9.62761094e-01 7.88491279e-01 8.00825916e-01 7.55413206e-01 8.95990555e-01 1.00247900e+00 8.27305023e-01 8.14714077e-01 7.45501623e-01 8.50219085e-01 1.04024799e+00 6.90256979e-01 8.21164071e-01 8.01457601e-01 7.71846076e-01 8.91830770e-01 7.39546751e-01 6.08711994e-01 8.81579596e-01 7.77400278e-01 8.43114047e-01 8.90678135e-01 8.10285556e-01 7.38081239e-01 8.03413183e-01 9.06090442e-01 6.35235358e-01 8.65726324e-01 7.24339441e-01 8.15667628e-01 5.45629821e-01 9.52834751e-01 6.79072784e-01 8.02645654e-01 8.09022826e-01 8.47002016e-01 1.07817106e+00 1.10748966e+00 9.28973965e-01 1.01371668e+00 9.14532110e-01 8.45666746e-01 5.88896110e-01 7.42618713e-01 8.05218637e-01 7.67357289e-01 7.47330315e-01 1.05327377e+00 6.88878943e-01 8.69197488e-01 7.28981812e-01 1.02243226e+00 8.29832145e-01 8.86016961e-01 9.31508841e-01 8.94346548e-01 7.38826030e-01 9.71226207e-01 8.00990504e-01 7.89763585e-01 8.15387461e-01 8.03432355e-01 9.07746686e-01 6.54848988e-01 7.78447102e-01 9.41200622e-01 7.33416426e-01 7.94835229e-01 6.85817894e-01 8.88515507e-01 9.69992525e-01 8.57514538e-01 9.50520422e-01 8.72112732e-01 7.85490629e-01 8.09824412e-01 7.68528424e-01 7.92824556e-01 8.56769690e-01 8.42657900e-01 9.22833312e-01 9.29742781e-01 7.75464694e-01 9.20449549e-01 6.84240449e-01 9.69768594e-01 7.03979309e-01 8.86633078e-01 7.15911232e-01 8.54508305e-01 8.33997085e-01 7.16833295e-01 8.10735243e-01 9.86373506e-01 7.93978099e-01 8.94078213e-01 1.04185474e+00 6.57565456e-01 7.97063807e-01 5.63191857e-01 8.53466140e-01 8.33100622e-01 8.46718280e-01 8.20344081e-01 6.56544046e-01 8.35214715e-01 8.10592643e-01 8.60137231e-01 8.64423590e-01 8.89628694e-01 4.85016611e-01 5.97124694e-01 7.82998074e-01 6.26954953e-01 7.98368235e-01 6.71578066e-01 7.42151285e-01 8.59782861e-01 7.82367467e-01 9.38565918e-01 8.97487340e-01 7.78778405e-01 6.40362159e-01 8.56166124e-01 8.66317144e-01 7.79555926e-01 7.19660215e-01 9.91460650e-01 7.52386903e-01 9.38146799e-01 9.54377042e-01 9.40348166e-01 1.04897325e+00 8.82740591e-01 7.76876505e-01 8.41227876e-01 8.79149664e-01 7.37029801e-01 8.31781449e-01 9.49907194e-01 1.05090354e+00 6.78314326e-01 7.10461224e-01 8.02544731e-01 8.95684541e-01 7.79503009e-01 6.11704827e-01 6.97708400e-01 1.04210886e+00 7.72142673e-01 1.05568223e+00 6.73261230e-01 8.15221567e-01 8.29741897e-01 8.41482309e-01 8.22983497e-01 9.20170246e-01 8.23345299e-01 9.65942391e-01 7.36352653e-01 6.29189682e-01 7.21143370e-01 1.17699885e+00 9.05187474e-01 9.73008786e-01 8.74671020e-01 7.36764291e-01 6.47375412e-01 8.09353182e-01 9.27682772e-01 8.33148912e-01 7.45109621e-01 8.68163599e-01 9.17942049e-01 5.53962447e-01 8.14389132e-01 7.55602921e-01 7.02579558e-01 9.03495690e-01 7.70629705e-01 9.58896422e-01 7.53838666e-01 9.33599094e-01 5.93363141e-01 8.65122801e-01 6.96426784e-01 7.14579324e-01 7.70383703e-01 1.10372465e+00 8.94809187e-01 6.94279904e-01 8.59096734e-01 8.39754991e-01 8.45122794e-01 9.30192826e-01 6.75948078e-01 8.98980784e-01 9.54710036e-01 9.78371130e-01 5.92210273e-01 7.16160214e-01 1.11997396e+00 8.84637207e-01 8.77119354e-01 8.12920293e-01 6.99637825e-01 8.40468029e-01 7.18286014e-01 9.88188484e-01 8.22051765e-01 9.77683836e-01 6.58397492e-01 7.60669233e-01 9.82995374e-01 7.33941814e-01 7.50092705e-01 7.40338588e-01 5.50942203e-01 1.01405951e+00 7.76916238e-01 7.09455431e-01 6.30192716e-01 9.10290090e-01 8.68700330e-01 7.14765138e-01 7.60388251e-01 5.22181957e-01 8.66903964e-01 6.93148754e-01 7.42745762e-01 9.07601771e-01 7.21277314e-01 9.04906748e-01 9.22170805e-01 8.34391682e-01 8.29408706e-01 8.92660001e-01 8.77739301e-01 8.50302454e-01 9.24374171e-01 7.20913410e-01 5.69400092e-01 8.51316996e-01 1.11411017e+00 6.29660981e-01 7.37613643e-01 8.80290018e-01 8.52136973e-01 7.87908452e-01 8.60111360e-01 7.15446758e-01 7.17707060e-01 8.21528205e-01 4.05975836e-01 9.92719192e-01 7.92266751e-01 8.57823047e-01 1.11041108e+00 9.23109793e-01 9.80815185e-01 9.51166476e-01 6.62741756e-01 8.78891802e-01 9.88085062e-01 7.92050070e-01 7.41583125e-01 6.62078388e-01 7.59500011e-01 8.08363210e-01 6.82069030e-01 1.00789866e+00 4.28471715e-01 7.78140856e-01 8.01636957e-01 1.01848997e+00 6.94395495e-01 7.69088235e-01 8.36463977e-01 7.46182588e-01 5.78338924e-01 7.55420527e-01 8.40256522e-01 1.04567789e+00 9.31494627e-01 7.55321783e-01 8.46251369e-01 7.40422743e-01 8.07394596e-01 7.93685028e-01 8.14320267e-01 7.04238002e-01 6.96662115e-01 9.38891995e-01 7.66594633e-01 6.26483200e-01 9.39964652e-01 8.62988670e-01 7.15509048e-01 9.47846360e-01 9.30862001e-01 1.07397280e+00 8.84328299e-01 7.15804227e-01 9.23223614e-01 7.28849737e-01 8.42525693e-01 8.35858762e-01 7.91274061e-01 8.28228359e-01 7.68657304e-01 9.26833387e-01 8.09027960e-01 9.81520977e-01 8.58084892e-01 7.64355266e-01 7.90242825e-01 8.50349439e-01 8.59095372e-01 8.74455405e-01 8.44838025e-01 1.03765188e+00 8.77244982e-01 7.20548426e-01 9.09962025e-01 8.83198257e-01 7.60720692e-01 6.31434821e-01 1.01139719e+00 9.65125081e-01 5.25766310e-01 8.53375980e-01 1.08338589e+00 7.20526165e-01 7.98863867e-01 8.93331765e-01 5.76251155e-01 7.15047503e-01 7.57317961e-01 1.07846375e+00 7.21402866e-01 6.30580117e-01 9.13055749e-01 5.43684405e-01 7.04722974e-01 7.72914664e-01 8.28556123e-01 6.08784117e-01 8.82112456e-01 6.19630678e-01 6.79158612e-01 1.06296854e+00 5.93519055e-01 9.13117553e-01 6.74219931e-01 9.73465365e-01 9.09646905e-01 7.42995844e-01 7.99296633e-01 8.69698876e-01 7.14585165e-01 7.30296826e-01 7.90084504e-01 6.39255564e-01 7.39540511e-01 9.70219570e-01 8.13188640e-01 9.09526408e-01 8.52782220e-01 1.04204042e+00 8.97770337e-01 6.36475874e-01 7.70125536e-01 7.78517257e-01 9.19201539e-01 7.00788151e-01 7.69945016e-01 8.43527502e-01 7.49328057e-01 7.96823848e-01 7.56151912e-01 7.21562977e-01 1.00937688e+00 8.70478309e-01 9.68548082e-01 6.78655482e-01 5.57231113e-01 6.89902522e-01 7.59339817e-01 5.72274923e-01 7.67902697e-01 6.04946570e-01 8.14072781e-01 8.16949993e-01 3.15621775e-01 7.93839500e-01 7.09623098e-01 8.83552783e-01 7.38003100e-01 7.17402213e-01 7.19327093e-01 7.39616523e-01 7.35349454e-01 7.59977688e-01 5.78184368e-01 6.68491710e-01 8.68237710e-01 5.33497790e-01 6.00533433e-01 6.64925466e-01 5.00391656e-01 7.81955624e-01 6.38232303e-01 7.07983118e-01 7.72183253e-01 8.57518442e-01 7.78236733e-01 8.13076686e-01 7.45617274e-01 5.80687367e-01 8.92276134e-01 7.47325710e-01 5.92059458e-01 7.47383539e-01 6.97475212e-01 4.33486965e-01 7.97610004e-01 7.07468925e-01 6.94609834e-01 7.98959260e-01 1.06101074e+00 7.69300567e-01 7.13976880e-01 6.99058456e-01 6.70374655e-01 6.24943283e-01 6.44520359e-01 7.37212193e-01 5.90372517e-01 5.95378699e-01 8.69277114e-01 7.13526383e-01 9.67584367e-01 9.72463850e-01 3.80369111e-01 8.42254862e-01 7.06200801e-01 8.19121933e-01 4.80819859e-01 6.76370010e-01 5.77320763e-01 8.14031059e-01 6.81247902e-01 8.52468362e-01 5.50485622e-01 7.43159365e-01 7.19883527e-01 7.60966832e-01 7.38627183e-01 6.94668805e-01 5.59363565e-01 6.36020354e-01 8.20832275e-01 7.07054342e-01 5.14195618e-01 6.77103071e-01 5.15132030e-01 6.53410176e-01 6.32730864e-01 5.15825015e-01 6.40227042e-01 6.52468803e-01 6.46872513e-01 7.63397008e-01 5.79952060e-01 4.96805639e-01 4.22284699e-01 6.42305562e-01 7.76493619e-01 6.81542306e-01 6.96822271e-01 7.34119390e-01 4.78902809e-01 6.72409024e-01 4.54968972e-01 5.92389931e-01 5.54806564e-01 7.11170612e-01 4.50651559e-01 6.19781271e-01 6.22965640e-01 4.60739186e-01 8.17428035e-01 7.91191574e-01 5.39366667e-01 6.13159923e-01 5.52478438e-01 4.94636023e-01 6.15586455e-01 6.65167475e-01 5.27366002e-01 6.23302456e-01 5.95180406e-01 5.79773289e-01 5.98877734e-01 6.21979573e-01 4.97315972e-01 4.93031479e-01 4.18567027e-01 5.11075345e-01 4.79933268e-01 4.56359776e-01 6.38202272e-01 6.91866528e-01 3.87549650e-01 4.90320959e-01 5.93478225e-01 4.47862754e-01 3.68009935e-01 3.62626303e-01 3.77185223e-01 2.84018649e-01 3.98573979e-01 4.77518067e-01 6.56995880e-01 5.94574687e-01 4.35742252e-01 6.76524468e-01 3.97001424e-01 3.61336578e-01 4.76149764e-01 4.41746178e-01 3.86513403e-01 5.77005247e-01 2.58093423e-01 5.91421423e-01 3.66582778e-01 4.79951692e-01 4.95164295e-01 4.15039278e-01 5.68002952e-01 4.65080371e-01 4.86234603e-01 4.36112531e-01 4.22127330e-01 2.97182315e-01 5.13690464e-01 3.48243682e-01 3.71378930e-01 3.57664483e-01 2.17158225e-01 3.47477146e-01 3.10262941e-01 2.79166307e-01 2.75252225e-01 2.44877367e-01 3.16370582e-01 3.09118924e-01 3.56652472e-01 1.40812350e-01 3.55818181e-01 3.11862498e-01 3.52466237e-01 4.15493370e-01 3.16008822e-01 3.35533304e-01 1.89412317e-01 3.35062757e-01 4.76202817e-01 2.21864954e-01 2.19248683e-01 3.24464172e-01 2.12746610e-01 2.22241702e-01 2.63398881e-01 2.60129744e-01 1.73011579e-01 1.96958307e-01 2.56323971e-01 1.93298013e-01 1.82724625e-01 2.12504501e-01 2.22082647e-01 2.84741187e-01 9.81178588e-02 2.19592917e-01 1.93036572e-01 2.11906903e-01 9.35916880e-02 1.54694674e-01 2.04301492e-01 1.05114280e-01 2.39401463e-01 1.38769980e-01 1.76912226e-01 1.54204158e-01 7.32958754e-02 2.81515728e-01 1.46630984e-01 1.24845231e-01 2.64466839e-01 2.36524888e-01 2.41177402e-02 1.53392933e-01 4.26798252e-02 2.65730142e-01 1.02609938e-01 1.11306799e-01 0.00000000e+00 1.52416577e-01 6.82355146e-02 1.02549608e-01 8.10978113e-02 4.78195954e-02 1.28101456e-01 4.06115073e-02 9.37979734e-02 9.84868561e-02 1.73869029e-02 9.09226982e-02 8.21260345e-02 4.38921852e-02 2.06739986e-02 5.54813372e-02 6.71854596e-02 0.00000000e+00 2.26814840e-02 1.35713608e-02 1.90304906e-02 6.86821055e-02 0.00000000e+00 4.51157262e-02 0.00000000e+00 1.93812494e-02 2.47484041e-02 0.00000000e+00 0.00000000e+00 0.00000000e+00 7.23403226e-02 0.00000000e+00 0.00000000e+00 0.00000000e+00 0.00000000e+00 
      </Histogram>
    </PDF>
    <PDF Name="tZq_PDFBkg" MinNSmooth="0" MaxNSmooth="0" InterpolMethod="2" KDE_type="1" KDE_iter="1" KDE_border="1" KDE_finefactor="1.0000000000000000e+00">
      <Histogram Name="BDT_tr_B_original" NBins="5696" XMin="-9.3615818023681641e-01" XMax="9.7878825664520264e-01" HasEquidistantBins="1">
