<?xml version="1.0"?>
<MethodSetup Method="BDT::tZq">
  <GeneralInfo>
    <Info name="TMVA Release" value="4.2.1 [262657]"/>
    <Info name="ROOT Release" value="6.18/04 [397828]"/>
    <Info name="Creator" value="ntonon"/>
    <Info name="Date" value="Mon Feb  3 18:19:49 2020"/>
    <Info name="Host" value="Linux cmspcx36679 4.15.0-1067-oem #77-Ubuntu SMP Mon Jan 20 09:23:07 UTC 2020 x86_64 x86_64 x86_64 GNU/Linux"/>
    <Info name="Dir" value="/home/ntonon/Postdoc/EFTSimulations/myAnalysis"/>
    <Info name="Training events" value="100000"/>
    <Info name="TrainingTime" value="8.79831810e+01"/>
    <Info name="AnalysisType" value="Classification"/>
  </GeneralInfo>
  <Options>
    <Option name="V" modified="Yes">False</Option>
    <Option name="VerbosityLevel" modified="No">Default</Option>
    <Option name="VarTransform" modified="No">None</Option>
    <Option name="H" modified="Yes">False</Option>
    <Option name="CreateMVAPdfs" modified="Yes">True</Option>
    <Option name="IgnoreNegWeightsInTraining" modified="No">False</Option>
    <Option name="NTrees" modified="Yes">200</Option>
    <Option name="MaxDepth" modified="Yes">4</Option>
    <Option name="MinNodeSize" modified="No">5%</Option>
    <Option name="nCuts" modified="Yes">40</Option>
    <Option name="BoostType" modified="Yes">Grad</Option>
    <Option name="AdaBoostR2Loss" modified="No">quadratic</Option>
    <Option name="UseBaggedBoost" modified="No">False</Option>
    <Option name="Shrinkage" modified="Yes">1.000000e-01</Option>
    <Option name="AdaBoostBeta" modified="No">5.000000e-01</Option>
    <Option name="UseRandomisedTrees" modified="No">False</Option>
    <Option name="UseNvars" modified="No">4</Option>
    <Option name="UsePoissonNvars" modified="No">True</Option>
    <Option name="BaggedSampleFraction" modified="No">6.000000e-01</Option>
    <Option name="UseYesNoLeaf" modified="No">True</Option>
    <Option name="NegWeightTreatment" modified="Yes">pairnegweightsglobal</Option>
    <Option name="Css" modified="No">1.000000e+00</Option>
    <Option name="Cts_sb" modified="No">1.000000e+00</Option>
    <Option name="Ctb_ss" modified="No">1.000000e+00</Option>
    <Option name="Cbb" modified="No">1.000000e+00</Option>
    <Option name="NodePurityLimit" modified="No">5.000000e-01</Option>
    <Option name="SeparationType" modified="No">giniindex</Option>
    <Option name="RegressionLossFunctionBDTG" modified="No">huber</Option>
    <Option name="HuberQuantile" modified="No">7.000000e-01</Option>
    <Option name="DoBoostMonitor" modified="No">False</Option>
    <Option name="UseFisherCuts" modified="No">False</Option>
    <Option name="MinLinCorrForFisher" modified="No">8.000000e-01</Option>
    <Option name="UseExclusiveVars" modified="No">False</Option>
    <Option name="DoPreselection" modified="No">False</Option>
    <Option name="SigToBkgFraction" modified="No">1.000000e+00</Option>
    <Option name="PruneMethod" modified="No">nopruning</Option>
    <Option name="PruneStrength" modified="No">0.000000e+00</Option>
    <Option name="PruningValFraction" modified="No">5.000000e-01</Option>
    <Option name="SkipNormalization" modified="No">False</Option>
    <Option name="nEventsMin" modified="No">0</Option>
    <Option name="UseBaggedGrad" modified="Yes">False</Option>
    <Option name="GradBaggingFraction" modified="No">6.000000e-01</Option>
    <Option name="UseNTrainEvents" modified="No">0</Option>
    <Option name="NNodesMax" modified="No">0</Option>
  </Options>
  <Variables NVar="13">
    <Variable VarIndex="0" Expression="maxDijetDelR" Label="maxDijetDelR" Title="maxDijetDelR" Unit="" Internal="maxDijetDelR" Type="F" Min="4.06979054e-01" Max="9.72530365e+00"/>
    <Variable VarIndex="1" Expression="dEtaFwdJetBJet" Label="dEtaFwdJetBJet" Title="dEtaFwdJetBJet" Unit="" Internal="dEtaFwdJetBJet" Type="F" Min="0.00000000e+00" Max="6.84299088e+00"/>
    <Variable VarIndex="2" Expression="dEtaFwdJetClosestLep" Label="dEtaFwdJetClosestLep" Title="dEtaFwdJetClosestLep" Unit="" Internal="dEtaFwdJetClosestLep" Type="F" Min="1.19209290e-07" Max="5.52730942e+00"/>
    <Variable VarIndex="3" Expression="mHT" Label="mHT" Title="mHT" Unit="" Internal="mHT" Type="F" Min="1.31635956e+02" Max="3.64680371e+03"/>
    <Variable VarIndex="4" Expression="mTW" Label="mTW" Title="mTW" Unit="" Internal="mTW" Type="F" Min="3.50769376e-03" Max="1.53526086e+03"/>
    <Variable VarIndex="5" Expression="Mass_3l" Label="Mass_3l" Title="Mass_3l" Unit="" Internal="Mass_3l" Type="F" Min="8.29818497e+01" Max="1.66287842e+03"/>
    <Variable VarIndex="6" Expression="forwardJetAbsEta" Label="forwardJetAbsEta" Title="forwardJetAbsEta" Unit="" Internal="forwardJetAbsEta" Type="F" Min="7.16880942e-03" Max="4.90947247e+00"/>
    <Variable VarIndex="7" Expression="jPrimeAbsEta" Label="jPrimeAbsEta" Title="jPrimeAbsEta" Unit="" Internal="jPrimeAbsEta" Type="F" Min="1.50946080e-05" Max="4.83479500e+00"/>
    <Variable VarIndex="8" Expression="maxDeepCSV" Label="maxDeepCSV" Title="maxDeepCSV" Unit="" Internal="maxDeepCSV" Type="F" Min="6.32100105e-01" Max="9.99999940e-01"/>
    <Variable VarIndex="9" Expression="delRljPrime" Label="delRljPrime" Title="delRljPrime" Unit="" Internal="delRljPrime" Type="F" Min="3.97656411e-01" Max="7.35548115e+00"/>
    <Variable VarIndex="10" Expression="lAsymmetry" Label="lAsymmetry" Title="lAsymmetry" Unit="" Internal="lAsymmetry" Type="F" Min="-2.49951148e+00" Max="2.49685001e+00"/>
    <Variable VarIndex="11" Expression="maxDijetMass" Label="maxDijetMass" Title="maxDijetMass" Unit="" Internal="maxDijetMass" Type="F" Min="1.86727619e+01" Max="7.01166748e+03"/>
    <Variable VarIndex="12" Expression="maxDelPhiLL" Label="maxDelPhiLL" Title="maxDelPhiLL" Unit="" Internal="maxDelPhiLL" Type="F" Min="7.61103630e-03" Max="3.14157987e+00"/>
  </Variables>
  <Spectators NSpec="0"/>
  <Classes NClass="2">
    <Class Name="Signal" Index="0"/>
    <Class Name="Background" Index="1"/>
  </Classes>
  <Transformations NTransformations="0"/>
  <MVAPdfs>
    <PDF Name="tZq_PDFSig" MinNSmooth="0" MaxNSmooth="0" InterpolMethod="2" KDE_type="1" KDE_iter="1" KDE_border="1" KDE_finefactor="1.0000000000000000e+00">
      <Histogram Name="BDT_tr_S_original" NBins="2000" XMin="-9.8012501001358032e-01" XMax="9.8454517126083374e-01" HasEquidistantBins="1">
        0.00000000e+00 0.00000000e+00 0.00000000e+00 0.00000000e+00 0.00000000e+00 0.00000000e+00 0.00000000e+00 0.00000000e+00 0.00000000e+00 0.00000000e+00 0.00000000e+00 0.00000000e+00 0.00000000e+00 0.00000000e+00 0.00000000e+00 0.00000000e+00 0.00000000e+00 0.00000000e+00 0.00000000e+00 0.00000000e+00 0.00000000e+00 0.00000000e+00 0.00000000e+00 0.00000000e+00 0.00000000e+00 0.00000000e+00 2.09462553e-02 0.00000000e+00 0.00000000e+00 0.00000000e+00 0.00000000e+00 0.00000000e+00 0.00000000e+00 0.00000000e+00 0.00000000e+00 0.00000000e+00 0.00000000e+00 0.00000000e+00 1.72036424e-02 0.00000000e+00 0.00000000e+00 1.97280589e-02 0.00000000e+00 0.00000000e+00 2.76113155e-02 0.00000000e+00 2.70425883e-02 3.46064456e-02 0.00000000e+00 9.80687364e-05 7.90860666e-02 5.01643017e-02 0.00000000e+00 7.62638908e-02 2.46840726e-02 3.95398155e-02 3.60531396e-02 0.00000000e+00 0.00000000e+00 2.26423157e-02 4.10595994e-02 2.37063852e-02 3.62014383e-02 1.92234687e-02 2.29435523e-02 7.03455290e-02 3.79065455e-03 3.37699250e-02 1.97752102e-02 1.89766684e-02 8.49145048e-02 4.27844506e-02 2.09789414e-02 5.25476605e-03 6.07882818e-02 2.53907165e-02 2.33247073e-02 8.69773955e-02 2.18010057e-02 5.51806101e-02 2.06465455e-02 5.52006408e-02 1.38655116e-01 3.50934080e-02 1.13646017e-01 0.00000000e+00 0.00000000e+00 0.00000000e+00 9.53504269e-02 9.40598054e-02 3.13854959e-02 7.02863059e-02 6.34449497e-02 4.91737849e-02 1.63580345e-02 6.87656244e-02 9.62613181e-02 2.37322366e-02 4.97657299e-02 7.20741020e-02 5.25700023e-02 1.01313985e-01 1.06274113e-01 1.56050712e-01 8.63501073e-02 1.36596406e-01 9.72520516e-02 5.21776718e-02 4.18643420e-02 2.09076886e-02 6.75545180e-02 9.18700161e-02 1.52845150e-01 8.89720758e-02 1.40104062e-01 1.38418782e-01 3.69788065e-02 1.02099321e-01 1.48754868e-01 5.91650485e-02 1.40959277e-01 1.19687215e-01 2.46280653e-02 1.91865202e-02 0.00000000e+00 4.68593013e-02 2.08449546e-01 1.72852699e-01 6.88357768e-02 8.08944729e-02 7.59929020e-02 1.14287947e-01 1.43439288e-01 9.12641470e-02 1.03937417e-01 1.89538631e-02 2.40443845e-01 1.32206620e-01 1.23366330e-01 4.76376496e-02 1.29901937e-01 5.26685505e-02 8.81418657e-02 7.08249617e-02 8.67709084e-02 1.49560447e-01 6.12893761e-02 1.42050762e-01 1.69294312e-01 8.81618104e-02 1.51267118e-01 1.00095257e-01 7.79847671e-02 1.44567237e-01 1.80095220e-01 1.03806207e-01 1.16053025e-01 1.11205587e-01 2.13635840e-01 1.15271251e-01 1.30835519e-01 1.22763657e-01 1.38112372e-01 2.14343535e-01 1.14470443e-01 8.92526602e-02 1.28018493e-01 3.93640563e-02 1.51922816e-01 1.79078118e-01 1.34623005e-01 1.69743320e-01 9.86434640e-02 9.83150054e-02 1.45276292e-01 6.82264514e-02 7.72776911e-02 5.05444375e-02 2.41912071e-01 1.37139836e-01 2.06198526e-01 1.61643651e-01 1.48950148e-01 1.94164960e-01 8.82870669e-02 9.56023205e-02 1.58444449e-01 1.06815497e-01 1.08094846e-01 1.67202823e-01 3.31942084e-01 5.22799524e-02 1.35054027e-01 1.27505866e-01 1.75225510e-01 2.23399849e-01 1.01153287e-01 1.73336698e-01 1.84298582e-01 1.59593821e-01 1.56046150e-01 1.01379054e-01 2.00951839e-01 1.04757235e-01 2.63482741e-01 1.53742793e-01 1.67623069e-01 6.44352582e-02 1.83917226e-01 1.93652302e-01 1.57081629e-01 1.24109454e-01 1.94067019e-01 1.44986254e-01 1.96374954e-01 1.78269581e-01 1.58864228e-01 1.96207668e-01 2.28053563e-01 2.35521614e-01 1.51747034e-01 2.00584040e-01 2.31023044e-01 1.89230502e-01 6.29236563e-02 1.92520856e-01 8.77196539e-02 1.21441512e-01 2.75399787e-01 1.21916757e-01 1.69294174e-01 2.00976668e-01 1.64315557e-01 1.56665456e-01 1.91826497e-01 2.95205758e-01 1.27964138e-01 1.39370724e-01 1.54492283e-01 1.93733861e-01 2.00781976e-01 2.02132499e-01 1.16680701e-01 1.77423763e-01 1.63105332e-01 1.70724161e-01 2.14225684e-01 1.30157917e-01 2.98115545e-01 1.18023515e-01 1.95186109e-01 2.06938041e-01 2.96618910e-01 2.17920777e-01 1.67512697e-01 3.24908110e-01 2.51227681e-01 1.95298211e-01 1.98384546e-01 3.04219569e-01 3.18134744e-01 2.00629199e-01 1.22144170e-01 1.79630450e-01 1.20405216e-01 1.38293798e-01 2.54971942e-01 1.37637731e-01 1.31376467e-01 2.79938481e-01 1.73754909e-01 2.23113188e-01 1.74719467e-01 2.38219808e-01 2.85366331e-01 2.15638301e-01 2.93239783e-01 1.75969797e-01 1.18959072e-01 1.47163348e-01 2.27754775e-01 2.09713762e-01 2.35736300e-01 1.15693580e-01 1.38359913e-01 2.22081404e-01 2.54158171e-01 2.31845103e-01 3.52281525e-01 2.45583384e-01 3.09228563e-01 1.60980934e-01 2.03700383e-01 1.72266857e-01 2.52854889e-01 2.59805030e-01 2.69055695e-01 1.58853729e-01 2.23844394e-01 1.80137111e-01 1.97493205e-01 1.44848963e-01 9.45683658e-02 1.92022148e-01 1.81054130e-01 1.15187056e-01 1.59317870e-01 1.66507411e-01 2.09700919e-01 1.98038565e-01 2.54032270e-01 2.18944521e-01 1.72657176e-01 1.36294732e-01 1.49531731e-01 2.20984984e-01 1.15592570e-01 1.43232578e-01 2.03052059e-01 2.99170084e-01 1.67836287e-01 1.33071470e-01 2.67732210e-01 2.37764806e-01 1.84542187e-01 2.98697555e-01 1.95840289e-01 1.44850022e-01 3.10411518e-01 2.52048506e-01 1.74455485e-01 8.50868043e-02 1.66837067e-01 1.91221631e-01 2.02607847e-01 2.07033405e-01 1.76057394e-01 2.95626920e-01 1.23479649e-01 1.78260116e-01 2.91500336e-01 3.37298196e-01 2.41042247e-01 3.36025798e-01 1.90591083e-01 2.94065451e-01 1.20469505e-01 3.04694650e-01 2.93377500e-01 2.77056267e-01 1.99550595e-01 2.40489614e-01 2.36022834e-01 1.36281502e-01 2.32688520e-01 2.16975271e-01 1.26117042e-01 2.71296120e-01 2.45849785e-01 2.40922876e-01 1.92486866e-01 2.52722935e-01 2.74407830e-01 2.54770191e-01 2.15619397e-01 2.61498274e-01 2.50544289e-01 1.88185282e-01 2.05194826e-01 3.81665172e-01 2.30835555e-01 3.20869765e-01 3.29927781e-01 1.61747525e-01 2.84767220e-01 2.32419015e-01 2.92387785e-01 2.06827559e-01 1.40161627e-01 3.28552765e-01 2.82242661e-01 2.28309709e-01 2.06061514e-01 2.94506103e-01 1.75842496e-01 4.42558597e-01 1.48688787e-01 3.68954910e-01 1.81886654e-01 8.64723227e-02 2.31887765e-01 2.08364050e-01 2.60998068e-01 3.24173309e-01 2.48146599e-01 2.56913043e-01 2.14302730e-01 1.62133173e-01 2.39874360e-01 2.20434651e-01 9.72937348e-02 3.32017664e-01 2.34396974e-01 1.41904176e-01 1.71320969e-01 3.55567445e-01 3.66675311e-01 3.08778450e-01 1.72669167e-01 6.93454418e-02 9.12637033e-02 3.40610857e-01 2.35176274e-01 2.93737219e-01 1.63564620e-01 2.72448732e-01 2.04935566e-01 2.49571399e-01 8.56897702e-02 1.61802370e-01 2.39822788e-01 3.10930047e-01 2.49672730e-01 2.25212199e-01 2.21850153e-01 3.81584081e-01 9.21267844e-02 1.98646569e-01 2.29531660e-01 1.38851807e-01 2.86926143e-01 2.42014663e-01 3.22563181e-01 3.16061919e-01 2.74899277e-01 1.74761611e-01 3.31585283e-01 4.78589222e-01 2.69542224e-01 3.40906121e-01 2.86044691e-01 2.78376290e-01 2.27139286e-01 2.15123318e-01 3.14018157e-01 2.39704320e-01 2.21040454e-01 2.88598743e-01 3.17495259e-01 4.09522840e-01 1.49603294e-01 2.87001587e-01 3.09699345e-01 2.06092378e-01 3.42045521e-01 2.92246881e-01 1.55612646e-01 2.95495825e-01 2.86084855e-01 3.10346031e-01 2.56977337e-01 3.49177181e-01 1.75360952e-01 1.95179654e-01 1.97991589e-01 3.74466222e-01 2.66873143e-01 1.95871557e-01 1.56080695e-01 1.78614913e-01 2.24287161e-01 2.37005482e-01 1.28951367e-01 2.30646927e-01 3.19635822e-01 3.20534744e-01 1.47729439e-01 2.90164334e-01 2.64046509e-01 2.66533143e-01 3.67844960e-01 1.66945301e-01 1.83739874e-01 2.62408719e-01 5.04754284e-01 2.94068291e-01 1.60162209e-01 3.97035382e-01 2.20404037e-01 3.12813570e-01 1.13906281e-01 2.69289577e-01 1.50145920e-01 2.72959710e-01 2.65535732e-01 3.17810067e-01 2.81627661e-01 3.59307255e-01 2.06621619e-01 2.10072938e-01 3.65383480e-01 1.54761011e-01 2.65304284e-01 3.15617983e-01 3.23071984e-01 1.58981017e-01 2.67767628e-01 2.41259721e-01 2.94384092e-01 3.54904469e-01 2.82918756e-01 4.14280350e-01 2.36095324e-01 4.92848094e-01 4.12659035e-01 2.44937084e-01 4.89162129e-01 2.04074226e-01 2.49816104e-01 1.51582986e-01 3.42878221e-01 1.28641272e-01 2.03557787e-01 4.02326006e-01 2.04805970e-01 2.76553468e-01 3.42475996e-01 3.87095493e-01 1.08816138e-01 3.09338401e-01 1.73569304e-01 3.61774893e-01 1.65822190e-01 3.54993914e-01 2.71198791e-01 2.07287333e-01 2.92422002e-01 1.59588387e-01 3.22362391e-01 2.17955747e-01 2.81265728e-01 2.08735161e-01 1.43366458e-01 1.85703358e-01 1.79498296e-01 1.86398383e-01 4.53724668e-01 2.80070244e-01 2.44387674e-01 1.93304533e-01 3.23897984e-01 2.40109006e-01 2.50571032e-01 1.35756442e-01 2.24332568e-01 2.79415527e-01 2.24383747e-01 2.52153350e-01 3.44806964e-01 2.09012540e-01 2.75601272e-01 1.50757597e-01 1.13499538e-01 2.77981571e-01 2.99455461e-01 2.02441564e-01 4.20820911e-01 2.22745005e-01 3.38765250e-01 1.32606484e-01 1.33923800e-01 2.60659621e-01 2.10350512e-01 3.51502230e-01 1.60432615e-01 3.85625523e-01 3.61296006e-01 2.56388766e-01 2.04977960e-01 2.68696454e-01 1.72502562e-01 3.00687423e-01 1.73331272e-01 2.69679193e-01 2.04313924e-01 3.51862248e-01 2.90659621e-01 1.42863251e-01 4.29986714e-01 3.17596438e-01 2.54670511e-01 2.79923795e-01 4.36116084e-01 2.25723005e-01 4.07723331e-01 2.73124004e-01 1.82628648e-01 1.68333318e-01 2.54172143e-01 9.78279758e-02 3.05785619e-01 1.64453933e-01 1.74204805e-01 2.50630042e-01 2.12824589e-01 4.22392746e-01 3.44731830e-01 3.47961074e-01 9.05226932e-02 1.08583537e-01 3.08229178e-01 3.14949890e-01 3.35673045e-01 3.53711935e-01 2.53921397e-01 3.00589524e-01 4.37941679e-01 2.30319504e-01 3.77525027e-01 2.46321831e-01 3.71532009e-01 2.74401908e-01 2.10567073e-01 2.70967460e-01 2.43063053e-01 3.76197143e-01 2.34967372e-01 2.20464845e-01 3.88328333e-01 2.05115176e-01 2.41998840e-01 2.03430572e-01 2.37372979e-01 2.26559795e-01 3.51092776e-01 4.02025109e-01 4.83249675e-01 3.29262944e-01 3.72091501e-01 1.99636713e-01 2.84676479e-01 3.73719486e-01 3.26949343e-01 3.18016658e-01 3.05510826e-01 2.50400160e-01 3.27824279e-01 1.91953703e-01 2.47105946e-01 1.73251391e-01 2.33854441e-01 2.75459167e-01 2.71260184e-01 3.28917828e-01 2.55978167e-01 4.37131793e-01 3.79702403e-01 3.31798713e-01 4.04247146e-01 2.68004908e-01 2.37737984e-01 3.09606744e-01 2.27601873e-01 1.84680829e-01 2.46625639e-01 2.75706288e-01 2.85259280e-01 2.39761104e-01 4.08717241e-01 2.88653611e-01 3.80784028e-01 3.58276351e-01 1.87803517e-01 3.35516628e-01 2.94999943e-01 4.26700025e-01 2.83757832e-01 2.93390558e-01 2.28018732e-01 1.88913959e-01 4.59770335e-01 3.58718524e-01 3.27787985e-01 3.35201808e-01 4.64013577e-01 3.11896950e-01 2.94595978e-01 1.78979977e-01 4.19368911e-01 3.84421721e-01 1.63735971e-01 2.43094752e-01 3.80889244e-01 2.84756792e-01 2.27539894e-01 3.04957887e-01 4.01995153e-01 2.57872801e-01 3.97487707e-01 1.88622475e-01 2.47036481e-01 2.30364755e-01 4.97529028e-01 3.27039513e-01 1.70519762e-01 2.72835941e-01 2.21239411e-01 2.69738999e-01 3.58596505e-01 3.28646453e-01 3.60854832e-01 2.67333434e-01 2.68568233e-01 3.28770040e-01 1.40555935e-01 1.65384501e-01 2.73276676e-01 2.27431898e-01 2.62501362e-01 3.53406180e-01 3.05021461e-01 1.36592038e-01 2.87166760e-01 3.18349958e-01 2.78441883e-01 2.26487477e-01 2.81638459e-01 4.18980552e-01 2.60364509e-01 2.42456820e-01 3.74216254e-01 2.92770140e-01 3.18278291e-01 1.91902937e-01 3.19716359e-01 2.00501973e-01 2.04336202e-01 3.80523699e-01 2.69803470e-01 3.34630696e-01 2.78177393e-01 2.85165874e-01 3.17224933e-01 1.91640845e-01 4.06964887e-01 3.81706587e-01 3.77581121e-01 3.10541672e-01 4.36892349e-01 1.30514531e-01 2.58461352e-01 2.76381593e-01 2.09663082e-01 3.55164690e-01 2.44220004e-01 1.42821906e-01 2.56326488e-01 2.47285841e-01 3.55513626e-01 4.96473428e-01 1.72398625e-01 4.56158714e-01 4.52882939e-01 3.08920934e-01 3.83943551e-01 2.16712484e-01 2.97329080e-01 2.97461962e-01 2.45522786e-01 2.61998526e-01 3.11782738e-01 2.85650787e-01 2.33266263e-01 4.04387888e-01 2.65875438e-01 3.08713819e-01 3.26375062e-01 2.06803628e-01 3.28007204e-01 1.92917717e-01 3.45527186e-01 2.67280014e-01 4.13837942e-01 1.58335859e-01 2.14613801e-01 2.84807314e-01 2.86781372e-01 2.23382044e-01 2.38988353e-01 4.12289690e-01 2.89135653e-01 2.66062896e-01 3.80974341e-01 3.04212632e-01 1.52799289e-01 3.60000438e-01 3.82385425e-01 2.26915428e-01 2.48767299e-01 1.91128009e-01 2.68118999e-01 3.08350937e-01 2.86512343e-01 2.76326516e-01 4.08589607e-01 1.67892987e-01 2.54534375e-01 3.12696244e-01 2.64214656e-01 3.93804732e-01 2.38351397e-01 3.91582946e-01 2.90276744e-01 3.31498861e-01 2.97413233e-01 4.28099159e-01 2.40821762e-01 3.06509389e-01 2.31105993e-01 2.58533313e-01 2.39690694e-01 4.15097373e-01 2.27079976e-01 2.99680587e-01 2.68132226e-01 2.08670295e-01 2.05036702e-01 2.78436062e-01 3.45983704e-01 2.09445969e-01 4.30948686e-01 3.48459544e-01 3.56561379e-01 2.90495503e-01 3.86551193e-01 3.00029551e-01 2.59351723e-01 1.99373609e-01 3.37981833e-01 3.54363066e-01 4.00196255e-01 3.43830855e-01 2.43564239e-01 3.93249939e-01 1.55144309e-01 2.60143803e-01 4.29113592e-01 4.01053068e-01 2.70752473e-01 3.99820857e-01 2.98234784e-01 3.81432288e-01 3.87095208e-01 2.11859302e-01 4.02535751e-01 4.02747260e-01 4.12275341e-01 2.12391402e-01 3.18018277e-01 2.95222390e-01 3.14962686e-01 4.71958092e-01 3.05448088e-01 3.06916763e-01 5.77313499e-01 2.23307651e-01 1.62801215e-01 3.42001025e-01 3.79676504e-01 1.87385749e-01 2.77216641e-01 4.81954949e-01 3.99780190e-01 2.97992688e-01 2.24313359e-01 3.53819746e-01 2.17487651e-01 3.56957235e-01 3.13633752e-01 1.82004267e-01 2.31185106e-01 1.50092320e-01 2.45035753e-01 3.94055409e-01 3.42038149e-01 2.57793789e-01 3.17505855e-01 2.60545409e-01 2.63039352e-01 5.13671113e-01 1.81662019e-01 2.44085099e-01 3.12548739e-01 9.84208527e-02 4.32197552e-01 3.74941215e-01 2.73233611e-01 3.55942444e-01 1.35224100e-01 2.49359847e-01 2.21669758e-01 4.86764613e-01 4.50364224e-01 3.31026998e-01 2.52793314e-01 4.94824164e-01 2.56433188e-01 3.28717012e-01 2.98553536e-01 2.12935590e-01 2.88704106e-01 3.91570987e-01 2.10907800e-01 2.68751052e-01 3.29594798e-01 4.76842790e-01 2.24259869e-01 4.15383654e-01 4.72350851e-01 3.51609198e-01 2.86326535e-01 2.04429490e-01 2.55788689e-01 2.83086567e-01 2.55088385e-01 3.93195118e-01 3.02205233e-01 3.42941469e-01 3.53524108e-01 2.57933736e-01 3.21845397e-01 3.06197397e-01 3.17678780e-01 4.50691652e-01 2.65368336e-01 4.01533872e-01 3.21094913e-01 3.03021296e-01 4.07453836e-01 3.43284615e-01 3.56738142e-01 2.16840166e-01 3.44201948e-01 3.03705652e-01 3.22332075e-01 4.42182483e-01 4.13652829e-01 2.46231254e-01 2.87334638e-01 3.40958648e-01 2.26800178e-01 3.29814258e-01 3.35113261e-01 2.86520246e-01 3.69802288e-01 3.06414008e-01 3.34900090e-01 2.33149454e-01 2.20627067e-01 3.05782482e-01 2.88455010e-01 4.69402438e-01 1.91200174e-01 2.90008055e-01 3.10044294e-01 2.24697654e-01 3.11270238e-01 2.72266496e-01 3.03831869e-01 3.01933860e-01 2.99674681e-01 1.82693373e-01 2.29621503e-01 3.71970809e-01 2.87918055e-01 1.46759149e-01 4.45626174e-01 4.16582573e-01 3.98519117e-01 4.31765650e-01 3.51087303e-01 3.84412260e-01 3.88829209e-01 3.96537759e-01 3.16898757e-01 2.15283287e-01 4.10515948e-01 2.08647783e-01 2.71682460e-01 3.92657239e-01 2.72506574e-01 3.13671050e-01 3.66362902e-01 3.71830043e-01 4.39779239e-01 2.16100895e-01 2.73748445e-01 2.11609393e-01 4.24155588e-01 3.06078277e-01 3.52567952e-01 2.80920752e-01 3.00892263e-01 3.47874101e-01 2.68671720e-01 1.65461635e-01 3.07173335e-01 3.25489596e-01 3.08344118e-01 4.05556108e-01 3.03051714e-01 3.79565410e-01 2.54534341e-01 4.21670844e-01 3.40540811e-01 3.29348209e-01 2.10138481e-01 3.51402727e-01 3.44712418e-01 3.26042643e-01 3.24042798e-01 2.28738109e-01 4.10711533e-01 3.12886186e-01 2.88872352e-01 4.28394755e-01 3.85270765e-01 2.71801748e-01 2.73363501e-01 4.47423017e-01 3.10484212e-01 3.51160834e-01 4.02299740e-01 2.93088164e-01 3.59897538e-01 3.25390397e-01 4.03168316e-01 2.73510869e-01 3.12875312e-01 3.59378906e-01 4.53289434e-01 3.58119986e-01 3.54445028e-01 4.34269230e-01 4.06732248e-01 4.91840827e-01 3.67580157e-01 5.43548809e-01 2.91845661e-01 4.03011640e-01 4.41394946e-01 3.76976412e-01 5.54585283e-01 4.80253952e-01 2.71776367e-01 4.38483794e-01 2.62120403e-01 2.85487562e-01 4.20557303e-01 3.23219509e-01 1.97088641e-01 3.32241921e-01 3.78804439e-01 3.16463180e-01 4.86147203e-01 2.11988536e-01 2.97170999e-01 6.06032144e-01 5.20519849e-01 4.62294827e-01 4.63875668e-01 2.62838422e-01 4.40268046e-01 3.53962815e-01 3.15545730e-01 4.68008301e-01 3.45406953e-01 3.68868862e-01 3.56036166e-01 6.18408136e-01 3.54204416e-01 3.47217884e-01 3.26380656e-01 3.40940686e-01 3.08450631e-01 5.51493727e-01 3.16138742e-01 4.87450591e-01 3.74459177e-01 3.10961688e-01 5.86511159e-01 3.31819116e-01 3.62567764e-01 3.34396719e-01 3.39984134e-01 3.91818276e-01 4.20783247e-01 3.76162028e-01 3.31508362e-01 2.32998763e-01 3.15893102e-01 1.87178509e-01 2.48768631e-01 3.86679602e-01 2.98795342e-01 4.03385816e-01 5.81613437e-01 3.44603326e-01 3.42315097e-01 2.85425126e-01 4.22983968e-01 3.27548071e-01 2.92841784e-01 1.68450133e-01 3.01013355e-01 4.11073863e-01 4.28750518e-01 2.74479637e-01 3.62110709e-01 3.33227094e-01 2.45717112e-01 3.19729443e-01 4.20163001e-01 2.27403024e-01 3.52443790e-01 4.51877587e-01 3.34224502e-01 2.90765287e-01 3.62658974e-01 5.19270945e-01 2.18076201e-01 3.68909556e-01 4.59816702e-01 3.63884732e-01 3.55757747e-01 2.89275557e-01 3.62299383e-01 2.86681940e-01 4.75054176e-01 4.08961288e-01 4.73962765e-01 4.22111216e-01 3.66503564e-01 4.63899993e-01 3.44661708e-01 3.15157392e-01 3.99871299e-01 4.78143342e-01 2.61715266e-01 4.95934459e-01 3.63971602e-01 4.85521696e-01 3.85932108e-01 3.59773993e-01 5.58035934e-01 2.35461071e-01 4.79962531e-01 2.85505865e-01 3.03550482e-01 3.48251650e-01 2.79738262e-01 4.90961778e-01 2.69055088e-01 5.05521514e-01 2.71313467e-01 4.27199345e-01 5.87891478e-01 5.53266156e-01 3.59831660e-01 3.88399203e-01 3.34226630e-01 4.66411962e-01 4.65882133e-01 5.56875453e-01 2.36786822e-01 3.42941354e-01 3.22329609e-01 4.48874278e-01 3.86587152e-01 3.97179211e-01 4.22824098e-01 2.76557517e-01 5.02742154e-01 1.85489076e-01 5.96252520e-01 5.36837438e-01 3.33762893e-01 4.54928077e-01 3.45719703e-01 4.01618214e-01 5.07481657e-01 3.97465443e-01 4.56815930e-01 3.01325565e-01 4.38154213e-01 3.17942452e-01 3.97881114e-01 3.61137698e-01 3.80807677e-01 4.69757248e-01 2.55681795e-01 2.50058519e-01 5.43219117e-01 5.95248102e-01 4.27807988e-01 4.84112761e-01 3.41472135e-01 4.26995696e-01 4.00975227e-01 3.55199718e-01 4.39227434e-01 3.80589611e-01 4.43759062e-01 2.87530436e-01 4.52896601e-01 4.34315160e-01 2.66199819e-01 2.93853733e-01 3.54925042e-01 3.56631865e-01 4.60061030e-01 2.94955431e-01 5.28003863e-01 3.07536860e-01 4.62696213e-01 4.03906950e-01 4.91381039e-01 5.17791639e-01 5.49384866e-01 3.89382398e-01 3.21413810e-01 3.52989874e-01 4.28083617e-01 4.95068098e-01 5.06148812e-01 5.98968925e-01 4.97283425e-01 3.47093325e-01 5.59388890e-01 5.38969525e-01 3.30170117e-01 4.16646671e-01 3.06610048e-01 3.51325971e-01 5.01438137e-01 4.68639286e-01 4.18544578e-01 4.96298216e-01 4.41043456e-01 4.44596079e-01 4.77322214e-01 5.04547800e-01 2.98552815e-01 3.90860270e-01 4.22304694e-01 4.28059957e-01 3.13994453e-01 5.45733141e-01 5.33366218e-01 4.41129100e-01 5.66866096e-01 6.25640107e-01 5.33402286e-01 4.52355985e-01 5.51184488e-01 6.14573057e-01 4.38696174e-01 5.72932243e-01 4.70011118e-01 3.85334338e-01 6.15711506e-01 3.21150389e-01 5.35671424e-01 5.67677041e-01 2.91111889e-01 5.40604618e-01 4.63768053e-01 3.35706612e-01 4.80836005e-01 4.52206780e-01 3.60046195e-01 3.99900565e-01 3.86275260e-01 6.07782914e-01 5.45739735e-01 3.96961408e-01 6.73443898e-01 6.34212281e-01 4.56141652e-01 4.39668033e-01 5.34495610e-01 4.78536639e-01 5.39926174e-01 4.76173139e-01 4.33256123e-01 2.86383658e-01 3.98276796e-01 5.56264617e-01 4.69715052e-01 3.38515365e-01 4.45700992e-01 4.83735641e-01 5.43988583e-01 4.19345244e-01 6.74875873e-01 5.31386216e-01 4.14210851e-01 4.24476477e-01 6.63746862e-01 3.31953419e-01 5.59605090e-01 5.11966334e-01 4.98944236e-01 5.06146230e-01 2.85309415e-01 5.26288855e-01 4.46595929e-01 7.34224376e-01 4.94107133e-01 5.34028037e-01 4.77991268e-01 4.52889239e-01 5.68303110e-01 3.47874473e-01 7.21565335e-01 2.93287954e-01 4.68952552e-01 3.97348968e-01 5.99419679e-01 3.13125000e-01 6.27024378e-01 6.91545991e-01 2.77988911e-01 5.60892030e-01 6.44398352e-01 5.01669118e-01 4.31824991e-01 5.53561139e-01 4.94388718e-01 4.69841710e-01 3.98985812e-01 5.02852970e-01 4.80953099e-01 6.29231611e-01 5.53637818e-01 5.39311725e-01 4.99781003e-01 5.61588635e-01 6.20938732e-01 3.00739717e-01 5.13548327e-01 4.72577377e-01 4.84065512e-01 4.36026628e-01 5.76437458e-01 4.13045626e-01 4.42681883e-01 5.98648777e-01 4.34314902e-01 3.91381708e-01 4.43124530e-01 4.26288047e-01 5.64222242e-01 5.62471184e-01 6.38657002e-01 3.59207445e-01 5.21893110e-01 3.74487337e-01 6.61731683e-01 6.04362960e-01 5.36601480e-01 5.21475269e-01 6.36585148e-01 5.63378918e-01 4.53091819e-01 5.09081826e-01 3.26967850e-01 3.87106919e-01 4.85688426e-01 6.05733134e-01 5.01554662e-01 4.80903867e-01 5.52189177e-01 6.66218377e-01 3.35807960e-01 4.55820101e-01 4.48030718e-01 6.07717104e-01 5.48805910e-01 5.34774308e-01 3.41129323e-01 7.84025717e-01 5.41391138e-01 5.59841284e-01 5.29035039e-01 7.34644404e-01 4.07571649e-01 4.95460867e-01 5.05205248e-01 3.35770060e-01 5.65109883e-01 6.22696934e-01 4.24819540e-01 5.23585082e-01 4.58032302e-01 5.08250922e-01 5.79287257e-01 4.04168567e-01 5.24161020e-01 5.20851488e-01 6.26292627e-01 2.72335508e-01 4.38327006e-01 5.05651932e-01 5.35718025e-01 4.18679037e-01 5.14069996e-01 6.44453002e-01 4.23373034e-01 5.44278652e-01 4.51177145e-01 4.05152788e-01 5.14677360e-01 4.67257763e-01 6.33189072e-01 6.42134709e-01 7.41440648e-01 4.66727665e-01 4.12581241e-01 3.88592045e-01 6.17050683e-01 4.63448359e-01 7.79400249e-01 3.38773779e-01 6.83969360e-01 5.98555003e-01 4.73708374e-01 5.33107684e-01 5.85073202e-01 7.08975004e-01 5.63532710e-01 4.45739036e-01 3.73515104e-01 6.53752742e-01 6.77909977e-01 5.57103177e-01 7.32075162e-01 8.05247768e-01 5.26697736e-01 4.51781654e-01 5.06109613e-01 4.28522350e-01 3.92315372e-01 5.28830561e-01 5.74648377e-01 7.29850102e-01 5.11151527e-01 6.55786819e-01 5.17916944e-01 4.18320269e-01 4.44874439e-01 4.72172395e-01 6.38083023e-01 3.39645116e-01 5.99845758e-01 4.01666747e-01 5.31190380e-01 7.11336085e-01 6.84404563e-01 5.45819749e-01 4.55961430e-01 7.07701079e-01 5.95635415e-01 4.88688068e-01 5.13488105e-01 5.14492931e-01 5.03471358e-01 6.22244965e-01 5.41633312e-01 6.10312469e-01 5.16746428e-01 7.95536180e-01 6.87353926e-01 4.61060387e-01 5.07632889e-01 5.31221923e-01 4.71051362e-01 6.17798720e-01 8.68853137e-01 7.68048173e-01 6.71917271e-01 6.67758546e-01 5.84696545e-01 6.89534100e-01 6.31361088e-01 5.54210680e-01 6.59167417e-01 2.59926141e-01 5.61020793e-01 3.91627016e-01 7.98964434e-01 6.40623539e-01 4.68880555e-01 5.49224280e-01 7.13357806e-01 5.35962691e-01 7.82829328e-01 3.42840452e-01 6.47716646e-01 5.61148943e-01 7.48315993e-01 5.86514731e-01 5.92149415e-01 7.68908113e-01 6.14004870e-01 7.84055983e-01 5.55324846e-01 7.73150914e-01 6.42929330e-01 6.95805557e-01 6.71989476e-01 7.85082194e-01 6.54810787e-01 3.27692158e-01 6.97430309e-01 5.92022945e-01 6.44090175e-01 5.50176645e-01 7.24418920e-01 5.25610316e-01 7.35468505e-01 4.58424736e-01 5.70977127e-01 4.93637647e-01 7.15553551e-01 5.73994567e-01 7.19409426e-01 5.36689832e-01 5.35741230e-01 5.75062706e-01 5.12484704e-01 5.79040145e-01 5.58385801e-01 5.86557883e-01 5.30333317e-01 5.42977530e-01 6.01563308e-01 5.24826645e-01 6.52357917e-01 6.73539948e-01 5.24147062e-01 6.85430412e-01 6.92643975e-01 6.92610250e-01 8.71772675e-01 6.99304204e-01 5.53446748e-01 6.28758591e-01 5.36635034e-01 8.06694284e-01 7.24903833e-01 6.91981457e-01 5.07643723e-01 5.15241824e-01 6.25168908e-01 6.96507413e-01 7.68793065e-01 5.78524037e-01 6.04346259e-01 7.20308666e-01 6.33258294e-01 5.50671148e-01 7.65530585e-01 7.74849374e-01 4.24230772e-01 6.44521383e-01 5.90649007e-01 8.45923295e-01 7.91980445e-01 6.95869022e-01 6.85393348e-01 5.56559822e-01 6.00481187e-01 7.34718938e-01 7.93032236e-01 6.87246228e-01 7.79860864e-01 6.93019377e-01 6.57233897e-01 5.35033869e-01 4.77791953e-01 5.75869857e-01 6.88830739e-01 5.65390719e-01 6.29357376e-01 6.00940517e-01 8.46086953e-01 7.78545030e-01 7.35780469e-01 7.91404605e-01 8.14930804e-01 6.39712446e-01 7.98431955e-01 8.57226640e-01 5.21816683e-01 6.24264937e-01 6.98597398e-01 8.56996197e-01 4.40756563e-01 7.29951768e-01 8.14824988e-01 6.17689583e-01 8.73258991e-01 6.49623467e-01 8.83234657e-01 5.78759018e-01 5.32581264e-01 8.30498586e-01 7.15310087e-01 7.59224757e-01 7.66607490e-01 6.32864158e-01 7.80355851e-01 7.16406732e-01 7.72462305e-01 5.76473684e-01 6.71181058e-01 7.15017997e-01 6.41990174e-01 8.54304400e-01 6.24838444e-01 9.44460245e-01 9.00253121e-01 8.43757549e-01 7.38655201e-01 8.18634672e-01 7.80884478e-01 8.04684217e-01 1.06954192e+00 8.13372592e-01 6.95343418e-01 6.17260644e-01 5.87332501e-01 9.26343626e-01 6.43459652e-01 5.89613727e-01 7.52854108e-01 9.88631011e-01 7.48386618e-01 8.12206497e-01 8.29050500e-01 7.53108361e-01 8.22768131e-01 7.67061019e-01 8.10823238e-01 5.97261508e-01 7.16128569e-01 7.30515567e-01 1.01817649e+00 1.00268071e+00 6.62087242e-01 5.53323053e-01 8.09871134e-01 8.56687975e-01 8.34335088e-01 8.14514814e-01 6.28913674e-01 8.04255351e-01 6.74953052e-01 8.12280616e-01 8.59889961e-01 9.49978097e-01 7.64465926e-01 9.01742764e-01 8.63038063e-01 1.14546473e+00 7.07094389e-01 8.89445165e-01 7.69879359e-01 8.97516583e-01 9.49670666e-01 5.63037558e-01 7.05047129e-01 8.13512425e-01 9.07239998e-01 1.19609041e+00 1.01194065e+00 7.28335487e-01 7.43755113e-01 7.55476773e-01 7.40818831e-01 8.79257227e-01 7.48049629e-01 5.09770487e-01 8.52533120e-01 1.03548135e+00 8.88723388e-01 1.08365647e+00 9.82750182e-01 6.78087700e-01 9.70962603e-01 7.65324287e-01 9.26171025e-01 7.48478168e-01 9.26046890e-01 8.82561699e-01 8.49852093e-01 8.08296445e-01 7.66110040e-01 1.25083373e+00 8.65045298e-01 1.01857676e+00 9.82475109e-01 9.61128277e-01 8.02534130e-01 7.31320104e-01 1.02718256e+00 9.26328915e-01 9.38031992e-01 8.46880047e-01 9.27575411e-01 1.09182227e+00 1.15559836e+00 7.51431416e-01 9.28685634e-01 8.79223414e-01 1.09856276e+00 9.41472516e-01 9.22830742e-01 9.81466407e-01 9.41355033e-01 1.20804101e+00 9.90135399e-01 1.12197787e+00 1.10286004e+00 1.12728694e+00 1.12027254e+00 9.56926921e-01 7.98547095e-01 7.28143512e-01 9.90579802e-01 8.52229095e-01 1.09557824e+00 8.72094710e-01 9.95959720e-01 1.00649140e+00 1.00545018e+00 8.95941536e-01 1.23661766e+00 1.14780512e+00 9.85327316e-01 1.28504433e+00 1.27996128e+00 8.16502178e-01 8.44606291e-01 1.22542708e+00 1.21677496e+00 9.84547438e-01 1.04395319e+00 1.05213762e+00 1.21652684e+00 1.10734437e+00 1.05279958e+00 1.09613542e+00 1.11930082e+00 1.08761356e+00 1.08007067e+00 9.93659601e-01 1.32532122e+00 1.25236288e+00 9.64049356e-01 8.23599003e-01 1.10092316e+00 9.30600999e-01 1.09660117e+00 9.64424872e-01 7.49746284e-01 9.04714700e-01 1.20741290e+00 1.13674692e+00 8.60972412e-01 1.14366533e+00 1.23777808e+00 1.27598036e+00 1.18189531e+00 1.28641491e+00 8.49045835e-01 1.30271310e+00 1.09769605e+00 1.14461678e+00 1.03059884e+00 1.21794481e+00 1.17981381e+00 9.20111729e-01 1.03009467e+00 1.23653041e+00 1.35901440e+00 1.23276691e+00 1.35930702e+00 1.04169913e+00 1.12198237e+00 1.12979823e+00 1.61321973e+00 1.22752139e+00 1.46539651e+00 1.21915803e+00 1.41231855e+00 1.50871392e+00 1.59912919e+00 1.38594177e+00 1.03484547e+00 1.40197772e+00 1.22801690e+00 1.26901354e+00 1.31503472e+00 1.26965634e+00 1.25352267e+00 1.50020913e+00 1.47251193e+00 1.16270400e+00 9.87536626e-01 1.19567312e+00 1.52388437e+00 1.17570313e+00 1.29167881e+00 1.20987190e+00 1.29376345e+00 1.45579649e+00 1.35692153e+00 1.24519644e+00 1.30652932e+00 1.47703963e+00 1.60173587e+00 1.06333722e+00 1.24530396e+00 1.24442106e+00 1.72033593e+00 1.15503149e+00 1.14962862e+00 1.39532087e+00 1.52875821e+00 1.58074462e+00 1.38049189e+00 1.36516700e+00 1.45299298e+00 1.43985857e+00 1.29217111e+00 1.42773779e+00 1.54438110e+00 1.55033394e+00 1.46377616e+00 1.10753550e+00 1.48912659e+00 1.52290138e+00 1.47115406e+00 1.63516430e+00 1.35146408e+00 1.77644085e+00 1.46105488e+00 1.37301697e+00 1.40839687e+00 1.43850963e+00 1.63444220e+00 1.55956081e+00 1.50789332e+00 1.64301051e+00 1.59248555e+00 1.26820432e+00 1.80378218e+00 1.39698401e+00 1.44613105e+00 1.48375771e+00 1.66959643e+00 1.63203438e+00 1.80941280e+00 1.72099189e+00 1.65835276e+00 1.93730322e+00 1.88845373e+00 1.77823811e+00 1.77692298e+00 1.44993664e+00 1.80414995e+00 1.58923451e+00 1.82910161e+00 1.64205471e+00 1.64066432e+00 2.01385898e+00 1.91092025e+00 1.67466333e+00 1.68699833e+00 1.50422238e+00 1.53164405e+00 1.69695919e+00 1.62995300e+00 1.55382801e+00 1.97417898e+00 1.95940127e+00 1.58122092e+00 1.74374922e+00 1.88483183e+00 1.63477569e+00 1.88599201e+00 2.13320929e+00 2.03105204e+00 1.93981284e+00 1.88802526e+00 1.99943642e+00 1.83969427e+00 1.93857261e+00 2.18042754e+00 2.16204460e+00 2.13708391e+00 1.71161678e+00 2.05539870e+00 1.88148523e+00 1.76308218e+00 1.89696503e+00 1.76527029e+00 1.92979939e+00 2.13677582e+00 2.18884928e+00 2.26534727e+00 2.15288784e+00 1.98702772e+00 2.21786378e+00 1.70433115e+00 2.07132086e+00 2.09916498e+00 2.21143060e+00 2.33141003e+00 2.35794956e+00 2.24248146e+00 1.94245544e+00 2.08843830e+00 2.37127135e+00 2.18937783e+00 2.04052537e+00 1.98730246e+00 2.70434116e+00 2.20822618e+00 2.19254849e+00 2.26595361e+00 2.36652742e+00 2.13078184e+00 2.82165349e+00 1.98619052e+00 2.18473993e+00 2.42567953e+00 2.13565334e+00 2.13943434e+00 2.22122801e+00 2.25785347e+00 2.31702266e+00 2.16377732e+00 1.95968089e+00 2.41525446e+00 2.02291389e+00 1.97237118e+00 1.94852804e+00 1.87612753e+00 2.12811726e+00 2.40057694e+00 1.82128472e+00 1.83138514e+00 1.81640057e+00 1.90190127e+00 1.88292838e+00 2.04352400e+00 2.04824307e+00 1.68031756e+00 1.86648123e+00 1.71657139e+00 1.53367019e+00 1.46295527e+00 1.49873177e+00 1.66913991e+00 1.68257275e+00 1.48663063e+00 1.31797402e+00 1.78609087e+00 1.11018612e+00 1.12947482e+00 1.09871675e+00 1.01767926e+00 8.51629710e-01 8.50710611e-01 8.46897124e-01 6.51832780e-01 5.83205903e-01 3.94480279e-01 1.60688190e-01 2.67718352e-01 1.25669421e-01 1.29614506e-01 1.92157710e-02 6.30583740e-02 9.30999529e-02 6.09844709e-02 0.00000000e+00 
      </Histogram>
    </PDF>
    <PDF Name="tZq_PDFBkg" MinNSmooth="0" MaxNSmooth="0" InterpolMethod="2" KDE_type="1" KDE_iter="1" KDE_border="1" KDE_finefactor="1.0000000000000000e+00">
      <Histogram Name="BDT_tr_B_original" NBins="2000" XMin="-9.8012501001358032e-01" XMax="9.8454517126083374e-01" HasEquidistantBins="1">
        1.43607339e-02 0.00000000e+00 3.40228628e-02 6.58897095e-02 4.04880070e-02 2.42445764e-02 4.98533630e-02 2.37371010e-02 4.34813654e-02 2.12549608e-02 7.87450747e-02 1.47903935e-01 7.34603621e-02 4.81408151e-02 9.45109772e-02 1.58144940e-01 9.84856942e-02 1.92032732e-01 1.88137864e-01 2.45135640e-01 2.67404673e-01 6.23746385e-02 3.08258437e-01 2.21883918e-01 2.29839205e-01 3.52402166e-01 3.59945523e-01 3.08836904e-01 3.44433645e-01 3.68368517e-01 5.10284101e-01 4.30769692e-01 3.52312773e-01 3.09551701e-01 4.95316926e-01 6.18179349e-01 4.58757963e-01 5.94181325e-01 5.94490908e-01 5.14902439e-01 6.20272153e-01 4.54118850e-01 5.57122303e-01 5.09481159e-01 8.52465288e-01 6.82280700e-01 7.66997022e-01 8.24161032e-01 7.66267968e-01 8.43168430e-01 9.05824618e-01 7.72868312e-01 8.41198335e-01 7.44573619e-01 9.10481309e-01 1.00255952e+00 1.12326497e+00 6.05148947e-01 1.12294892e+00 1.22539740e+00 1.18447713e+00 1.14398104e+00 1.31930518e+00 1.09675918e+00 1.08178447e+00 1.18358470e+00 1.35684505e+00 1.18306089e+00 1.26469047e+00 9.69215011e-01 1.37184085e+00 1.11233687e+00 1.03330540e+00 1.21664013e+00 1.19661854e+00 1.13264518e+00 1.37212593e+00 1.14979117e+00 1.70808319e+00 1.77767715e+00 1.05280954e+00 1.27014319e+00 1.44757543e+00 1.25311087e+00 1.49019416e+00 1.52280139e+00 1.56292908e+00 1.34118689e+00 1.37516085e+00 1.49602344e+00 1.33058526e+00 1.39196186e+00 1.50299501e+00 1.55234792e+00 1.58166933e+00 1.43299218e+00 1.20217408e+00 1.24013859e+00 1.70725746e+00 1.26889911e+00 1.59535554e+00 1.69370877e+00 1.61720603e+00 1.83160691e+00 1.69792601e+00 1.93502213e+00 1.36310033e+00 1.44225634e+00 1.44894529e+00 1.61077454e+00 1.71042968e+00 1.58768259e+00 1.42115914e+00 1.61578982e+00 1.78383428e+00 1.83074638e+00 1.55973550e+00 1.73034500e+00 1.57362718e+00 1.60725252e+00 1.60256334e+00 1.71351416e+00 1.21322091e+00 1.77394964e+00 1.33960669e+00 1.55445961e+00 1.70757479e+00 1.82222256e+00 1.55807601e+00 1.66416451e+00 1.30683766e+00 1.55772686e+00 1.56695172e+00 1.43957667e+00 1.76653208e+00 1.92834825e+00 1.65326419e+00 1.85777378e+00 1.72543478e+00 1.70191101e+00 1.44621776e+00 1.60246562e+00 1.84861930e+00 1.26943712e+00 1.68588341e+00 1.63563058e+00 1.20548893e+00 1.50451964e+00 1.55957839e+00 1.58235800e+00 1.60828906e+00 1.61759816e+00 1.49286284e+00 1.64286007e+00 2.06764147e+00 1.70220251e+00 1.97120926e+00 1.59718348e+00 1.52473760e+00 1.74825608e+00 1.67643405e+00 1.84709510e+00 1.61116395e+00 1.78508260e+00 1.41426114e+00 1.45273868e+00 1.60504081e+00 1.33217636e+00 1.53597026e+00 1.08853429e+00 1.57943248e+00 1.44386293e+00 1.81724628e+00 1.41983911e+00 1.30447573e+00 1.70540299e+00 1.56113007e+00 1.48007150e+00 1.48114276e+00 1.40401581e+00 1.54276614e+00 1.57341948e+00 1.69753648e+00 1.43108743e+00 1.46443032e+00 1.70378842e+00 1.55782649e+00 1.62636264e+00 1.42325390e+00 1.70206332e+00 1.66031709e+00 1.36975173e+00 1.85483005e+00 1.82063555e+00 1.62108758e+00 1.47492754e+00 1.22327335e+00 1.58695087e+00 2.17613729e+00 1.34175213e+00 1.47067448e+00 1.58338977e+00 1.50201036e+00 1.48937887e+00 1.28100357e+00 1.24500734e+00 1.33803252e+00 1.49967275e+00 1.49788363e+00 1.67473941e+00 1.52103224e+00 1.17506439e+00 1.66823066e+00 1.33096488e+00 1.32947616e+00 1.41378034e+00 1.76734319e+00 1.54861829e+00 1.80798066e+00 1.53514365e+00 1.41985382e+00 1.17013086e+00 1.69003700e+00 1.46895290e+00 1.37988688e+00 1.64230350e+00 1.43974841e+00 1.40178254e+00 1.42375387e+00 1.34000111e+00 1.52958010e+00 1.54472443e+00 1.22571907e+00 1.17205637e+00 1.25415529e+00 1.26371310e+00 1.26776445e+00 1.47977460e+00 1.37559631e+00 1.47399001e+00 1.33114293e+00 1.01945542e+00 1.41469008e+00 1.74238298e+00 1.39952259e+00 1.48770060e+00 1.38435438e+00 1.54079904e+00 1.32629778e+00 1.54251573e+00 1.26478771e+00 1.20105414e+00 1.14775614e+00 1.43531772e+00 1.57700336e+00 1.28749415e+00 1.15513682e+00 1.18215677e+00 1.36850659e+00 1.51542900e+00 1.36820211e+00 1.23929555e+00 1.40247123e+00 1.48376518e+00 1.54373766e+00 1.29192912e+00 1.23360232e+00 1.35921362e+00 1.52818759e+00 1.06737778e+00 1.36893437e+00 1.32057044e+00 1.13309946e+00 1.68586842e+00 1.37754725e+00 1.05015146e+00 1.53179647e+00 1.31941396e+00 1.45494461e+00 1.21016589e+00 1.32200547e+00 1.24036698e+00 1.48454220e+00 1.53705019e+00 1.18941799e+00 1.45497255e+00 8.67831852e-01 1.19980981e+00 1.20314050e+00 1.35998469e+00 1.19978768e+00 1.19871715e+00 1.16375857e+00 1.22539086e+00 9.59927410e-01 1.43539355e+00 1.29208817e+00 1.39131738e+00 1.28760187e+00 1.15215460e+00 1.21510786e+00 1.00221143e+00 1.35188664e+00 1.08484909e+00 1.36506044e+00 1.50088314e+00 1.13599187e+00 1.28764819e+00 1.21924056e+00 1.44507526e+00 1.37520340e+00 1.15839450e+00 1.05673035e+00 1.41001615e+00 9.94926131e-01 1.04815235e+00 1.00382121e+00 1.43361002e+00 1.18861070e+00 1.10064232e+00 9.69235396e-01 1.00993628e+00 1.29923629e+00 1.04018969e+00 1.00352563e+00 1.15766414e+00 1.42287853e+00 1.00094469e+00 9.93893085e-01 1.20149205e+00 1.38688510e+00 1.07883143e+00 1.06463923e+00 1.05626274e+00 9.22184144e-01 1.10008113e+00 8.85915899e-01 1.13098557e+00 1.15974966e+00 1.13164484e+00 1.01903594e+00 8.92424522e-01 1.28163145e+00 1.16593751e+00 9.26088469e-01 1.15141143e+00 9.15585012e-01 1.04231109e+00 1.32643654e+00 9.85847171e-01 8.25558599e-01 1.17259724e+00 1.23142945e+00 1.22427519e+00 8.90150130e-01 1.22778883e+00 1.01706664e+00 1.02291365e+00 1.06579809e+00 1.11287660e+00 1.13435638e+00 1.00258416e+00 9.65173338e-01 9.12924966e-01 9.57781669e-01 9.46781414e-01 7.21251058e-01 1.24926254e+00 1.15341975e+00 9.05484751e-01 1.08796785e+00 1.00034137e+00 1.34126266e+00 1.00425035e+00 1.28986115e+00 1.04419883e+00 9.35877119e-01 9.85375427e-01 1.03177568e+00 1.28038911e+00 1.12767598e+00 1.18686588e+00 9.70132172e-01 1.32838556e+00 1.09134184e+00 8.03290675e-01 1.13066350e+00 9.84696713e-01 8.98666262e-01 8.47864618e-01 8.24825119e-01 1.25318560e+00 1.07012563e+00 9.38851443e-01 1.12659461e+00 8.37729992e-01 1.08763951e+00 1.06670350e+00 1.02429122e+00 1.02198250e+00 8.74239457e-01 1.05229660e+00 9.74062631e-01 8.57284332e-01 7.79128240e-01 7.93789413e-01 9.82510548e-01 9.02950919e-01 1.22667561e+00 1.01371035e+00 9.92979459e-01 8.92601256e-01 8.80402458e-01 1.09471663e+00 1.05110395e+00 8.71417716e-01 7.99530677e-01 1.07836418e+00 9.62187226e-01 8.58379651e-01 9.10537789e-01 8.04310177e-01 1.27718514e+00 1.03566037e+00 9.06162487e-01 1.09188962e+00 9.70123828e-01 8.48521099e-01 6.83727360e-01 7.98756046e-01 9.50331537e-01 1.02118168e+00 6.89007282e-01 7.47419606e-01 9.47296606e-01 9.36037158e-01 8.86424149e-01 8.18196760e-01 9.99913889e-01 1.11889137e+00 8.12210559e-01 8.78960806e-01 9.34556206e-01 8.14484186e-01 9.94279881e-01 7.53298105e-01 1.07069635e+00 8.76511072e-01 9.47638736e-01 1.10823107e+00 1.07924469e+00 8.78602749e-01 1.08002817e+00 6.49264178e-01 9.81936649e-01 7.39136336e-01 8.45149434e-01 7.96766037e-01 6.01400406e-01 1.06487365e+00 6.85115685e-01 9.25382762e-01 7.20681371e-01 7.78111496e-01 7.11551009e-01 8.71863578e-01 7.69441190e-01 7.48797047e-01 8.68812470e-01 6.65116732e-01 8.40703617e-01 8.44506130e-01 7.42262983e-01 9.69241371e-01 8.43444388e-01 1.18781880e+00 7.85907543e-01 8.54915714e-01 7.15435116e-01 8.02141036e-01 8.44371856e-01 1.03498971e+00 7.48300767e-01 8.36368086e-01 7.83835435e-01 8.76749743e-01 7.20673861e-01 8.21747034e-01 8.88234955e-01 8.03545518e-01 6.15088463e-01 1.01226246e+00 8.06315350e-01 8.54084222e-01 8.67665768e-01 8.15288901e-01 6.98094866e-01 6.66361060e-01 5.64313521e-01 6.40641995e-01 7.61204548e-01 7.92129067e-01 7.02614462e-01 5.36960317e-01 6.38587122e-01 9.29836565e-01 7.08937106e-01 1.15266233e+00 6.21652481e-01 6.78926941e-01 8.05475103e-01 7.15455190e-01 6.76650206e-01 6.44763210e-01 7.69288520e-01 5.53939738e-01 8.57587952e-01 6.62252538e-01 6.92989509e-01 6.71828641e-01 8.11583924e-01 6.88834256e-01 9.01562667e-01 7.33351585e-01 6.39051543e-01 7.88311391e-01 7.36565994e-01 7.02474726e-01 6.33076775e-01 8.49501700e-01 5.29191468e-01 5.99894409e-01 8.44705534e-01 1.08063469e+00 7.10641455e-01 6.02692944e-01 7.86713688e-01 5.26302607e-01 7.70891489e-01 5.80605834e-01 5.07108422e-01 8.14664595e-01 5.26873640e-01 5.68376753e-01 5.22781696e-01 7.41095031e-01 6.93056809e-01 8.42574403e-01 7.21944943e-01 7.46249090e-01 6.67229233e-01 8.53726779e-01 5.65108092e-01 5.94259705e-01 6.92630685e-01 5.09825919e-01 6.69819488e-01 6.77507276e-01 8.26281919e-01 5.94377244e-01 7.27999572e-01 7.47399736e-01 5.67464166e-01 4.41969407e-01 7.96719870e-01 6.00784935e-01 7.99326225e-01 7.83888542e-01 7.72411662e-01 7.42239743e-01 5.85195276e-01 6.79957308e-01 5.47402453e-01 5.48244468e-01 5.62613693e-01 7.10385336e-01 6.05043889e-01 7.63932731e-01 6.69472972e-01 6.17183310e-01 6.57606885e-01 5.60406222e-01 5.75860753e-01 5.48669699e-01 5.88469272e-01 4.78759302e-01 7.75184542e-01 5.93108513e-01 5.41001579e-01 8.16858352e-01 1.02313050e+00 7.10212036e-01 6.49049725e-01 7.25768331e-01 6.85055074e-01 7.24792564e-01 5.05028513e-01 5.72838532e-01 5.39784805e-01 6.85716610e-01 4.87586930e-01 7.11174338e-01 4.86152492e-01 6.24287651e-01 6.46366708e-01 5.50837697e-01 7.19616824e-01 6.21773978e-01 7.70805439e-01 5.98340714e-01 5.06842931e-01 5.46551290e-01 6.44204586e-01 5.32163395e-01 5.42431610e-01 6.11579909e-01 5.53606371e-01 5.93699188e-01 4.90443562e-01 5.53584279e-01 6.83609796e-01 7.78945221e-01 6.25728420e-01 5.97976749e-01 6.95811389e-01 5.84205536e-01 5.49714311e-01 5.55512550e-01 4.83995366e-01 5.95173273e-01 6.07128785e-01 5.07933690e-01 5.72981700e-01 3.81013965e-01 6.02951556e-01 4.38015788e-01 6.10781316e-01 4.98254382e-01 5.24907923e-01 6.43063067e-01 5.66729616e-01 4.75295351e-01 7.78344338e-01 3.81421893e-01 4.52167333e-01 5.29779499e-01 4.02275796e-01 6.40137444e-01 5.00224100e-01 6.88722182e-01 5.35635518e-01 6.14571019e-01 7.58342926e-01 5.61288071e-01 7.13091156e-01 6.60868742e-01 5.95077924e-01 7.93232311e-01 4.90184872e-01 5.14828827e-01 6.70982517e-01 4.45927718e-01 3.90784712e-01 4.76318388e-01 5.49578531e-01 5.54280340e-01 3.82718554e-01 6.15864601e-01 5.54330570e-01 4.64502608e-01 8.90470768e-01 4.05463902e-01 5.92737413e-01 7.15348154e-01 6.82035930e-01 5.31305108e-01 4.82044482e-01 5.68032131e-01 6.57274003e-01 5.16786866e-01 6.85641594e-01 8.02165279e-01 5.32252385e-01 4.79637060e-01 6.08928187e-01 5.07596435e-01 6.64340140e-01 3.96516033e-01 6.47701844e-01 4.60290040e-01 6.53622425e-01 6.02338749e-01 5.77646612e-01 3.48688861e-01 6.61121650e-01 5.18099752e-01 5.61465318e-01 6.39648522e-01 7.18215915e-01 2.78996060e-01 3.55560418e-01 5.01954448e-01 4.60391070e-01 5.30574492e-01 3.61570982e-01 4.83025297e-01 4.99643358e-01 6.87343665e-01 5.22126425e-01 4.88250529e-01 4.98772492e-01 5.34569278e-01 6.51290291e-01 3.54511015e-01 5.72971571e-01 6.01137644e-01 4.63640147e-01 4.81768748e-01 5.17864547e-01 4.04623455e-01 6.97282071e-01 5.77532681e-01 5.37368234e-01 5.44287921e-01 4.22363407e-01 4.59772710e-01 4.68233769e-01 4.92984071e-01 7.45374485e-01 5.98052280e-01 4.51779313e-01 5.32251737e-01 4.19243339e-01 6.16399704e-01 5.43544194e-01 4.89924002e-01 5.97275447e-01 5.19029556e-01 3.79351013e-01 4.06750822e-01 5.66085178e-01 3.95777610e-01 4.38790647e-01 4.99871701e-01 3.43945934e-01 5.83394728e-01 5.03979738e-01 4.77676150e-01 5.43508990e-01 5.49624696e-01 4.87610379e-01 3.30430541e-01 4.17351027e-01 6.01573277e-01 4.22680445e-01 4.69023104e-01 5.54946829e-01 4.44034189e-01 4.82497447e-01 5.91615695e-01 4.31715768e-01 3.85843628e-01 4.68728567e-01 3.29623444e-01 4.87248952e-01 5.98141306e-01 4.15964167e-01 3.65153882e-01 2.48934524e-01 6.50338899e-01 4.02775322e-01 6.17994161e-01 6.36066580e-01 4.63871585e-01 4.50654771e-01 3.81235090e-01 4.71191293e-01 5.01801636e-01 4.18472124e-01 3.10992839e-01 4.72625860e-01 5.19542755e-01 5.32992738e-01 4.88702401e-01 4.31974782e-01 3.69166384e-01 4.51457332e-01 4.57325821e-01 3.54832896e-01 3.56744127e-01 5.41611127e-01 5.07379029e-01 5.68393664e-01 6.27601812e-01 4.55889218e-01 5.03187697e-01 5.46458095e-01 3.72879680e-01 4.44658347e-01 4.37943837e-01 5.06465887e-01 4.89998972e-01 4.02404840e-01 4.17768353e-01 2.92983218e-01 6.57271539e-01 3.75502006e-01 5.08972371e-01 3.96525467e-01 4.47924553e-01 3.79254699e-01 5.95977032e-01 4.36147627e-01 3.94278245e-01 2.91975085e-01 3.62025543e-01 6.10786166e-01 3.85684698e-01 4.11809775e-01 5.42722001e-01 3.89500547e-01 6.08048897e-01 3.17792813e-01 4.27326883e-01 3.84441351e-01 5.68580662e-01 4.93553835e-01 2.84570072e-01 3.14653883e-01 3.89522457e-01 4.62570948e-01 3.96783196e-01 3.89961286e-01 2.95749197e-01 3.88545044e-01 3.42683327e-01 4.39634271e-01 3.62472751e-01 2.59293625e-01 4.31836747e-01 4.01543627e-01 3.37409702e-01 3.60878537e-01 3.39154495e-01 4.08859650e-01 4.02643691e-01 5.10887349e-01 3.66869423e-01 5.26100651e-01 4.12940293e-01 4.34951960e-01 2.91884077e-01 2.31338538e-01 4.56915071e-01 3.86909945e-01 3.21295424e-01 1.82093178e-01 3.55748528e-01 4.43751601e-01 4.28561487e-01 2.52437260e-01 4.83645116e-01 4.43645571e-01 4.59512446e-01 3.69361148e-01 2.00231716e-01 4.33591521e-01 3.86435899e-01 3.44981154e-01 4.23820032e-01 3.35078510e-01 2.61286930e-01 2.82977018e-01 5.31656008e-01 3.76444025e-01 3.66281806e-01 4.71853451e-01 2.78490860e-01 3.00123283e-01 3.03913922e-01 3.58090147e-01 4.66725331e-01 3.94739787e-01 2.64298389e-01 4.08821242e-01 4.27075932e-01 4.62972009e-01 2.96204919e-01 4.41436527e-01 4.82207626e-01 3.09515920e-01 5.56383555e-01 4.20567367e-01 3.21904609e-01 4.37547018e-01 2.91524202e-01 5.42995845e-01 4.07415171e-01 4.00066347e-01 3.77842871e-01 4.01477553e-01 5.66719969e-01 4.42121470e-01 5.28450885e-01 3.37832796e-01 4.82456213e-01 4.49798688e-01 3.34951752e-01 4.57421703e-01 2.69509632e-01 3.29709312e-01 4.05221946e-01 5.00320385e-01 4.69091514e-01 3.68111435e-01 3.18292801e-01 3.63806454e-01 1.91051149e-01 4.38364329e-01 4.29017320e-01 3.64331492e-01 4.53494364e-01 2.59680013e-01 2.90708431e-01 3.09113083e-01 4.55194420e-01 5.08095128e-01 3.89917920e-01 5.68561548e-01 2.73753612e-01 4.36617811e-01 4.68890204e-01 3.98148576e-01 3.50771283e-01 3.84857360e-01 3.84225846e-01 4.76096142e-01 2.02218715e-01 4.33734205e-01 3.87112035e-01 3.96374035e-01 5.41931688e-01 3.95930848e-01 3.01762678e-01 3.32838949e-01 3.71985752e-01 4.38667409e-01 3.97618498e-01 3.97276307e-01 4.08157656e-01 5.63798513e-01 2.37174540e-01 2.25528005e-01 3.01746649e-01 4.77556589e-01 3.24524314e-01 3.74990046e-01 3.53453161e-01 3.32617158e-01 4.29792931e-01 5.18184762e-01 4.90087528e-01 2.00496889e-01 2.56320535e-01 3.39655044e-01 3.31102538e-01 3.13743241e-01 2.18829059e-01 2.92002248e-01 3.43884549e-01 3.45081026e-01 3.97830895e-01 3.22980734e-01 3.38298233e-01 3.20837109e-01 2.60103546e-01 1.65801510e-01 3.24981902e-01 2.47246201e-01 2.81135639e-01 2.98239748e-01 3.42352387e-01 4.29781567e-01 3.10491059e-01 3.59667926e-01 2.56542526e-01 3.39924392e-01 3.73082319e-01 3.38512020e-01 2.98000481e-01 2.64723386e-01 2.28482827e-01 3.86976074e-01 3.90591049e-01 4.50015060e-01 2.98392046e-01 3.45604697e-01 2.29956915e-01 3.76928023e-01 3.01284954e-01 4.22321964e-01 3.61866530e-01 3.29240903e-01 3.16218273e-01 3.94555662e-01 2.65019804e-01 2.92449024e-01 3.52690032e-01 2.96261250e-01 2.27759112e-01 3.47512750e-01 3.35030202e-01 1.96009737e-01 3.88068560e-01 2.39150213e-01 3.19906672e-01 3.16799285e-01 3.15129057e-01 5.28744147e-01 1.63695781e-01 3.18718124e-01 3.40041060e-01 3.43981077e-01 1.90132444e-01 3.32041389e-01 4.52976725e-01 2.48965250e-01 2.96881628e-01 3.00163678e-01 2.76099812e-01 3.63851016e-01 2.18146881e-01 3.46624956e-01 3.42335969e-01 3.95953825e-01 1.64604488e-01 2.65730510e-01 3.77042325e-01 2.51939704e-01 3.67998299e-01 3.61755210e-01 2.82484465e-01 2.87044066e-01 2.49014678e-01 2.73719299e-01 3.81997969e-01 3.06679771e-01 2.27503906e-01 2.81139995e-01 4.24077250e-01 4.42207179e-01 5.35676679e-01 1.98463959e-01 2.59110785e-01 1.96962375e-01 2.18324456e-01 3.31617647e-01 2.94921509e-01 5.21846746e-01 3.59486097e-01 3.31572334e-01 3.71759923e-01 3.30073950e-01 1.60917639e-01 3.10326761e-01 1.87299146e-01 2.85141074e-01 2.72045879e-01 2.57888025e-01 3.60567639e-01 3.59713691e-01 3.64125896e-01 2.97015873e-01 3.57044757e-01 4.30369483e-01 3.76191931e-01 3.10018647e-01 3.16326107e-01 3.16298706e-01 2.36127532e-01 2.65585582e-01 2.62957147e-01 3.14451660e-01 3.14261451e-01 2.59450914e-01 2.55830941e-01 4.27709245e-01 2.43499707e-01 3.12373253e-01 2.88759849e-01 3.28979339e-01 2.61867372e-01 2.50246885e-01 3.68035088e-01 4.14064252e-01 1.55877043e-01 2.97941931e-01 2.22978140e-01 2.64466235e-01 2.76353664e-01 2.27640009e-01 2.09191690e-01 2.67494017e-01 2.66488086e-01 3.58773817e-01 3.43712213e-01 4.47149821e-01 1.98615258e-01 2.23973952e-01 3.33326711e-01 8.49417672e-02 3.82072673e-01 1.90769593e-01 3.19877439e-01 2.77124914e-01 3.04686898e-01 2.72299097e-01 3.07444838e-01 3.51220979e-01 2.78299908e-01 3.46012491e-01 3.34497006e-01 2.78990022e-01 4.24025594e-01 1.47694289e-01 2.30759314e-01 4.23283785e-01 2.61792542e-01 2.63250069e-01 2.11859574e-01 2.54406522e-01 2.40574667e-01 2.80072669e-01 4.13633587e-01 2.13317834e-01 2.99735042e-01 2.64452931e-01 2.99285247e-01 2.65912224e-01 3.31504181e-01 2.72311833e-01 3.78728021e-01 3.49803014e-01 2.95982273e-01 3.59096695e-01 3.27301521e-01 1.74243174e-01 3.88058898e-01 3.54758024e-01 2.80147187e-01 2.49191418e-01 2.45139523e-01 3.82726726e-01 2.46785212e-01 3.31695071e-01 1.79659109e-01 4.83449167e-01 2.56413939e-01 3.34734918e-01 4.22785651e-01 2.98932882e-01 2.28805323e-01 2.52462047e-01 3.85952318e-01 1.67399510e-01 2.35958297e-01 2.27558527e-01 3.33652755e-01 3.96529566e-01 2.87287542e-01 2.93032257e-01 1.92547014e-01 3.24679289e-01 2.18284072e-01 2.68168304e-01 1.81838291e-01 1.42457743e-01 3.48463238e-01 2.34478191e-01 3.33289019e-01 4.07364750e-01 2.79900558e-01 3.54325893e-01 3.28105636e-01 2.91397637e-01 3.66589107e-01 2.32480223e-01 3.67579559e-01 2.99965487e-01 3.26020836e-01 1.95518182e-01 2.02734957e-01 3.06944910e-01 3.19927101e-01 3.91586372e-01 3.60271922e-01 1.97949868e-01 2.75751116e-01 1.61319252e-01 3.43909239e-01 2.00890425e-01 2.21150909e-01 2.49288603e-01 2.43346648e-01 1.76090135e-01 2.10833440e-01 2.04113295e-01 2.22578785e-01 2.60933798e-01 2.59905641e-01 9.85411579e-02 3.40329926e-01 3.14924100e-01 1.68275908e-01 2.16871054e-01 3.00319524e-01 3.00908126e-01 2.06370148e-01 1.91920938e-01 3.04299957e-01 2.71011830e-01 3.13065530e-01 1.57229056e-01 4.04885584e-01 2.78682864e-01 3.22705569e-01 2.87938593e-01 1.78450249e-01 1.69097193e-01 4.04275130e-01 3.50163563e-01 1.49424577e-01 3.52006134e-01 3.24057792e-01 3.44372852e-01 2.71668876e-01 1.09465837e-01 2.26169793e-01 1.38763527e-01 1.39714341e-01 3.72586411e-01 1.99869003e-01 2.48606066e-01 2.54748873e-01 3.14287428e-01 1.00089414e-01 2.97160437e-01 1.84057004e-01 2.33687511e-01 3.76465632e-01 3.05999026e-01 3.24420920e-01 3.69971428e-01 2.66512249e-01 2.11333674e-01 3.33686219e-01 1.24284196e-01 1.41484152e-01 2.56165831e-01 3.99424088e-01 3.03921190e-01 2.56437040e-01 2.32880793e-01 2.65342196e-01 2.21021952e-01 2.34240436e-01 3.01997176e-01 2.02209977e-01 3.86223579e-01 1.94451246e-01 1.94924848e-01 2.40521939e-01 3.26208911e-01 2.49776123e-01 2.59541165e-01 3.00690280e-01 2.05700611e-01 2.75632772e-01 2.72484105e-01 3.13396944e-01 2.48154194e-01 1.73291725e-01 2.51968621e-01 3.06778467e-01 3.16847169e-01 3.04287421e-01 2.03485669e-01 2.49419614e-01 3.16103687e-01 2.44756769e-01 1.64044186e-01 3.37081387e-01 3.73655338e-01 1.83114071e-01 2.11156169e-01 3.03530044e-01 2.02406220e-01 1.43673291e-01 3.18783762e-01 2.12392382e-01 2.63599656e-01 1.98024623e-01 1.33934352e-01 2.67847368e-01 3.11201386e-01 2.24622416e-01 2.47694558e-01 3.09367557e-01 2.05305999e-01 1.79682172e-01 3.88247144e-01 1.76990603e-01 2.88277260e-01 3.08300101e-01 2.81765356e-01 2.08900908e-01 2.92571636e-01 1.66528908e-01 3.10603570e-01 2.08588891e-01 2.06714930e-01 2.17808440e-01 2.19799189e-01 1.71598764e-01 2.72737258e-01 2.56128033e-01 1.53111193e-01 2.27760367e-01 2.55836587e-01 1.91372170e-01 1.66057874e-01 2.00524039e-01 1.73161716e-01 2.87468178e-01 1.60544357e-01 9.73659520e-02 1.74030608e-01 2.64912888e-01 1.90101293e-01 2.57874745e-01 3.17757120e-01 1.55972690e-01 2.41143164e-01 1.89829349e-01 3.08004192e-01 1.93028996e-01 2.37082427e-01 2.53285614e-01 1.56786366e-01 2.39575387e-01 1.92439197e-01 4.24358319e-01 2.16885413e-01 3.25363511e-01 2.42806513e-01 3.00369247e-01 1.80339175e-01 3.79342323e-01 1.78400929e-01 2.54868546e-01 2.65432522e-01 3.79546264e-01 2.74490931e-01 1.39983967e-01 1.11508331e-01 2.71256557e-01 2.79020014e-01 1.90990138e-01 1.44698220e-01 2.18269966e-01 2.74511290e-01 1.68036786e-01 1.99376797e-01 1.61430035e-01 2.41084803e-01 3.15312183e-01 4.13863663e-01 3.40259389e-01 3.35166342e-01 1.43777486e-01 2.75962011e-01 3.39684761e-01 2.23168929e-01 1.86765000e-01 2.27015419e-01 8.05665845e-02 2.04517484e-01 1.74064218e-01 3.46988628e-01 3.61778237e-01 2.17151335e-01 2.28708190e-01 1.97747438e-01 2.45025836e-01 2.64727045e-01 8.94374365e-02 2.84516924e-01 1.11344627e-01 2.78638027e-01 2.10402890e-01 2.75322674e-01 3.53988695e-01 1.59316156e-01 1.86366285e-01 2.93217379e-01 1.87204490e-01 1.57076547e-01 2.21402464e-01 2.31556627e-01 2.45416378e-01 1.59553471e-01 2.36771955e-01 2.15993233e-01 9.99771025e-02 2.39565985e-01 2.09046249e-01 3.04363967e-01 2.89749886e-01 2.30594771e-01 1.93642075e-01 2.50661084e-01 2.36820550e-01 2.45844214e-01 1.16638788e-01 8.61710951e-02 1.75182599e-01 1.61974479e-01 3.21198903e-01 2.94784489e-01 1.87491348e-01 1.99950040e-01 2.58064667e-01 3.22819733e-01 2.64116555e-01 1.93203360e-01 1.68725758e-01 2.06228073e-01 1.29319879e-01 2.77336093e-01 2.59811227e-01 3.10096543e-01 2.41122044e-01 1.28116305e-01 2.38721516e-01 2.69580582e-01 1.88622393e-01 2.03679977e-01 1.55117472e-01 2.87772570e-01 3.20649404e-01 2.72632802e-01 8.17901408e-02 3.93264159e-01 8.42491021e-02 1.90687068e-01 2.63434269e-01 1.38642052e-01 2.83043564e-01 2.12797379e-01 2.33129610e-01 1.44209359e-01 2.45577288e-01 1.74450942e-01 2.33063027e-01 1.75110678e-01 8.73842775e-02 1.03166949e-01 2.38197153e-01 2.85116333e-01 1.29172274e-01 1.78408789e-01 7.24696294e-02 3.29418222e-01 2.17451192e-01 3.32457721e-01 2.26941618e-01 1.48168071e-01 2.45422744e-01 1.25266904e-01 1.74082010e-01 1.26679595e-01 2.77284500e-01 1.75456339e-01 2.57546306e-01 1.86570094e-01 2.06703379e-01 2.03406926e-01 2.65355113e-01 1.84153163e-01 1.81575200e-01 2.26556871e-01 2.57100623e-01 1.33635899e-01 3.24324693e-01 1.20924397e-01 8.75899068e-02 2.58812478e-01 2.22353393e-01 2.43986277e-01 2.96625508e-01 1.26766657e-01 2.78855082e-01 2.23821719e-01 1.44571524e-01 2.24608671e-01 2.30500871e-01 1.37751815e-01 2.61583151e-01 2.56318045e-01 1.93366791e-01 2.38575716e-01 3.07305383e-01 1.76788578e-01 3.45258045e-01 2.44870488e-01 2.91200923e-01 2.08363500e-01 1.24840117e-01 1.73464620e-01 2.21960543e-01 2.28672637e-01 2.71330839e-01 1.91107750e-01 1.65903386e-01 2.02871242e-01 1.35072047e-01 2.05464815e-01 1.24175314e-01 2.17536438e-01 2.07198235e-01 8.97576773e-02 3.17911962e-01 2.81867809e-01 1.69219045e-01 2.54536838e-01 1.68321539e-01 1.69358191e-01 1.63072882e-01 2.11795685e-01 1.14517316e-01 1.50081970e-01 2.99175531e-01 1.10128184e-01 2.01992597e-01 2.72239530e-01 1.64384588e-01 2.57878819e-01 2.65579388e-01 8.29703129e-02 1.41873300e-01 1.15659193e-01 1.16724203e-01 2.73846517e-01 2.32982452e-01 1.81822255e-01 2.12226052e-01 2.13497352e-01 1.20462665e-01 2.47375119e-01 2.00608364e-01 1.31681160e-01 1.42871075e-01 1.29048792e-01 1.64268009e-01 2.84991713e-01 1.96060471e-01 2.34758471e-01 8.50525686e-02 2.12404489e-01 9.98256617e-02 2.08936568e-01 1.18348120e-01 3.60841182e-01 1.09626797e-01 1.20762942e-01 2.17447791e-01 2.11328347e-01 2.85121811e-01 1.58603981e-01 2.24245378e-01 1.58383783e-01 1.14472792e-01 1.73546828e-01 7.46330779e-02 1.51436392e-01 2.16026949e-01 1.80846603e-01 1.99369199e-01 3.25731847e-01 9.98330142e-02 1.91244886e-01 1.50383248e-01 1.30144501e-01 7.78459413e-02 1.54047857e-01 2.50127955e-01 1.44943487e-01 2.72753339e-01 2.24176222e-01 2.75797817e-01 1.42513226e-01 2.27134583e-01 1.77754754e-01 1.55387086e-01 1.91214543e-01 1.72483200e-01 1.75450809e-01 1.52222455e-01 1.81090042e-01 1.00128929e-01 1.20272545e-01 1.60242831e-01 2.86568353e-01 1.00597432e-01 1.74896005e-01 1.00891438e-01 1.99417140e-01 2.38681221e-01 1.60822195e-01 1.85449443e-01 2.23273149e-01 1.09863256e-01 1.98026159e-01 1.42719630e-01 1.49798451e-01 1.65932188e-01 1.05025886e-01 2.00403548e-01 2.39524453e-01 1.39597204e-01 1.31046198e-01 2.19514977e-01 1.89338507e-01 2.16620405e-01 2.85884604e-01 2.40585991e-01 1.85024161e-01 1.18829826e-01 2.30342159e-01 1.67938666e-01 1.64108464e-01 1.57940056e-01 1.53569741e-01 2.95876432e-01 1.66140268e-01 2.30672328e-01 1.69033477e-01 1.07054278e-01 8.98416823e-02 2.09638738e-01 1.23850854e-01 1.78447679e-01 1.25880435e-01 2.70455361e-01 1.61724455e-01 1.77756723e-01 2.16920689e-01 1.65300716e-01 2.17636159e-01 2.12619242e-01 2.17284542e-01 2.30861088e-01 1.56038575e-01 1.97538574e-01 5.10565304e-02 1.26933587e-01 1.56970199e-01 3.82229871e-02 1.16898071e-01 1.41391834e-01 9.67253743e-02 1.53380693e-01 1.38510037e-01 1.45243344e-01 1.63047262e-01 1.96833788e-01 1.09115064e-01 2.17948132e-01 7.67430689e-02 1.04175285e-01 1.50302802e-01 1.98962949e-01 2.02413620e-01 1.07438777e-01 1.31182391e-01 1.38576141e-01 1.07858147e-01 1.96851867e-01 2.78977562e-01 2.30618850e-02 4.58321739e-02 1.96313212e-01 9.17126643e-02 2.22268461e-01 6.92884935e-02 1.42829137e-01 1.10562929e-01 1.41157059e-01 1.39247451e-01 1.31537432e-01 2.29705216e-01 1.05001383e-01 6.09840997e-02 1.43046887e-01 1.84643885e-01 1.72748924e-01 2.23995015e-01 1.59459155e-01 6.64701947e-02 1.43615520e-01 1.49017850e-01 2.13631902e-01 1.02447340e-01 1.72588192e-01 1.47060446e-01 1.65233224e-01 1.76841621e-01 2.46386346e-01 1.12329370e-01 6.71604072e-02 1.11099765e-01 1.12033922e-01 2.14405504e-01 1.30393062e-01 8.89145202e-02 1.78335201e-01 1.11099459e-01 1.85702521e-01 2.14667779e-01 1.41545106e-01 1.20139122e-01 2.00132500e-01 9.56418009e-02 1.67297167e-01 1.55193804e-01 4.85803127e-02 2.20155112e-01 1.51181466e-01 2.95937646e-01 2.00110895e-01 1.76624343e-01 1.91187733e-01 2.06149333e-01 9.37327026e-02 1.47515800e-01 5.80905029e-02 9.35539424e-02 9.38340453e-02 1.62013665e-01 1.87118895e-01 2.03406448e-01 2.06538731e-01 1.62365118e-01 1.33355322e-01 1.47071644e-01 1.18660963e-01 1.12256550e-01 1.14778163e-01 1.34230444e-01 1.06725543e-01 1.88853482e-01 1.43273330e-01 1.65203696e-01 3.16020489e-02 3.61813549e-02 1.38105768e-01 1.46346417e-01 1.99392780e-01 6.39820485e-02 1.63821262e-01 1.38111640e-01 9.47571952e-02 1.73143371e-01 2.25109668e-01 8.97802858e-02 2.23189061e-01 1.02913069e-01 6.77567383e-02 1.39070472e-01 9.45696369e-02 6.39549567e-02 1.81685861e-01 2.95279375e-02 1.19063690e-01 1.58894307e-01 7.67535756e-02 1.60352206e-01 2.77057015e-01 1.96018465e-01 1.22335901e-01 1.96090710e-01 1.84739377e-01 1.67318379e-01 1.23104920e-01 1.27852551e-01 2.92193086e-01 9.85494823e-02 4.05733345e-02 1.43891852e-01 1.89090551e-01 5.83344369e-02 6.56740970e-02 7.66505888e-02 1.73692627e-01 1.53561916e-01 1.58093475e-01 9.41537535e-02 1.05503591e-01 8.20890112e-02 1.14603692e-01 7.96243685e-02 1.43879746e-01 9.30703699e-02 1.17101935e-01 1.59209483e-01 1.38201830e-01 7.38640568e-02 8.71187567e-02 1.12245488e-01 1.16272226e-01 1.56209466e-02 1.54603511e-01 3.52787140e-02 3.97155237e-02 1.15056341e-01 1.37407044e-01 1.45455882e-01 1.31956026e-01 1.30071034e-01 1.62290227e-01 6.20759736e-02 7.00824361e-02 2.56729655e-01 6.96045209e-02 7.65678112e-02 1.12409946e-01 6.89928340e-02 1.22105871e-01 1.12986513e-01 1.50851489e-01 1.14859514e-01 1.18768172e-01 1.36511443e-01 9.88227953e-02 5.73512025e-02 1.81556111e-01 1.16225887e-01 1.26088549e-01 6.45584533e-02 3.46629513e-02 1.67775863e-01 3.70013810e-02 1.31722590e-01 1.34049089e-01 9.62608722e-02 5.89154060e-02 1.40324657e-01 1.23862884e-01 3.61582717e-02 6.04086408e-02 4.53374845e-02 1.00623254e-01 1.16815390e-01 8.05643634e-02 9.66761447e-02 1.25191361e-01 1.31280347e-01 1.12980663e-01 1.07580583e-01 1.04849874e-01 5.44521416e-02 8.40926587e-02 1.38253820e-01 9.33947065e-02 1.07341991e-01 1.34452399e-01 3.18631039e-02 6.23426791e-02 9.86489932e-02 7.07468206e-02 1.13697113e-01 4.31061583e-02 1.99622084e-01 1.21140320e-01 1.31152214e-01 4.31412916e-02 7.35499965e-02 1.19641165e-01 1.20136896e-01 0.00000000e+00 3.61361944e-02 1.07291572e-01 2.14509474e-02 7.92906450e-02 6.28286426e-02 6.66230879e-02 1.82722180e-02 7.68380521e-02 1.76282933e-02 1.63160470e-01 5.75325795e-02 4.19163120e-02 6.69731722e-02 8.37068603e-02 1.20673846e-01 5.00970569e-02 7.58772823e-02 1.10766432e-01 6.85740171e-02 4.36542318e-02 1.56876674e-01 1.19261726e-01 1.09582975e-01 8.56954903e-02 9.95762912e-02 6.24072033e-02 6.06883579e-02 8.84852331e-02 3.47259216e-02 6.41036440e-02 7.50405136e-02 0.00000000e+00 4.70274231e-02 9.41834001e-02 0.00000000e+00 3.18237299e-02 0.00000000e+00 5.81999693e-02 0.00000000e+00 0.00000000e+00 5.65043812e-02 1.07017814e-01 7.18877738e-02 6.01381551e-02 8.11172788e-02 2.78984118e-02 3.72477424e-02 7.83623799e-02 2.27055284e-02 1.11565018e-01 2.24555822e-02 8.19454802e-02 0.00000000e+00 1.90956564e-02 4.18084067e-02 0.00000000e+00 1.58183034e-02 2.22489026e-02 2.26401490e-02 6.72541437e-02 1.43295545e-02 0.00000000e+00 1.54045783e-02 5.88824503e-02 3.91545620e-02 1.58520279e-02 6.41748164e-02 5.51560855e-02 1.03847804e-01 1.65336067e-02 1.34748366e-01 4.39831291e-02 4.21629539e-02 0.00000000e+00 0.00000000e+00 4.58630938e-02 1.89199789e-02 2.33370500e-02 0.00000000e+00 6.86681114e-02 2.52070004e-02 0.00000000e+00 2.38461787e-03 9.88991594e-02 0.00000000e+00 0.00000000e+00 0.00000000e+00 0.00000000e+00 0.00000000e+00 0.00000000e+00 3.29003914e-02 0.00000000e+00 0.00000000e+00 0.00000000e+00 0.00000000e+00 3.33840396e-02 0.00000000e+00 0.00000000e+00 0.00000000e+00 0.00000000e+00 0.00000000e+00 0.00000000e+00 0.00000000e+00 0.00000000e+00 0.00000000e+00 0.00000000e+00 0.00000000e+00 0.00000000e+00 0.00000000e+00 0.00000000e+00 
      </Histogram>
    </PDF>
  </MVAPdfs>
  <Weights NTrees="200" AnalysisType="1">
    <BinaryTree type="DecisionTree" boostWeight="1.0000000000000000e+00" itree="0">
      <Node pos="s" depth="0" NCoef="0" IVar="7" Cut="1.7688369750976562e+00" cType="1" res="-2.8335723304279961e-15" rms="5.0000000000000000e-01" purity="5.0000000000000000e-01" nType="0">
        <Node pos="l" depth="1" NCoef="0" IVar="3" Cut="4.0307492065429688e+02" cType="1" res="-1.5671287477016449e-01" rms="4.7480636835098267e-01" purity="3.4328714013099670e-01" nType="0">
          <Node pos="l" depth="2" NCoef="0" IVar="11" Cut="1.9536320495605469e+02" cType="1" res="6.1275165528059006e-02" rms="4.9623113870620728e-01" purity="5.6127518415451050e-01" nType="0">
            <Node pos="l" depth="3" NCoef="0" IVar="-1" Cut="0.0000000000000000e+00" cType="1" res="-8.3155464380979538e-03" rms="4.9826830625534058e-01" purity="4.5842227339744568e-01" nType="-99"/>
            <Node pos="r" depth="3" NCoef="0" IVar="-1" Cut="0.0000000000000000e+00" cType="1" res="3.9005514234304428e-02" rms="4.6039575338363647e-01" purity="6.9502753019332886e-01" nType="-99"/>
          </Node>
          <Node pos="r" depth="2" NCoef="0" IVar="1" Cut="1.9461210966110229e+00" cType="1" res="-2.3164807260036469e-01" rms="4.4310176372528076e-01" purity="2.6835194230079651e-01" nType="0">
            <Node pos="l" depth="3" NCoef="0" IVar="11" Cut="4.1726644897460938e+02" cType="1" res="-2.6740220189094543e-01" rms="4.2248794436454773e-01" purity="2.3259781301021576e-01" nType="0">
              <Node pos="l" depth="4" NCoef="0" IVar="-1" Cut="0.0000000000000000e+00" cType="1" res="-6.4880944788455963e-02" rms="3.8047546148300171e-01" purity="1.7559526860713959e-01" nType="-99"/>
              <Node pos="r" depth="4" NCoef="0" IVar="-1" Cut="0.0000000000000000e+00" cType="1" res="-3.9219953119754791e-02" rms="4.5994007587432861e-01" purity="3.0390024185180664e-01" nType="-99"/>
            </Node>
            <Node pos="r" depth="3" NCoef="0" IVar="-1" Cut="0.0000000000000000e+00" cType="1" res="-5.6190663017332554e-03" rms="4.9921002984046936e-01" purity="4.7190463542938232e-01" nType="-99"/>
          </Node>
        </Node>
        <Node pos="r" depth="1" NCoef="0" IVar="3" Cut="5.1244879150390625e+02" cType="1" res="2.5218215584754944e-01" rms="4.3174549937248230e-01" purity="7.5218212604522705e-01" nType="0">
          <Node pos="l" depth="2" NCoef="0" IVar="7" Cut="2.5166323184967041e+00" cType="1" res="3.4398287534713745e-01" rms="3.6287158727645874e-01" purity="8.4398287534713745e-01" nType="0">
            <Node pos="l" depth="3" NCoef="0" IVar="3" Cut="3.7047509765625000e+02" cType="1" res="2.4669513106346130e-01" rms="4.3490403890609741e-01" purity="7.4669510126113892e-01" nType="0">
              <Node pos="l" depth="4" NCoef="0" IVar="-1" Cut="0.0000000000000000e+00" cType="1" res="6.5155923366546631e-02" rms="3.7929886579513550e-01" purity="8.2577967643737793e-01" nType="-99"/>
              <Node pos="r" depth="4" NCoef="0" IVar="-1" Cut="0.0000000000000000e+00" cType="1" res="3.3256530761718750e-02" rms="4.7154012322425842e-01" purity="6.6628265380859375e-01" nType="-99"/>
            </Node>
            <Node pos="r" depth="3" NCoef="0" IVar="3" Cut="3.8240911865234375e+02" cType="1" res="4.0664497017860413e-01" rms="2.9092931747436523e-01" purity="9.0664494037628174e-01" nType="0">
              <Node pos="l" depth="4" NCoef="0" IVar="-1" Cut="0.0000000000000000e+00" cType="1" res="8.8036224246025085e-02" rms="2.3715098202228546e-01" purity="9.4018113613128662e-01" nType="-99"/>
              <Node pos="r" depth="4" NCoef="0" IVar="-1" Cut="0.0000000000000000e+00" cType="1" res="6.8357855081558228e-02" rms="3.6493846774101257e-01" purity="8.4178930521011353e-01" nType="-99"/>
            </Node>
          </Node>
          <Node pos="r" depth="2" NCoef="0" IVar="1" Cut="2.0575597286224365e+00" cType="1" res="6.4356520771980286e-02" rms="4.9584093689918518e-01" purity="5.6435650587081909e-01" nType="0">
            <Node pos="l" depth="3" NCoef="0" IVar="-1" Cut="0.0000000000000000e+00" cType="1" res="-7.6115038245916367e-03" rms="4.9854952096939087e-01" purity="4.6194249391555786e-01" nType="-99"/>
            <Node pos="r" depth="3" NCoef="0" IVar="-1" Cut="0.0000000000000000e+00" cType="1" res="4.1000481694936752e-02" rms="4.5604166388511658e-01" purity="7.0500242710113525e-01" nType="-99"/>
          </Node>
        </Node>
      </Node>
    </BinaryTree>
    <BinaryTree type="DecisionTree" boostWeight="1.0000000000000000e+00" itree="1">
      <Node pos="s" depth="0" NCoef="0" IVar="7" Cut="1.8867584466934204e+00" cType="1" res="6.8518766056513414e-06" rms="4.8699396848678589e-01" purity="5.0000000000000000e-01" nType="0">
        <Node pos="l" depth="1" NCoef="0" IVar="3" Cut="4.0307492065429688e+02" cType="1" res="-1.3183118402957916e-01" rms="4.7207990288734436e-01" purity="3.5398879647254944e-01" nType="0">
          <Node pos="l" depth="2" NCoef="0" IVar="11" Cut="1.9536320495605469e+02" cType="1" res="6.7022114992141724e-02" rms="4.9136272072792053e-01" purity="5.7451182603836060e-01" nType="0">
            <Node pos="l" depth="3" NCoef="0" IVar="-1" Cut="0.0000000000000000e+00" cType="1" res="-6.1675342731177807e-03" rms="4.9836421012878418e-01" purity="4.6640586853027344e-01" nType="-99"/>
            <Node pos="r" depth="3" NCoef="0" IVar="-1" Cut="0.0000000000000000e+00" cType="1" res="3.7793222814798355e-02" rms="4.5401489734649658e-01" purity="7.0888268947601318e-01" nType="-99"/>
          </Node>
          <Node pos="r" depth="2" NCoef="0" IVar="1" Cut="1.9966454505920410e+00" cType="1" res="-2.0116136968135834e-01" rms="4.4473478198051453e-01" purity="2.7710342407226562e-01" nType="0">
            <Node pos="l" depth="3" NCoef="0" IVar="11" Cut="2.8932461547851562e+02" cType="1" res="-2.3579163849353790e-01" rms="4.2511057853698730e-01" purity="2.3881356418132782e-01" nType="0">
              <Node pos="l" depth="4" NCoef="0" IVar="-1" Cut="0.0000000000000000e+00" cType="1" res="-6.4362905919551849e-02" rms="3.5526826977729797e-01" purity="1.4831645786762238e-01" nType="-99"/>
              <Node pos="r" depth="4" NCoef="0" IVar="-1" Cut="0.0000000000000000e+00" cType="1" res="-3.8456548005342484e-02" rms="4.5093259215354919e-01" purity="2.8576093912124634e-01" nType="-99"/>
            </Node>
            <Node pos="r" depth="3" NCoef="0" IVar="-1" Cut="0.0000000000000000e+00" cType="1" res="-4.5869540190324187e-04" rms="4.9937966465950012e-01" purity="4.9698740243911743e-01" nType="-99"/>
          </Node>
        </Node>
        <Node pos="r" depth="1" NCoef="0" IVar="3" Cut="5.1244879150390625e+02" cType="1" res="2.4358209967613220e-01" rms="4.1490760445594788e-01" purity="7.6976072788238525e-01" nType="0">
          <Node pos="l" depth="2" NCoef="0" IVar="11" Cut="3.0505319213867188e+02" cType="1" res="3.1940540671348572e-01" rms="3.5028809309005737e-01" purity="8.5442072153091431e-01" nType="0">
            <Node pos="l" depth="3" NCoef="0" IVar="-1" Cut="0.0000000000000000e+00" cType="1" res="4.4727347791194916e-02" rms="4.2526540160179138e-01" purity="7.5746268033981323e-01" nType="-99"/>
            <Node pos="r" depth="3" NCoef="0" IVar="3" Cut="3.8978121948242188e+02" cType="1" res="3.6733266711235046e-01" rms="2.9497724771499634e-01" purity="9.0235328674316406e-01" nType="0">
              <Node pos="l" depth="4" NCoef="0" IVar="-1" Cut="0.0000000000000000e+00" cType="1" res="8.1974178552627563e-02" rms="2.2232773900032043e-01" purity="9.4752055406570435e-01" nType="-99"/>
              <Node pos="r" depth="4" NCoef="0" IVar="-1" Cut="0.0000000000000000e+00" cType="1" res="6.2941744923591614e-02" rms="3.6427366733551025e-01" purity="8.4141808748245239e-01" nType="-99"/>
            </Node>
          </Node>
          <Node pos="r" depth="2" NCoef="0" IVar="1" Cut="1.9105911254882812e+00" cType="1" res="7.7538423240184784e-02" rms="4.9017313122749329e-01" purity="5.8436566591262817e-01" nType="0">
            <Node pos="l" depth="3" NCoef="0" IVar="-1" Cut="0.0000000000000000e+00" cType="1" res="-3.9386181160807610e-03" rms="4.9944758415222168e-01" purity="4.7650235891342163e-01" nType="-99"/>
            <Node pos="r" depth="3" NCoef="0" IVar="-1" Cut="0.0000000000000000e+00" cType="1" res="3.7102602422237396e-02" rms="4.5611152052879333e-01" purity="7.0382851362228394e-01" nType="-99"/>
          </Node>
        </Node>
      </Node>
    </BinaryTree>
    <BinaryTree type="DecisionTree" boostWeight="1.0000000000000000e+00" itree="2">
      <Node pos="s" depth="0" NCoef="0" IVar="7" Cut="1.6509155035018921e+00" cType="1" res="2.5399407604709268e-05" rms="4.7621619701385498e-01" purity="5.0000000000000000e-01" nType="0">
        <Node pos="l" depth="1" NCoef="0" IVar="3" Cut="4.0307492065429688e+02" cType="1" res="-1.3730934262275696e-01" rms="4.6114659309387207e-01" purity="3.3295923471450806e-01" nType="0">
          <Node pos="l" depth="2" NCoef="0" IVar="3" Cut="3.0938018798828125e+02" cType="1" res="3.9038758724927902e-02" rms="4.9269440770149231e-01" purity="5.5109721422195435e-01" nType="0">
            <Node pos="l" depth="3" NCoef="0" IVar="-1" Cut="0.0000000000000000e+00" cType="1" res="3.2507836818695068e-02" rms="4.6772527694702148e-01" purity="6.6681021451950073e-01" nType="-99"/>
            <Node pos="r" depth="3" NCoef="0" IVar="-1" Cut="0.0000000000000000e+00" cType="1" res="-6.7480211146175861e-03" rms="4.9259889125823975e-01" purity="4.8285701870918274e-01" nType="-99"/>
          </Node>
          <Node pos="r" depth="2" NCoef="0" IVar="11" Cut="4.1726644897460938e+02" cType="1" res="-1.9716459512710571e-01" rms="4.3394076824188232e-01" purity="2.5891989469528198e-01" nType="0">
            <Node pos="l" depth="3" NCoef="0" IVar="3" Cut="5.4484277343750000e+02" cType="1" res="-2.6164138317108154e-01" rms="3.8509425520896912e-01" purity="1.8334539234638214e-01" nType="0">
              <Node pos="l" depth="4" NCoef="0" IVar="-1" Cut="0.0000000000000000e+00" cType="1" res="-3.9541449397802353e-02" rms="4.2972317337989807e-01" purity="2.4916112422943115e-01" nType="-99"/>
              <Node pos="r" depth="4" NCoef="0" IVar="-1" Cut="0.0000000000000000e+00" cType="1" res="-6.5385125577449799e-02" rms="3.2729038596153259e-01" purity="1.2295808643102646e-01" nType="-99"/>
            </Node>
            <Node pos="r" depth="3" NCoef="0" IVar="3" Cut="6.4043530273437500e+02" cType="1" res="-1.2612329423427582e-01" rms="4.7197183966636658e-01" purity="3.4218874573707581e-01" nType="0">
              <Node pos="l" depth="4" NCoef="0" IVar="-1" Cut="0.0000000000000000e+00" cType="1" res="1.0437189601361752e-02" rms="4.9689984321594238e-01" purity="5.2242124080657959e-01" nType="-99"/>
              <Node pos="r" depth="4" NCoef="0" IVar="-1" Cut="0.0000000000000000e+00" cType="1" res="-4.3812636286020279e-02" rms="4.3070870637893677e-01" purity="2.4923248589038849e-01" nType="-99"/>
            </Node>
          </Node>
        </Node>
        <Node pos="r" depth="1" NCoef="0" IVar="3" Cut="4.4897998046875000e+02" cType="1" res="1.9144096970558167e-01" rms="4.2841824889183044e-01" purity="7.3281949758529663e-01" nType="0">
          <Node pos="l" depth="2" NCoef="0" IVar="11" Cut="3.0043923950195312e+02" cType="1" res="2.9387903213500977e-01" rms="3.4364411234855652e-01" purity="8.5702407360076904e-01" nType="0">
            <Node pos="l" depth="3" NCoef="0" IVar="-1" Cut="0.0000000000000000e+00" cType="1" res="4.2919430881738663e-02" rms="4.1990545392036438e-01" purity="7.6214396953582764e-01" nType="-99"/>
            <Node pos="r" depth="3" NCoef="0" IVar="3" Cut="3.5519110107421875e+02" cType="1" res="3.4479448199272156e-01" rms="2.7410984039306641e-01" purity="9.1599583625793457e-01" nType="0">
              <Node pos="l" depth="4" NCoef="0" IVar="-1" Cut="0.0000000000000000e+00" cType="1" res="7.7336028218269348e-02" rms="2.0366239547729492e-01" purity="9.5639801025390625e-01" nType="-99"/>
              <Node pos="r" depth="4" NCoef="0" IVar="-1" Cut="0.0000000000000000e+00" cType="1" res="6.2544025480747223e-02" rms="3.3455654978752136e-01" purity="8.6872589588165283e-01" nType="-99"/>
            </Node>
          </Node>
          <Node pos="r" depth="2" NCoef="0" IVar="11" Cut="5.5317840576171875e+02" cType="1" res="6.9961093366146088e-02" rms="4.8369207978248596e-01" purity="5.8552688360214233e-01" nType="0">
            <Node pos="l" depth="3" NCoef="0" IVar="-1" Cut="0.0000000000000000e+00" cType="1" res="-1.6968423500657082e-02" rms="4.8678800463676453e-01" purity="4.2192113399505615e-01" nType="-99"/>
            <Node pos="r" depth="3" NCoef="0" IVar="3" Cut="6.7205639648437500e+02" cType="1" res="1.5519404411315918e-01" rms="4.6030178666114807e-01" purity="6.7586445808410645e-01" nType="0">
              <Node pos="l" depth="4" NCoef="0" IVar="-1" Cut="0.0000000000000000e+00" cType="1" res="5.2886091172695160e-02" rms="4.0033972263336182e-01" purity="7.9189646244049072e-01" nType="-99"/>
              <Node pos="r" depth="4" NCoef="0" IVar="-1" Cut="0.0000000000000000e+00" cType="1" res="2.5657147634774446e-03" rms="4.9468716979026794e-01" purity="5.2204203605651855e-01" nType="-99"/>
            </Node>
          </Node>
        </Node>
      </Node>
    </BinaryTree>
    <BinaryTree type="DecisionTree" boostWeight="1.0000000000000000e+00" itree="3">
      <Node pos="s" depth="0" NCoef="0" IVar="7" Cut="2.0046799182891846e+00" cType="1" res="4.4111446186434478e-05" rms="4.6606540679931641e-01" purity="5.0000000000000000e-01" nType="0">
        <Node pos="l" depth="1" NCoef="0" IVar="3" Cut="4.8843621826171875e+02" cType="1" res="-1.0062841325998306e-01" rms="4.6334105730056763e-01" purity="3.6479625105857849e-01" nType="0">
          <Node pos="l" depth="2" NCoef="0" IVar="11" Cut="2.8844216918945312e+02" cType="1" res="1.3562692329287529e-02" rms="4.8389929533004761e-01" purity="5.0937354564666748e-01" nType="0">
            <Node pos="l" depth="3" NCoef="0" IVar="3" Cut="3.3020339965820312e+02" cType="1" res="-6.2699072062969208e-02" rms="4.7959536314010620e-01" purity="4.2558363080024719e-01" nType="0">
              <Node pos="l" depth="4" NCoef="0" IVar="-1" Cut="0.0000000000000000e+00" cType="1" res="2.2650869563221931e-02" rms="4.7757267951965332e-01" purity="6.3215994834899902e-01" nType="-99"/>
              <Node pos="r" depth="4" NCoef="0" IVar="-1" Cut="0.0000000000000000e+00" cType="1" res="-3.4895848482847214e-02" rms="4.4728210568428040e-01" purity="2.9685813188552856e-01" nType="-99"/>
            </Node>
            <Node pos="r" depth="3" NCoef="0" IVar="-1" Cut="0.0000000000000000e+00" cType="1" res="3.3985711634159088e-02" rms="4.5483729243278503e-01" purity="6.7922443151473999e-01" nType="-99"/>
          </Node>
          <Node pos="r" depth="2" NCoef="0" IVar="11" Cut="4.1726644897460938e+02" cType="1" res="-1.8275880813598633e-01" rms="4.2959851026535034e-01" purity="2.6081100106239319e-01" nType="0">
            <Node pos="l" depth="3" NCoef="0" IVar="3" Cut="6.2186785888671875e+02" cType="1" res="-2.6543238759040833e-01" rms="3.5959228873252869e-01" purity="1.5539877116680145e-01" nType="0">
              <Node pos="l" depth="4" NCoef="0" IVar="-1" Cut="0.0000000000000000e+00" cType="1" res="-4.5052971690893173e-02" rms="4.0019845962524414e-01" purity="2.0444077253341675e-01" nType="-99"/>
              <Node pos="r" depth="4" NCoef="0" IVar="-1" Cut="0.0000000000000000e+00" cType="1" res="-6.4447633922100067e-02" rms="3.0480208992958069e-01" purity="1.0460299998521805e-01" nType="-99"/>
            </Node>
            <Node pos="r" depth="3" NCoef="0" IVar="3" Cut="7.1957037353515625e+02" cType="1" res="-1.1826879531145096e-01" rms="4.6707713603973389e-01" purity="3.4303843975067139e-01" nType="0">
              <Node pos="l" depth="4" NCoef="0" IVar="-1" Cut="0.0000000000000000e+00" cType="1" res="1.0416511213406920e-03" rms="4.9317356944084167e-01" purity="4.8003107309341431e-01" nType="-99"/>
              <Node pos="r" depth="4" NCoef="0" IVar="-1" Cut="0.0000000000000000e+00" cType="1" res="-4.0830250829458237e-02" rms="4.2882633209228516e-01" purity="2.5028848648071289e-01" nType="-99"/>
            </Node>
          </Node>
        </Node>
        <Node pos="r" depth="1" NCoef="0" IVar="3" Cut="4.4897998046875000e+02" cType="1" res="2.1426455676555634e-01" rms="3.9388874173164368e-01" purity="7.8769922256469727e-01" nType="0">
          <Node pos="l" depth="2" NCoef="0" IVar="7" Cut="2.8331577777862549e+00" cType="1" res="2.8653317689895630e-01" rms="3.1342270970344543e-01" purity="8.8607829809188843e-01" nType="0">
            <Node pos="l" depth="3" NCoef="0" IVar="-1" Cut="0.0000000000000000e+00" cType="1" res="4.8749763518571854e-02" rms="3.7450709939002991e-01" purity="8.2650613784790039e-01" nType="-99"/>
            <Node pos="r" depth="3" NCoef="0" IVar="-1" Cut="0.0000000000000000e+00" cType="1" res="6.9843113422393799e-02" rms="2.3598475754261017e-01" purity="9.3998396396636963e-01" nType="-99"/>
          </Node>
          <Node pos="r" depth="2" NCoef="0" IVar="1" Cut="2.2483613491058350e+00" cType="1" res="1.1074122786521912e-01" rms="4.6741700172424316e-01" purity="6.4677321910858154e-01" nType="0">
            <Node pos="l" depth="3" NCoef="0" IVar="-1" Cut="0.0000000000000000e+00" cType="1" res="7.3659652844071388e-03" rms="4.8890471458435059e-01" purity="5.5685293674468994e-01" nType="-99"/>
            <Node pos="r" depth="3" NCoef="0" IVar="-1" Cut="0.0000000000000000e+00" cType="1" res="4.4476266950368881e-02" rms="4.1078740358352661e-01" purity="7.7803879976272583e-01" nType="-99"/>
          </Node>
        </Node>
      </Node>
    </BinaryTree>
    <BinaryTree type="DecisionTree" boostWeight="1.0000000000000000e+00" itree="4">
      <Node pos="s" depth="0" NCoef="0" IVar="7" Cut="1.5329940319061279e+00" cType="1" res="6.0053054767195135e-05" rms="4.5718574523925781e-01" purity="5.0000000000000000e-01" nType="0">
        <Node pos="l" depth="1" NCoef="0" IVar="3" Cut="4.0307492065429688e+02" cType="1" res="-1.2275850772857666e-01" rms="4.4739773869514465e-01" purity="3.2184737920761108e-01" nType="0">
          <Node pos="l" depth="2" NCoef="0" IVar="11" Cut="1.9536320495605469e+02" cType="1" res="2.2921876981854439e-02" rms="4.8803824186325073e-01" purity="5.4057240486145020e-01" nType="0">
            <Node pos="l" depth="3" NCoef="0" IVar="-1" Cut="0.0000000000000000e+00" cType="1" res="-1.0410177521407604e-02" rms="4.9064403772354126e-01" purity="4.4625094532966614e-01" nType="-99"/>
            <Node pos="r" depth="3" NCoef="0" IVar="-1" Cut="0.0000000000000000e+00" cType="1" res="2.6069737970829010e-02" rms="4.6405109763145447e-01" purity="6.7433714866638184e-01" nType="-99"/>
          </Node>
          <Node pos="r" depth="2" NCoef="0" IVar="1" Cut="1.5136497020721436e+00" cType="1" res="-1.7154520750045776e-01" rms="4.2183646559715271e-01" purity="2.4859885871410370e-01" nType="0">
            <Node pos="l" depth="3" NCoef="0" IVar="3" Cut="6.3139422607421875e+02" cType="1" res="-2.0158408582210541e-01" rms="4.0015676617622375e-01" purity="2.0998826622962952e-01" nType="0">
              <Node pos="l" depth="4" NCoef="0" IVar="-1" Cut="0.0000000000000000e+00" cType="1" res="-3.2563962042331696e-02" rms="4.2928996682167053e-01" purity="2.5937756896018982e-01" nType="-99"/>
              <Node pos="r" depth="4" NCoef="0" IVar="-1" Cut="0.0000000000000000e+00" cType="1" res="-5.1133822649717331e-02" rms="3.6295437812805176e-01" purity="1.6002768278121948e-01" nType="-99"/>
            </Node>
            <Node pos="r" depth="3" NCoef="0" IVar="-1" Cut="0.0000000000000000e+00" cType="1" res="-1.4567845501005650e-02" rms="4.7353076934814453e-01" purity="3.7700775265693665e-01" nType="-99"/>
          </Node>
        </Node>
        <Node pos="r" depth="1" NCoef="0" IVar="3" Cut="5.4224475097656250e+02" cType="1" res="1.4708277583122253e-01" rms="4.2419919371604919e-01" purity="7.1326160430908203e-01" nType="0">
          <Node pos="l" depth="2" NCoef="0" IVar="11" Cut="3.0505319213867188e+02" cType="1" res="2.1342185139656067e-01" rms="3.7555545568466187e-01" purity="8.0845528841018677e-01" nType="0">
            <Node pos="l" depth="3" NCoef="0" IVar="3" Cut="3.3192004394531250e+02" cType="1" res="1.2253423780202866e-01" rms="4.4194972515106201e-01" purity="6.9283622503280640e-01" nType="0">
              <Node pos="l" depth="4" NCoef="0" IVar="-1" Cut="0.0000000000000000e+00" cType="1" res="5.3062614053487778e-02" rms="3.5152205824851990e-01" purity="8.5059630870819092e-01" nType="-99"/>
              <Node pos="r" depth="4" NCoef="0" IVar="-1" Cut="0.0000000000000000e+00" cType="1" res="-7.4746725149452686e-03" rms="4.8522180318832397e-01" purity="5.0285851955413818e-01" nType="-99"/>
            </Node>
            <Node pos="r" depth="3" NCoef="0" IVar="3" Cut="3.9042968750000000e+02" cType="1" res="2.6455366611480713e-01" rms="3.2131683826446533e-01" purity="8.7350058555603027e-01" nType="0">
              <Node pos="l" depth="4" NCoef="0" IVar="-1" Cut="0.0000000000000000e+00" cType="1" res="6.5363228321075439e-02" rms="2.3517523705959320e-01" purity="9.4000387191772461e-01" nType="-99"/>
              <Node pos="r" depth="4" NCoef="0" IVar="-1" Cut="0.0000000000000000e+00" cType="1" res="4.6890258789062500e-02" rms="3.8785016536712646e-01" purity="8.0413186550140381e-01" nType="-99"/>
            </Node>
          </Node>
          <Node pos="r" depth="2" NCoef="0" IVar="11" Cut="7.2005133056640625e+02" cType="1" res="1.9043536158278584e-03" rms="4.8412165045738220e-01" purity="5.0493693351745605e-01" nType="0">
            <Node pos="l" depth="3" NCoef="0" IVar="-1" Cut="0.0000000000000000e+00" cType="1" res="-2.1966906264424324e-02" rms="4.7204881906509399e-01" purity="3.7131008505821228e-01" nType="-99"/>
            <Node pos="r" depth="3" NCoef="0" IVar="-1" Cut="0.0000000000000000e+00" cType="1" res="1.9082613289356232e-02" rms="4.7463408112525940e-01" purity="6.1685007810592651e-01" nType="-99"/>
          </Node>
        </Node>
      </Node>
    </BinaryTree>
    <BinaryTree type="DecisionTree" boostWeight="1.0000000000000000e+00" itree="5">
      <Node pos="s" depth="0" NCoef="0" IVar="7" Cut="2.1226015090942383e+00" cType="1" res="9.4536633696407080e-05" rms="4.5001363754272461e-01" purity="5.0000000000000000e-01" nType="0">
        <Node pos="l" depth="1" NCoef="0" IVar="3" Cut="4.8843621826171875e+02" cType="1" res="-7.7559970319271088e-02" rms="4.5490548014640808e-01" purity="3.7523046135902405e-01" nType="0">
          <Node pos="l" depth="2" NCoef="0" IVar="11" Cut="2.8844216918945312e+02" cType="1" res="1.7838165163993835e-02" rms="4.7370654344558716e-01" purity="5.2188849449157715e-01" nType="0">
            <Node pos="l" depth="3" NCoef="0" IVar="3" Cut="3.3020339965820312e+02" cType="1" res="-5.0173781812191010e-02" rms="4.7333207726478577e-01" purity="4.3400108814239502e-01" nType="0">
              <Node pos="l" depth="4" NCoef="0" IVar="-1" Cut="0.0000000000000000e+00" cType="1" res="2.0302155986428261e-02" rms="4.7324582934379578e-01" purity="6.3925641775131226e-01" nType="-99"/>
              <Node pos="r" depth="4" NCoef="0" IVar="-1" Cut="0.0000000000000000e+00" cType="1" res="-2.9898868873715401e-02" rms="4.4787043333053589e-01" purity="3.0362305045127869e-01" nType="-99"/>
            </Node>
            <Node pos="r" depth="3" NCoef="0" IVar="6" Cut="2.7812240123748779e+00" cType="1" res="1.4975643157958984e-01" rms="4.4577044248580933e-01" purity="6.9235783815383911e-01" nType="0">
              <Node pos="l" depth="4" NCoef="0" IVar="-1" Cut="0.0000000000000000e+00" cType="1" res="3.4806292504072189e-02" rms="4.3451783061027527e-01" purity="7.1558874845504761e-01" nType="-99"/>
              <Node pos="r" depth="4" NCoef="0" IVar="-1" Cut="0.0000000000000000e+00" cType="1" res="2.6705611497163773e-02" rms="4.5592465996742249e-01" purity="6.6917383670806885e-01" nType="-99"/>
            </Node>
          </Node>
          <Node pos="r" depth="2" NCoef="0" IVar="1" Cut="2.0542387962341309e+00" cType="1" res="-1.4727070927619934e-01" rms="4.2740064859390259e-01" purity="2.6806241273880005e-01" nType="0">
            <Node pos="l" depth="3" NCoef="0" IVar="10" Cut="-6.2294069677591324e-02" cType="1" res="-1.7592914402484894e-01" rms="4.0899252891540527e-01" purity="2.2634178400039673e-01" nType="0">
              <Node pos="l" depth="4" NCoef="0" IVar="-1" Cut="0.0000000000000000e+00" cType="1" res="-4.8241712152957916e-02" rms="3.6772277951240540e-01" purity="1.7035615444183350e-01" nType="-99"/>
              <Node pos="r" depth="4" NCoef="0" IVar="-1" Cut="0.0000000000000000e+00" cType="1" res="-2.7789695188403130e-02" rms="4.3426984548568726e-01" purity="2.7089688181877136e-01" nType="-99"/>
            </Node>
            <Node pos="r" depth="3" NCoef="0" IVar="-1" Cut="0.0000000000000000e+00" cType="1" res="1.9037998281419277e-03" rms="4.8765900731086731e-01" purity="4.9618726968765259e-01" nType="-99"/>
          </Node>
        </Node>
        <Node pos="r" depth="1" NCoef="0" IVar="3" Cut="5.7591760253906250e+02" cType="1" res="1.9051623344421387e-01" rms="3.7497964501380920e-01" purity="8.0595541000366211e-01" nType="0">
          <Node pos="l" depth="2" NCoef="0" IVar="7" Cut="2.7180480957031250e+00" cType="1" res="2.2274652123451233e-01" rms="3.3617258071899414e-01" purity="8.5783189535140991e-01" nType="0">
            <Node pos="l" depth="3" NCoef="0" IVar="-1" Cut="0.0000000000000000e+00" cType="1" res="3.4423056989908218e-02" rms="4.0317475795745850e-01" purity="7.7613449096679688e-01" nType="-99"/>
            <Node pos="r" depth="3" NCoef="0" IVar="3" Cut="3.5919216918945312e+02" cType="1" res="2.6015400886535645e-01" rms="2.8102126717567444e-01" purity="9.0789496898651123e-01" nType="0">
              <Node pos="l" depth="4" NCoef="0" IVar="-1" Cut="0.0000000000000000e+00" cType="1" res="6.4916916191577911e-02" rms="2.0538108050823212e-01" purity="9.5528906583786011e-01" nType="-99"/>
              <Node pos="r" depth="4" NCoef="0" IVar="-1" Cut="0.0000000000000000e+00" cType="1" res="4.9055431038141251e-02" rms="3.4652784466743469e-01" purity="8.5249531269073486e-01" nType="-99"/>
            </Node>
          </Node>
          <Node pos="r" depth="2" NCoef="0" IVar="-1" Cut="0.0000000000000000e+00" cType="1" res="1.2263344600796700e-02" rms="4.8040547966957092e-01" purity="5.9684163331985474e-01" nType="-99"/>
        </Node>
      </Node>
    </BinaryTree>
    <BinaryTree type="DecisionTree" boostWeight="1.0000000000000000e+00" itree="6">
      <Node pos="s" depth="0" NCoef="0" IVar="7" Cut="1.4150726795196533e+00" cType="1" res="1.1647173960227519e-04" rms="4.4384434819221497e-01" purity="5.0000000000000000e-01" nType="0">
        <Node pos="l" depth="1" NCoef="0" IVar="3" Cut="3.1771365356445312e+02" cType="1" res="-1.1023445427417755e-01" rms="4.3807119131088257e-01" purity="3.1181973218917847e-01" nType="0">
          <Node pos="l" depth="2" NCoef="0" IVar="-1" Cut="0.0000000000000000e+00" cType="1" res="1.9340939819812775e-02" rms="4.7545301914215088e-01" purity="6.3653451204299927e-01" nType="-99"/>
          <Node pos="r" depth="2" NCoef="0" IVar="3" Cut="6.4250555419921875e+02" cType="1" res="-1.3384588062763214e-01" rms="4.2728328704833984e-01" purity="2.7459320425987244e-01" nType="0">
            <Node pos="l" depth="3" NCoef="0" IVar="11" Cut="2.8494766235351562e+02" cType="1" res="-9.3177162110805511e-02" rms="4.5221960544586182e-01" purity="3.3696052432060242e-01" nType="0">
              <Node pos="l" depth="4" NCoef="0" IVar="-1" Cut="0.0000000000000000e+00" cType="1" res="-3.7541769444942474e-02" rms="4.0696051716804504e-01" purity="2.2776636481285095e-01" nType="-99"/>
              <Node pos="r" depth="4" NCoef="0" IVar="-1" Cut="0.0000000000000000e+00" cType="1" res="2.2079683840274811e-03" rms="4.8188531398773193e-01" purity="4.6999895572662354e-01" nType="-99"/>
            </Node>
            <Node pos="r" depth="3" NCoef="0" IVar="11" Cut="5.4024633789062500e+02" cType="1" res="-1.9458511471748352e-01" rms="3.7902042269706726e-01" purity="1.8144674599170685e-01" nType="0">
              <Node pos="l" depth="4" NCoef="0" IVar="-1" Cut="0.0000000000000000e+00" cType="1" res="-5.3333450108766556e-02" rms="3.1623655557632446e-01" purity="1.1535332351922989e-01" nType="-99"/>
              <Node pos="r" depth="4" NCoef="0" IVar="-1" Cut="0.0000000000000000e+00" cType="1" res="-2.9239449650049210e-02" rms="4.3122914433479309e-01" purity="2.5437030196189880e-01" nType="-99"/>
            </Node>
          </Node>
        </Node>
        <Node pos="r" depth="1" NCoef="0" IVar="3" Cut="5.4224475097656250e+02" cType="1" res="1.1434289067983627e-01" rms="4.2025634646415710e-01" purity="6.9478911161422729e-01" nType="0">
          <Node pos="l" depth="2" NCoef="0" IVar="11" Cut="3.0505319213867188e+02" cType="1" res="1.7083516716957092e-01" rms="3.7701281905174255e-01" purity="7.9426121711730957e-01" nType="0">
            <Node pos="l" depth="3" NCoef="0" IVar="3" Cut="3.4193423461914062e+02" cType="1" res="9.1405525803565979e-02" rms="4.3853497505187988e-01" purity="6.7295229434967041e-01" nType="0">
              <Node pos="l" depth="4" NCoef="0" IVar="-1" Cut="0.0000000000000000e+00" cType="1" res="4.2979739606380463e-02" rms="3.6738988757133484e-01" purity="8.2775294780731201e-01" nType="-99"/>
              <Node pos="r" depth="4" NCoef="0" IVar="-1" Cut="0.0000000000000000e+00" cType="1" res="-1.0134677402675152e-02" rms="4.8237302899360657e-01" purity="4.7002911567687988e-01" nType="-99"/>
            </Node>
            <Node pos="r" depth="3" NCoef="0" IVar="1" Cut="2.0028266906738281e+00" cType="1" res="2.1832531690597534e-01" rms="3.2574924826622009e-01" purity="8.6679041385650635e-01" nType="0">
              <Node pos="l" depth="4" NCoef="0" IVar="-1" Cut="0.0000000000000000e+00" cType="1" res="4.1574180126190186e-02" rms="3.5846787691116333e-01" purity="8.2887357473373413e-01" nType="-99"/>
              <Node pos="r" depth="4" NCoef="0" IVar="-1" Cut="0.0000000000000000e+00" cType="1" res="5.6790694594383240e-02" rms="2.8054547309875488e-01" purity="9.0917682647705078e-01" nType="-99"/>
            </Node>
          </Node>
          <Node pos="r" depth="2" NCoef="0" IVar="11" Cut="5.5000762939453125e+02" cType="1" res="-3.7739663384854794e-03" rms="4.7757384181022644e-01" purity="4.8680800199508667e-01" nType="0">
            <Node pos="l" depth="3" NCoef="0" IVar="-1" Cut="0.0000000000000000e+00" cType="1" res="-2.8418341651558876e-02" rms="4.4705781340599060e-01" purity="2.9871007800102234e-01" nType="-99"/>
            <Node pos="r" depth="3" NCoef="0" IVar="3" Cut="7.1753131103515625e+02" cType="1" res="6.1166670173406601e-02" rms="4.7835975885391235e-01" purity="5.7795065641403198e-01" nType="0">
              <Node pos="l" depth="4" NCoef="0" IVar="-1" Cut="0.0000000000000000e+00" cType="1" res="3.1492251902818680e-02" rms="4.4859024882316589e-01" purity="6.9851738214492798e-01" nType="-99"/>
              <Node pos="r" depth="4" NCoef="0" IVar="-1" Cut="0.0000000000000000e+00" cType="1" res="-4.8769651912152767e-03" rms="4.8870816826820374e-01" purity="4.6781298518180847e-01" nType="-99"/>
            </Node>
          </Node>
        </Node>
      </Node>
    </BinaryTree>
    <BinaryTree type="DecisionTree" boostWeight="1.0000000000000000e+00" itree="7">
      <Node pos="s" depth="0" NCoef="0" IVar="7" Cut="1.4150726795196533e+00" cType="1" res="1.2695603072643280e-04" rms="4.3793374300003052e-01" purity="5.0000000000000000e-01" nType="0">
        <Node pos="l" depth="1" NCoef="0" IVar="3" Cut="4.0307492065429688e+02" cType="1" res="-9.9334716796875000e-02" rms="4.3534266948699951e-01" purity="3.1181973218917847e-01" nType="0">
          <Node pos="l" depth="2" NCoef="0" IVar="3" Cut="3.4685461425781250e+02" cType="1" res="1.3046432286500931e-02" rms="4.8170259594917297e-01" purity="5.3043138980865479e-01" nType="0">
            <Node pos="l" depth="3" NCoef="0" IVar="-1" Cut="0.0000000000000000e+00" cType="1" res="1.3799648731946945e-02" rms="4.7834742069244385e-01" purity="6.0316812992095947e-01" nType="-99"/>
            <Node pos="r" depth="3" NCoef="0" IVar="-1" Cut="0.0000000000000000e+00" cType="1" res="-1.3738063164055347e-02" rms="4.7520229220390320e-01" purity="4.2385265231132507e-01" nType="-99"/>
          </Node>
          <Node pos="r" depth="2" NCoef="0" IVar="11" Cut="2.8932461547851562e+02" cType="1" res="-1.3640332221984863e-01" rms="4.1226229071617126e-01" purity="2.3971128463745117e-01" nType="0">
            <Node pos="l" depth="3" NCoef="0" IVar="11" Cut="2.1443046569824219e+02" cType="1" res="-2.0294919610023499e-01" rms="3.4411561489105225e-01" purity="1.3954699039459229e-01" nType="0">
              <Node pos="l" depth="4" NCoef="0" IVar="-1" Cut="0.0000000000000000e+00" cType="1" res="-5.2264962345361710e-02" rms="3.1034332513809204e-01" purity="1.0882147401571274e-01" nType="-99"/>
