<?xml version="1.0"?>
<MethodSetup Method="BDT::tZq">
  <GeneralInfo>
    <Info name="TMVA Release" value="4.2.1 [262657]"/>
    <Info name="ROOT Release" value="6.18/04 [397828]"/>
    <Info name="Creator" value="ntonon"/>
    <Info name="Date" value="Fri Mar 13 08:49:14 2020"/>
    <Info name="Host" value="Linux cmspcx36679 4.15.0-1067-oem #77-Ubuntu SMP Mon Jan 20 09:23:07 UTC 2020 x86_64 x86_64 x86_64 GNU/Linux"/>
    <Info name="Dir" value="/home/ntonon/Postdoc/EFTSimulations/myAnalysis"/>
    <Info name="Training events" value="61619"/>
    <Info name="TrainingTime" value="2.51912899e+01"/>
    <Info name="AnalysisType" value="Classification"/>
  </GeneralInfo>
  <Options>
    <Option name="V" modified="Yes">False</Option>
    <Option name="VerbosityLevel" modified="No">Default</Option>
    <Option name="VarTransform" modified="No">None</Option>
    <Option name="H" modified="Yes">False</Option>
    <Option name="CreateMVAPdfs" modified="Yes">True</Option>
    <Option name="IgnoreNegWeightsInTraining" modified="No">False</Option>
    <Option name="NTrees" modified="Yes">200</Option>
    <Option name="MaxDepth" modified="Yes">4</Option>
    <Option name="MinNodeSize" modified="No">5%</Option>
    <Option name="nCuts" modified="Yes">40</Option>
    <Option name="BoostType" modified="Yes">Grad</Option>
    <Option name="AdaBoostR2Loss" modified="No">quadratic</Option>
    <Option name="UseBaggedBoost" modified="No">False</Option>
    <Option name="Shrinkage" modified="Yes">1.000000e-01</Option>
    <Option name="AdaBoostBeta" modified="No">5.000000e-01</Option>
    <Option name="UseRandomisedTrees" modified="No">False</Option>
    <Option name="UseNvars" modified="No">4</Option>
    <Option name="UsePoissonNvars" modified="No">True</Option>
    <Option name="BaggedSampleFraction" modified="No">6.000000e-01</Option>
    <Option name="UseYesNoLeaf" modified="No">True</Option>
    <Option name="NegWeightTreatment" modified="Yes">pairnegweightsglobal</Option>
    <Option name="Css" modified="No">1.000000e+00</Option>
    <Option name="Cts_sb" modified="No">1.000000e+00</Option>
    <Option name="Ctb_ss" modified="No">1.000000e+00</Option>
    <Option name="Cbb" modified="No">1.000000e+00</Option>
    <Option name="NodePurityLimit" modified="No">5.000000e-01</Option>
    <Option name="SeparationType" modified="No">giniindex</Option>
    <Option name="RegressionLossFunctionBDTG" modified="No">huber</Option>
    <Option name="HuberQuantile" modified="No">7.000000e-01</Option>
    <Option name="DoBoostMonitor" modified="No">False</Option>
    <Option name="UseFisherCuts" modified="No">False</Option>
    <Option name="MinLinCorrForFisher" modified="No">8.000000e-01</Option>
    <Option name="UseExclusiveVars" modified="No">False</Option>
    <Option name="DoPreselection" modified="No">False</Option>
    <Option name="SigToBkgFraction" modified="No">1.000000e+00</Option>
    <Option name="PruneMethod" modified="No">nopruning</Option>
    <Option name="PruneStrength" modified="No">0.000000e+00</Option>
    <Option name="PruningValFraction" modified="No">5.000000e-01</Option>
    <Option name="SkipNormalization" modified="No">False</Option>
    <Option name="nEventsMin" modified="No">0</Option>
    <Option name="UseBaggedGrad" modified="Yes">False</Option>
    <Option name="GradBaggingFraction" modified="No">6.000000e-01</Option>
    <Option name="UseNTrainEvents" modified="No">0</Option>
    <Option name="NNodesMax" modified="No">0</Option>
  </Options>
  <Variables NVar="13">
    <Variable VarIndex="0" Expression="maxDijetDelR" Label="maxDijetDelR" Title="maxDijetDelR" Unit="" Internal="maxDijetDelR" Type="F" Min="4.05386329e-01" Max="9.30180073e+00"/>
    <Variable VarIndex="1" Expression="dEtaFwdJetBJet" Label="dEtaFwdJetBJet" Title="dEtaFwdJetBJet" Unit="" Internal="dEtaFwdJetBJet" Type="F" Min="0.00000000e+00" Max="6.88391256e+00"/>
    <Variable VarIndex="2" Expression="dEtaFwdJetClosestLep" Label="dEtaFwdJetClosestLep" Title="dEtaFwdJetClosestLep" Unit="" Internal="dEtaFwdJetClosestLep" Type="F" Min="8.94069672e-08" Max="5.58695650e+00"/>
    <Variable VarIndex="3" Expression="mHT" Label="mHT" Title="mHT" Unit="" Internal="mHT" Type="F" Min="1.28537354e+02" Max="3.74278613e+03"/>
    <Variable VarIndex="4" Expression="mTW" Label="mTW" Title="mTW" Unit="" Internal="mTW" Type="F" Min="2.64364085e-03" Max="9.00883240e+02"/>
    <Variable VarIndex="5" Expression="Mass_3l" Label="Mass_3l" Title="Mass_3l" Unit="" Internal="Mass_3l" Type="F" Min="8.32903976e+01" Max="2.51521191e+03"/>
    <Variable VarIndex="6" Expression="forwardJetAbsEta" Label="forwardJetAbsEta" Title="forwardJetAbsEta" Unit="" Internal="forwardJetAbsEta" Type="F" Min="1.02631506e-02" Max="4.88744545e+00"/>
    <Variable VarIndex="7" Expression="jPrimeAbsEta" Label="jPrimeAbsEta" Title="jPrimeAbsEta" Unit="" Internal="jPrimeAbsEta" Type="F" Min="3.61941102e-06" Max="4.87653065e+00"/>
    <Variable VarIndex="8" Expression="maxDeepCSV" Label="maxDeepCSV" Title="maxDeepCSV" Unit="" Internal="maxDeepCSV" Type="F" Min="4.94106948e-01" Max="9.99961853e-01"/>
    <Variable VarIndex="9" Expression="delRljPrime" Label="delRljPrime" Title="delRljPrime" Unit="" Internal="delRljPrime" Type="F" Min="2.25956291e-02" Max="7.44728756e+00"/>
    <Variable VarIndex="10" Expression="lAsymmetry" Label="lAsymmetry" Title="lAsymmetry" Unit="" Internal="lAsymmetry" Type="F" Min="-2.49887133e+00" Max="2.49945116e+00"/>
    <Variable VarIndex="11" Expression="maxDijetMass" Label="maxDijetMass" Title="maxDijetMass" Unit="" Internal="maxDijetMass" Type="F" Min="1.60902710e+01" Max="6.05684033e+03"/>
    <Variable VarIndex="12" Expression="maxDelPhiLL" Label="maxDelPhiLL" Title="maxDelPhiLL" Unit="" Internal="maxDelPhiLL" Type="F" Min="3.22715044e-02" Max="3.14157343e+00"/>
  </Variables>
  <Spectators NSpec="0"/>
  <Classes NClass="2">
    <Class Name="Signal" Index="0"/>
    <Class Name="Background" Index="1"/>
  </Classes>
  <Transformations NTransformations="0"/>
  <MVAPdfs>
    <PDF Name="tZq_PDFSig" MinNSmooth="0" MaxNSmooth="0" InterpolMethod="2" KDE_type="1" KDE_iter="1" KDE_border="1" KDE_finefactor="1.0000000000000000e+00">
      <Histogram Name="BDT_tr_S_original" NBins="1232" XMin="-9.8672187328338623e-01" XMax="9.7683131694793701e-01" HasEquidistantBins="1">
        0.00000000e+00 0.00000000e+00 0.00000000e+00 0.00000000e+00 0.00000000e+00 0.00000000e+00 0.00000000e+00 0.00000000e+00 0.00000000e+00 0.00000000e+00 3.55829647e-02 0.00000000e+00 0.00000000e+00 0.00000000e+00 0.00000000e+00 0.00000000e+00 0.00000000e+00 0.00000000e+00 4.46267765e-02 0.00000000e+00 0.00000000e+00 8.52899913e-02 0.00000000e+00 6.43974435e-02 0.00000000e+00 7.31964065e-02 0.00000000e+00 7.17758597e-02 0.00000000e+00 0.00000000e+00 6.77045678e-02 0.00000000e+00 0.00000000e+00 0.00000000e+00 0.00000000e+00 5.39392193e-02 1.06517417e-01 6.88958249e-02 0.00000000e+00 1.46666740e-01 0.00000000e+00 6.37349566e-02 0.00000000e+00 2.36652240e-02 0.00000000e+00 0.00000000e+00 7.14570535e-02 6.24208695e-02 3.42073396e-02 0.00000000e+00 0.00000000e+00 0.00000000e+00 0.00000000e+00 0.00000000e+00 1.15620851e-01 6.18207919e-02 3.17607550e-01 6.77006885e-02 5.52353865e-02 0.00000000e+00 1.18139690e-01 1.56907504e-01 6.14543451e-02 0.00000000e+00 5.60778679e-02 1.51382024e-01 0.00000000e+00 4.10531564e-02 0.00000000e+00 5.99162048e-02 1.44372259e-01 0.00000000e+00 7.49326367e-02 1.13102585e-01 0.00000000e+00 6.65734933e-02 4.80541076e-02 1.02906190e-01 0.00000000e+00 5.34493407e-02 2.26952837e-01 7.44247113e-02 7.73486184e-02 2.31726912e-01 1.87966425e-01 6.02124248e-02 6.22768223e-02 9.17171745e-02 0.00000000e+00 8.90899386e-02 1.15483830e-01 1.08963180e-01 1.89137457e-01 3.20178602e-01 0.00000000e+00 8.69852677e-02 0.00000000e+00 2.16989299e-01 1.98961009e-01 2.01960403e-01 1.45016486e-01 5.05510523e-02 1.89637601e-01 4.86739056e-02 4.71561904e-02 2.06453645e-01 1.45557780e-01 2.21735836e-01 1.55718549e-01 8.49483518e-02 1.93435328e-01 2.89348361e-01 0.00000000e+00 1.35638049e-01 1.05334378e-01 7.05980416e-02 2.63490943e-01 5.10651042e-02 2.44032429e-01 7.06560013e-02 1.62707092e-01 5.88954514e-03 8.06304018e-02 1.34921676e-01 2.03235695e-01 9.87332273e-02 3.20867041e-02 4.99723808e-02 9.93701556e-02 3.55194567e-01 7.33023219e-02 1.19915023e-01 6.36628918e-02 1.35959256e-01 2.22895054e-01 2.18239457e-01 1.29735018e-01 2.56124252e-01 6.15748571e-02 1.47161258e-01 7.52240401e-02 2.56546248e-01 0.00000000e+00 1.98555375e-01 1.75778517e-01 4.71346678e-02 1.47698982e-01 1.48941293e-01 0.00000000e+00 1.12710764e-01 0.00000000e+00 1.84301863e-03 0.00000000e+00 1.41438604e-01 1.73696268e-01 1.83296121e-01 1.56740208e-01 2.73043064e-01 2.44888474e-01 2.03438870e-01 1.48141341e-01 1.36049167e-01 2.78419530e-01 1.74079135e-01 1.28367028e-01 8.46985396e-02 1.70009104e-01 1.68985944e-01 7.25690863e-02 2.44950916e-01 1.17600421e-01 1.99705919e-01 2.11185119e-01 1.89841163e-01 5.08569414e-01 1.98548324e-01 1.26358775e-01 7.65065560e-02 0.00000000e+00 3.22882219e-01 1.22667172e-01 1.18409893e-01 7.26469257e-02 6.12827375e-02 9.89223179e-02 4.86471171e-02 9.07477063e-03 3.00036758e-01 1.82465178e-01 8.23094809e-02 3.10441889e-01 6.26053888e-02 1.37158560e-01 2.89101070e-01 6.73740111e-02 2.34454238e-01 8.52062088e-02 5.12583346e-02 1.77393175e-01 7.50617220e-02 6.51127322e-02 1.91913546e-01 0.00000000e+00 1.44436795e-01 1.71706608e-01 8.99984774e-02 1.11996501e-01 3.86103234e-01 3.83250975e-02 3.22094157e-01 4.87636755e-02 1.36195850e-01 1.19286127e-01 1.53635920e-01 3.48100051e-01 1.62252059e-01 5.42426947e-02 1.38367810e-01 7.29826625e-02 4.18545265e-02 1.48181786e-01 2.90605759e-01 6.61027999e-02 4.96519309e-02 6.90508232e-02 1.54588313e-01 7.57694600e-02 1.31898409e-01 1.12953997e-01 1.65381037e-01 2.12886773e-01 1.53817346e-01 2.87257519e-02 1.08806538e-01 3.07160832e-01 2.19605686e-01 2.20868297e-01 1.97612473e-01 1.95874719e-01 2.02734673e-01 4.41064664e-01 2.59062802e-01 1.26988420e-01 1.14704041e-01 0.00000000e+00 2.87101514e-01 1.63040337e-01 3.93124406e-01 8.17935158e-02 1.83823743e-01 2.19363992e-01 2.12607119e-01 0.00000000e+00 5.32815849e-02 8.66607837e-02 2.90038968e-01 5.45299657e-02 8.78436100e-02 0.00000000e+00 2.09984990e-01 3.42291880e-02 1.81683869e-01 1.89530206e-01 1.82313209e-01 1.51960658e-01 6.52561116e-02 2.16570459e-01 1.36679990e-01 1.39179396e-01 4.59493463e-01 8.24086172e-02 3.58079877e-01 1.32080482e-01 1.98632100e-01 1.02061340e-01 1.78237917e-01 3.97088321e-01 1.03640181e-01 1.97078746e-01 1.57443741e-02 1.63968146e-01 2.93511194e-02 1.98681513e-01 2.08525031e-02 1.19462572e-01 4.99222408e-01 8.24939268e-02 1.68609572e-01 2.92448832e-01 2.86787890e-01 2.64141817e-01 2.70490100e-01 1.02052229e-01 1.64545896e-01 2.13545740e-01 2.13426800e-01 1.68676317e-01 3.18765947e-01 2.17198807e-01 1.44373520e-01 2.76265615e-01 3.60222264e-01 1.51640717e-01 2.81396932e-01 8.75368400e-02 2.50946817e-01 1.33374646e-01 1.73222192e-01 2.75149011e-01 1.29370621e-01 2.68774261e-01 1.94945070e-01 5.60615415e-02 8.67089695e-02 2.07275811e-01 3.84359480e-01 1.05035516e-01 2.32126957e-01 2.23861739e-01 1.43922839e-01 2.79224085e-01 4.12471207e-01 2.20288641e-01 4.93906699e-02 3.86710282e-01 1.52420249e-01 1.72379599e-01 1.54852622e-01 1.10965158e-01 5.17808299e-01 1.25804407e-01 2.58465184e-01 2.45229458e-01 2.38913863e-01 5.80998970e-02 2.61221931e-01 1.87642090e-01 3.49872286e-01 1.46088982e-01 2.16092429e-01 2.16468440e-01 6.24378118e-02 1.55800784e-01 4.31975981e-01 2.22325379e-01 2.46186845e-01 0.00000000e+00 2.47731434e-01 7.56705278e-02 1.83565175e-01 1.45342336e-01 1.46158018e-01 2.12417098e-01 1.40898327e-01 4.69591783e-02 7.42039277e-02 3.68875615e-01 1.11101556e-01 1.44222701e-01 2.64515758e-01 0.00000000e+00 2.70008385e-01 1.88698848e-03 2.09324650e-01 2.66471593e-01 9.45600396e-02 2.01746337e-01 1.69149269e-01 2.55188056e-01 6.42870875e-02 1.91586618e-01 4.56631620e-01 1.74966393e-01 1.08737347e-01 1.42904227e-01 5.31703122e-02 2.16999563e-01 1.38366532e-01 2.99237397e-01 1.63968050e-01 1.54605359e-01 8.90603487e-02 9.27082771e-02 3.07265813e-01 2.71986166e-01 2.35742466e-01 2.05075306e-01 2.90238319e-01 2.28624838e-01 2.08185877e-01 2.68496455e-01 2.37099365e-01 1.91018168e-01 1.96463258e-01 5.20955519e-01 1.82039479e-01 1.26227126e-01 2.55685345e-01 3.79422765e-01 2.73004771e-01 3.06499287e-01 2.59832071e-01 1.44449284e-01 1.75371651e-01 1.19222784e-01 3.81434493e-01 1.74017269e-01 2.26026709e-01 1.59720537e-01 4.12638359e-01 7.48566851e-02 1.55507839e-01 1.36108091e-01 2.21218922e-01 2.60934816e-01 2.54537566e-02 1.14122744e-01 3.12208848e-01 2.94473898e-01 2.55116229e-01 3.47928687e-01 3.03822428e-01 1.68624484e-01 4.31803167e-02 1.99167984e-01 6.89309343e-02 3.36199094e-01 2.26224778e-01 3.22794185e-01 3.56727034e-01 4.52581240e-01 1.69195664e-01 3.16336469e-01 4.04036495e-01 9.02939490e-02 1.58152286e-01 3.27290943e-01 2.54098816e-01 1.27668594e-01 7.32454473e-02 3.14416108e-01 4.79567626e-01 6.57824857e-02 1.12451454e-01 2.98302917e-01 3.39965085e-01 2.27081619e-01 1.74106156e-01 5.15507550e-02 2.29943376e-01 3.67598703e-01 1.31597290e-01 2.57009836e-01 1.78128366e-01 1.08550809e-01 3.22391963e-01 2.90253779e-01 2.32836978e-01 1.66534868e-01 3.97471435e-01 7.98076238e-02 2.14381098e-01 1.10007233e-01 9.31892716e-02 1.93205088e-01 3.00198013e-01 4.68429397e-02 4.28845680e-01 4.15967563e-01 3.57874510e-01 2.22733068e-01 1.59126101e-01 7.12591766e-02 6.95879850e-02 5.19472645e-02 2.76137339e-01 3.23042514e-01 3.17759583e-01 1.15222811e-01 2.59925677e-01 2.75083765e-01 2.71693699e-01 3.18000856e-01 3.54652357e-01 4.65278009e-01 5.46168837e-01 3.18097821e-01 1.07971999e-01 7.02795631e-02 2.54711959e-01 1.77368422e-01 1.86648288e-01 1.28414066e-01 2.18279965e-01 4.02791816e-01 7.46448248e-01 1.09434033e-01 4.04923750e-01 4.75573807e-01 4.66013516e-01 3.96534553e-01 3.50145050e-01 4.69471646e-01 2.64294390e-01 6.48170836e-01 1.32882406e-01 2.38678212e-01 3.04015526e-01 1.55193846e-01 3.22893363e-01 2.86677338e-01 3.63730371e-01 1.26198782e-01 3.34441776e-01 2.27708467e-01 1.31363220e-01 1.17677381e-01 2.84355724e-01 4.93815631e-01 4.21024944e-02 3.51629936e-01 1.52381788e-01 3.20314595e-01 1.57185654e-01 1.21100741e-01 1.19629426e-01 1.89675977e-01 1.89384422e-01 1.18801507e-01 3.23223376e-01 2.29438627e-01 2.77661821e-01 3.02806396e-01 3.00054308e-01 1.22830336e-01 1.05168951e-01 4.20780249e-01 2.65228640e-01 3.22770116e-01 3.53666760e-01 8.72596608e-02 5.02985931e-01 2.13964126e-01 1.17558126e-01 6.75017321e-01 4.67165350e-01 2.26836957e-01 1.42425408e-01 4.17631234e-01 4.94694912e-01 2.38701332e-01 1.68401695e-01 3.52223734e-01 3.54160624e-01 1.18500073e-01 3.73884851e-01 4.36287875e-01 1.27083302e-01 3.63027902e-01 2.00214489e-01 2.37831089e-01 2.33527707e-01 2.34462668e-01 3.54575365e-01 2.03353163e-01 4.93971069e-01 2.77544434e-01 1.81166070e-01 2.81670754e-01 3.97720877e-01 1.83131954e-01 3.06413820e-01 3.76314244e-01 4.01707499e-01 3.21528898e-01 1.21246289e-01 3.23173788e-01 4.11255023e-02 6.64953135e-01 4.57930669e-01 2.51463829e-01 3.90598618e-01 2.53778433e-01 2.40867052e-01 3.12490357e-01 5.81362748e-01 3.27740232e-01 1.22136786e-01 2.56704380e-01 1.95774720e-01 3.00265965e-01 5.83497522e-01 6.10753004e-01 2.58835719e-01 1.54644258e-01 7.61174131e-01 3.93944432e-01 6.83454631e-02 2.14362143e-01 6.82187612e-01 2.83924208e-01 3.74639423e-01 2.53023294e-01 2.07752968e-01 7.67392432e-02 3.57199078e-01 2.42521491e-01 2.53914736e-01 3.33250436e-01 9.48672221e-02 1.77533878e-01 4.34872371e-01 4.40812643e-01 2.79516833e-01 2.17073292e-01 4.29529963e-01 2.24652526e-01 2.34991360e-01 3.58757572e-01 3.14863134e-01 3.41554791e-01 8.63012404e-02 3.39900873e-01 1.82646444e-01 1.20013796e-01 0.00000000e+00 7.93914038e-02 6.32593942e-01 3.75858548e-01 2.87182338e-01 6.27203304e-01 3.34821848e-01 2.11951616e-01 1.51829324e-01 2.64788894e-01 2.92737152e-01 4.78052967e-01 3.74217591e-01 4.26478339e-01 3.77286122e-01 3.78294617e-01 2.63276382e-01 5.54378637e-01 1.44704244e-01 5.54376684e-01 2.21057395e-01 1.32333919e-01 1.52564981e-01 2.41161272e-01 1.60167332e-01 4.68888907e-01 2.18362180e-01 3.89965974e-01 2.87493814e-01 3.99851867e-01 4.04556520e-01 3.05517754e-01 2.86151146e-01 3.17661109e-01 2.91305966e-01 5.85858537e-01 2.43492686e-01 5.87886605e-01 6.67609944e-01 3.48032601e-01 3.07260504e-01 2.86151751e-01 7.02974652e-02 3.91034560e-01 5.42560895e-01 1.75387311e-01 2.45696635e-01 1.93222419e-01 2.53398050e-01 3.47188132e-01 4.34140196e-01 1.07475838e-01 4.36115791e-01 3.72216202e-01 2.29901154e-01 6.29607709e-01 3.06837218e-01 3.05220468e-01 8.02876132e-01 2.89820159e-01 4.10606721e-01 2.93336507e-01 4.23897441e-01 4.60541916e-01 3.75178375e-01 2.70561051e-01 4.95277649e-01 1.95981340e-01 2.74586760e-01 0.00000000e+00 5.43950301e-01 2.69107689e-01 3.57507659e-01 4.94193131e-01 5.04893766e-01 1.64645408e-01 7.83452723e-01 6.41460445e-01 3.42002969e-01 3.57025053e-01 4.32361253e-01 4.52174758e-01 2.88021733e-01 4.53939440e-01 2.08476784e-01 4.61514830e-01 3.79748755e-01 2.75686110e-01 3.79976690e-01 2.98649527e-01 3.42609961e-01 4.07806850e-01 5.16731588e-01 2.50598497e-01 3.58712550e-01 6.59860224e-01 2.40399443e-01 4.78244016e-01 3.47879221e-01 2.03755025e-01 4.22558669e-01 1.96952430e-01 5.17850002e-01 4.39112263e-01 4.53121747e-01 2.22936743e-01 4.31510137e-01 4.31870313e-02 2.98148907e-01 4.99126475e-01 2.91835217e-01 4.45726152e-01 4.89183099e-01 3.78840805e-01 6.39979025e-01 5.10153673e-01 2.33381940e-01 5.00729167e-01 4.09319524e-01 4.45065326e-01 6.01965227e-01 6.51616053e-01 6.01376061e-01 5.35864093e-01 2.83562851e-01 3.96707024e-01 3.45618215e-01 5.25562806e-01 4.11242847e-01 3.36138937e-01 3.40295319e-01 2.67448462e-01 3.84272453e-01 2.62715256e-01 3.40540380e-01 3.19294278e-01 5.45143875e-01 3.07335662e-01 3.26483801e-01 1.89791994e-01 2.92925601e-01 3.18937832e-01 4.21072167e-01 8.56804277e-01 3.97270596e-01 3.90276747e-01 4.59549515e-01 4.53623692e-01 5.19317886e-01 8.68515638e-01 3.71523613e-01 3.03518172e-01 1.62025285e-01 1.69135395e-01 5.83308535e-01 2.96724188e-01 2.94985668e-01 7.35415139e-01 3.64736037e-01 3.80102377e-01 3.76653653e-01 5.74463560e-01 3.66971902e-01 3.72741782e-01 3.88166908e-01 8.57358402e-01 3.17346801e-01 2.08127054e-01 3.83997213e-01 2.68885197e-01 4.51944722e-01 4.74645128e-01 3.51875758e-01 3.33983617e-01 6.02411007e-01 5.09911947e-01 6.59146085e-01 5.01370192e-01 4.03691133e-01 8.08201148e-01 8.58939098e-01 3.94681652e-01 6.19428713e-01 5.17525414e-01 3.43850023e-01 7.55757447e-01 3.16980961e-01 5.43699182e-01 2.28278138e-01 4.42307634e-01 5.94564430e-01 4.05625840e-01 1.64173513e-01 6.08815894e-01 7.08840078e-01 5.12880611e-01 4.48035898e-01 6.36719109e-01 4.52305355e-01 3.41001491e-01 4.08541883e-01 8.36710343e-01 4.12793958e-01 4.31145008e-01 8.08398916e-01 9.59732308e-01 2.93193051e-01 7.47166244e-01 4.68393024e-01 3.60186682e-01 5.49298206e-01 4.68843653e-01 5.66734760e-01 7.07900437e-01 6.10053137e-01 4.79319171e-01 4.32270919e-01 6.46789862e-01 4.38303791e-01 4.26776451e-01 6.06787061e-01 5.12693263e-01 8.37483921e-01 7.56740709e-01 7.97718608e-01 4.39794581e-01 6.07510851e-01 1.25714515e+00 6.25901138e-01 7.74590722e-01 4.17304063e-01 4.65939099e-01 5.98881894e-01 4.66611702e-01 3.99985935e-01 9.72764796e-01 8.39602527e-01 4.77724961e-01 5.38154469e-01 4.01175391e-01 9.32142556e-01 5.56541247e-01 5.27041992e-01 3.53034568e-01 6.48474105e-01 3.73415344e-01 1.09083480e+00 4.68994997e-01 4.83028450e-01 4.89304983e-01 6.43442361e-01 4.41905767e-01 5.45587613e-01 7.57835975e-01 8.47534816e-01 8.76987177e-01 5.02148750e-01 4.99454275e-01 4.78487981e-01 7.30429269e-01 7.00125695e-01 7.21036839e-01 4.89620957e-01 6.93603774e-01 5.80943885e-01 4.34421837e-01 9.34659672e-01 7.93032809e-01 5.98217062e-01 3.41373282e-01 8.27524873e-01 5.02718554e-01 5.64129601e-01 4.24896722e-01 9.61690360e-01 4.68661843e-01 6.25234795e-01 4.70767646e-01 9.69532532e-01 5.41610074e-01 8.03391123e-01 6.04880961e-01 7.59579915e-01 7.17684063e-01 3.80137343e-01 8.88884673e-01 5.68944144e-01 7.71163955e-01 7.35555459e-01 5.65805818e-01 7.73840195e-01 1.03693360e+00 1.11374837e+00 8.70751171e-01 7.89756989e-01 5.62028331e-01 3.36193780e-01 3.56472782e-01 1.23062496e+00 9.75560584e-01 1.13831385e+00 1.12524995e+00 9.22899922e-01 4.06801781e-01 6.22897176e-01 8.75228259e-01 7.98987633e-01 9.99429307e-01 9.37216984e-01 6.68197033e-01 3.46825783e-01 1.24061363e+00 3.28107388e-01 7.78539361e-01 4.37793012e-01 9.97789426e-01 1.07254462e+00 6.19108713e-01 5.17751705e-01 5.62074629e-01 5.91361023e-01 1.33962359e+00 5.45774182e-01 4.57796326e-01 6.25155693e-01 8.29087662e-01 1.40225809e+00 1.05236698e+00 8.22931473e-01 1.01665210e+00 5.60699909e-01 7.62798053e-01 9.36694411e-01 4.07615349e-01 7.48933656e-01 1.15090964e+00 1.12092011e+00 6.49827546e-01 9.32681668e-01 8.57077855e-01 9.14715148e-01 9.40894380e-01 8.44834017e-01 1.01169009e+00 4.66930669e-01 3.75774851e-01 7.43862762e-01 5.35969548e-01 5.88687017e-01 6.69483534e-01 1.29675358e+00 6.85576861e-01 8.85848301e-01 1.20592805e+00 1.16854459e+00 8.45821046e-01 5.18710488e-01 9.10388325e-01 6.49854177e-01 6.36396772e-01 9.75459172e-01 7.00366396e-01 9.10456862e-01 7.57606713e-01 1.19083411e+00 8.46365828e-01 1.19011725e+00 4.96366105e-01 1.05190376e+00 8.12338159e-01 1.02799455e+00 8.11561844e-01 7.70187239e-01 9.96739805e-01 3.87862872e-01 7.76264697e-01 1.10095273e+00 1.03617425e+00 7.20922499e-01 6.21082216e-01 8.21523324e-01 1.45650970e+00 5.61690598e-01 9.22476604e-01 5.46812382e-01 6.61576936e-01 9.57181446e-01 1.64072605e+00 9.97243887e-01 1.10047642e+00 1.06895297e+00 9.14868736e-01 1.06981129e+00 7.86260949e-01 1.31971156e+00 1.30153848e+00 1.18955686e+00 1.07373381e+00 1.15525149e+00 1.09493685e+00 6.77248745e-01 1.59061222e+00 7.26053722e-01 1.07237830e+00 7.23769396e-01 8.28307954e-01 9.42316451e-01 1.39462062e+00 1.27407461e+00 7.70872733e-01 1.23348749e+00 1.29373259e+00 8.39185893e-01 9.71562398e-01 1.09544154e+00 1.47437218e+00 9.68882363e-01 1.03759271e+00 1.00244744e+00 1.08268303e+00 8.78505795e-01 1.17719020e+00 1.21310922e+00 1.37212066e+00 9.93211215e-01 1.29384527e+00 1.66823987e+00 7.53351203e-01 1.07150374e+00 1.62586582e+00 1.36260514e+00 1.15538495e+00 8.85447106e-01 1.49761690e+00 1.46058928e+00 1.36524459e+00 8.00722414e-01 1.40626928e+00 1.33292982e+00 1.53408501e+00 9.57323604e-01 1.17020911e+00 1.15117494e+00 1.58073937e+00 9.18176832e-01 1.01628562e+00 1.13756272e+00 1.77066792e+00 9.98297559e-01 1.27738336e+00 1.00502149e+00 1.25311707e+00 1.29268949e+00 1.27814054e+00 1.22743879e+00 1.70252061e+00 1.41158859e+00 1.49165154e+00 1.01881926e+00 2.24905248e+00 1.36833668e+00 9.78661873e-01 1.39170783e+00 1.10032127e+00 1.78081274e+00 1.77644129e+00 1.10880415e+00 1.12364187e+00 1.25507965e+00 1.75142696e+00 1.50510448e+00 1.14967997e+00 1.33665885e+00 1.19685303e+00 1.66570979e+00 1.50404013e+00 1.01452412e+00 1.33794619e+00 1.56408972e+00 1.55691107e+00 1.11202601e+00 1.30051888e+00 1.67129414e+00 8.39802175e-01 1.50920275e+00 1.65006744e+00 1.39348342e+00 1.89463471e+00 1.28045605e+00 1.23726871e+00 1.39208324e+00 1.37749541e+00 1.48605348e+00 1.25527357e+00 1.71591590e+00 1.19063930e+00 1.81189136e+00 1.81614003e+00 2.49107894e+00 2.10506126e+00 1.44095546e+00 1.47574313e+00 1.07996825e+00 1.28946989e+00 9.98190269e-01 1.45200040e+00 9.07394317e-01 1.89046394e+00 1.74113521e+00 1.62424684e+00 1.85834975e+00 1.79324118e+00 1.84378014e+00 1.75862523e+00 1.49634369e+00 1.72519233e+00 1.62717508e+00 2.27991340e+00 1.92095044e+00 1.30518949e+00 1.87302353e+00 1.80215132e+00 1.16304408e+00 1.85597832e+00 1.53064459e+00 1.11416882e+00 1.81188636e+00 1.91318604e+00 1.50885846e+00 1.92397201e+00 1.86941250e+00 1.66593995e+00 1.56692380e+00 1.73910267e+00 1.95231520e+00 1.73395257e+00 2.02609271e+00 1.52586108e+00 1.68770696e+00 1.73777313e+00 1.88377299e+00 1.66111023e+00 1.49423102e+00 1.44143013e+00 1.98207842e+00 1.72095754e+00 2.06229990e+00 1.67297900e+00 1.53503914e+00 1.74055309e+00 2.00338494e+00 1.65563362e+00 1.35625023e+00 1.73658533e+00 2.10648216e+00 1.27531844e+00 1.74727082e+00 1.55350996e+00 1.96461458e+00 1.53853232e+00 1.21482079e+00 1.72307769e+00 1.45915312e+00 1.86564563e+00 1.21318986e+00 1.45859233e+00 1.45198849e+00 1.50856434e+00 1.22492554e+00 2.09019362e+00 2.38692904e+00 1.86514448e+00 1.44703007e+00 2.08073016e+00 1.44704330e+00 1.46044157e+00 1.10641949e+00 1.75395365e+00 1.03586028e+00 1.81228809e+00 9.52291027e-01 1.02697436e+00 1.23054259e+00 1.20773020e+00 1.14322409e+00 1.29104494e+00 1.17984705e+00 8.61443060e-01 9.00125869e-01 1.21192170e+00 7.50412152e-01 1.51946539e+00 8.76520838e-01 5.95557627e-01 1.27646901e+00 6.59144053e-01 6.31633697e-01 7.04125798e-01 3.94767713e-01 3.72590241e-01 4.39792677e-01 4.65163028e-01 7.01517082e-01 3.49636523e-01 3.18427050e-01 6.65400670e-02 1.10083454e-01 
      </Histogram>
    </PDF>
    <PDF Name="tZq_PDFBkg" MinNSmooth="0" MaxNSmooth="0" InterpolMethod="2" KDE_type="1" KDE_iter="1" KDE_border="1" KDE_finefactor="1.0000000000000000e+00">
      <Histogram Name="BDT_tr_B_original" NBins="1232" XMin="-9.8672187328338623e-01" XMax="9.7683131694793701e-01" HasEquidistantBins="1">
        1.04234578e-02 4.51301553e-03 2.01315274e-01 2.33456972e-01 1.18527970e-01 7.55737587e-01 4.69590219e-01 5.29632349e-02 2.42547377e-01 7.77256394e-01 1.16463919e+00 1.48516646e+00 9.94705937e-01 4.51418198e-01 9.47692712e-01 1.54483011e+00 8.88841301e-01 1.36102409e+00 2.71493913e+00 3.84694565e+00 1.29029615e+00 1.35860159e+00 2.06175774e+00 1.36480360e+00 2.52664979e+00 1.64280773e+00 1.71520936e+00 2.98970043e+00 1.73818384e+00 2.14700722e+00 1.84288094e+00 8.77860447e-01 1.79090415e+00 2.12203518e+00 1.76968307e+00 1.57217638e+00 2.34829030e+00 2.04731815e+00 1.68924629e+00 4.38815534e+00 2.41584369e+00 1.19767502e+00 8.80974500e-01 1.38146871e+00 2.39297528e+00 8.23752960e-01 1.69471586e+00 2.06035036e+00 1.33728432e+00 1.79566604e+00 1.58340194e+00 2.36100709e+00 1.46788005e+00 3.87754839e+00 3.93217843e+00 1.10588775e+00 1.93976049e+00 2.59477616e+00 1.99743805e+00 7.36467444e-01 2.09922941e+00 2.36642771e+00 2.83641988e+00 1.35728233e+00 1.73042893e+00 2.85699583e+00 2.26017507e+00 1.02683594e+00 1.83965643e+00 1.25808662e+00 1.86950427e+00 2.42350956e+00 2.04330643e+00 1.26897258e+00 7.97043649e-01 1.34583517e+00 1.90836355e+00 2.01885708e+00 2.13477128e+00 1.49335506e+00 2.64385743e+00 1.35886781e+00 1.04710143e+00 9.34275217e-01 9.72562605e-01 2.05163291e+00 2.70122526e+00 3.60730549e+00 5.00825235e+00 1.53866687e+00 2.17130401e+00 2.09698633e+00 1.59665385e+00 1.48325980e+00 1.03349750e+00 2.91766651e+00 2.15371905e+00 2.43585810e+00 3.28801095e+00 1.01762677e+00 1.88241268e+00 1.15843714e+00 9.96810050e-01 1.34658145e+00 1.00126729e+00 1.98448867e+00 3.23025561e+00 5.45528938e-01 1.10977013e+00 2.64004412e+00 1.80421646e+00 1.31921508e+00 1.48310821e+00 1.47043011e+00 1.28420432e+00 1.68904803e+00 2.46207054e+00 1.06369943e+00 1.08879739e+00 1.46631378e+00 1.42253513e+00 1.92768771e+00 7.62622360e-01 1.67736822e+00 9.62327801e-01 2.47228035e+00 1.67686551e+00 7.66539059e-01 6.33892708e-01 9.54821947e-01 1.19907695e+00 1.11827416e+00 1.13008535e+00 1.29803481e+00 6.04978759e-01 8.63757490e-01 1.13411128e+00 1.69302230e+00 1.04032435e+00 1.28071966e+00 5.65239891e-01 4.67759600e-01 1.50136555e+00 1.47281464e+00 1.34047619e+00 1.31220036e+00 1.23417076e+00 9.81069490e-01 3.22005549e+00 4.32352870e-01 9.21681037e-01 7.33963678e-01 8.05449298e-01 3.35192727e-01 1.09931495e+00 1.13591071e+00 8.36494828e-01 7.61415826e-01 7.24257466e-01 4.84373730e+00 1.25779513e+00 9.48441878e-01 8.56160168e-01 5.69803880e-01 1.07554369e+00 1.60704736e+00 2.57785331e-01 7.55163197e-01 1.50315306e+00 1.26813621e+00 6.19465240e-01 7.16880461e-01 5.72703488e-01 5.31432810e-01 7.03910701e-01 6.17889602e-01 8.33843945e-01 1.21146628e+00 9.22517480e-01 7.37686916e-01 8.56965968e-01 3.10165210e-01 8.15211394e-01 7.87798572e-01 9.52978551e-01 2.15657991e+00 1.23736626e+00 1.05061212e+00 1.05137988e+00 1.00701989e+00 3.22138065e-01 9.74963310e-01 5.10685495e-01 1.46079223e+00 9.93497395e-01 1.14365554e+00 1.02043190e+00 6.36048454e-01 6.29981186e-01 7.25709126e-01 1.23236938e+00 8.90599598e-01 5.36711457e-01 1.61909258e+00 3.80478762e-01 1.31215819e+00 5.49795244e-01 8.99203971e-01 1.18275034e+00 8.25990638e-01 6.34923231e-01 8.67307224e-01 3.03931791e-01 3.65165215e-01 3.24534921e-01 9.94372992e-01 6.22911388e-01 5.61974238e-01 2.58550011e+00 3.95882695e-01 8.76066790e-01 9.37238913e-01 5.09639948e-01 1.21914688e+00 3.38985491e-01 6.23692968e-01 9.32021607e-01 9.22379031e-01 1.72840824e-01 7.16199483e-01 3.55634760e-01 7.31722805e-01 6.98086521e-01 6.84574356e-01 1.19583918e+00 2.93952814e-01 5.57441359e-01 8.61922647e-01 5.92273917e-01 1.15816108e+00 2.25644109e-01 5.31114178e-01 6.86575886e-01 3.46681968e-01 1.31772275e+00 4.53942448e-01 9.34805867e-01 1.98114433e-01 4.82522402e-01 5.86472160e-01 9.27984246e-01 1.02093219e+00 4.27606958e-01 5.50435509e-01 1.21523893e+00 4.34523248e-01 4.06319274e-01 1.48070245e+00 1.17332683e+00 1.46112942e+00 2.81482703e-01 5.16848413e-01 3.93662855e-01 1.95778592e-01 2.94058209e-01 8.88765170e-01 2.57230664e-01 5.42617817e-01 1.47192091e-01 4.98159320e-01 2.88581026e-01 4.59776321e-01 1.46141842e+00 3.27160566e-01 5.49373003e-01 6.69414664e-01 6.47883866e-01 5.10701696e-01 7.14097465e-01 1.14714308e+00 9.75431969e-01 5.25838721e-01 1.39336961e+00 1.18560181e+00 8.55905645e-01 8.31176708e-01 3.19914842e-01 5.25074788e-01 6.48083257e-01 1.06480983e-01 9.52387758e-02 7.34365325e-01 6.94709327e-01 4.31857516e-01 8.02125030e-01 2.23112033e+00 3.74753839e-01 3.89090787e-01 7.61743848e-01 1.10899147e+00 7.57839380e-02 1.24682942e+00 1.13365248e+00 4.05217051e-01 6.37744413e-01 8.86028288e-01 6.64754949e-01 4.91317387e-01 5.91881024e-01 5.43396473e-01 5.66308377e-01 4.76846486e-01 3.02476958e-01 1.11009871e-01 7.48598590e-01 2.19021271e-01 1.10878914e+00 4.74748978e-01 9.24983105e-01 5.07462943e-01 2.10684589e-01 2.56559693e-01 6.85057465e-01 6.38521688e-01 3.24636757e-01 5.20735277e-01 1.95595946e-01 5.47580366e-01 3.74948127e-01 2.08088657e-01 7.57649636e-01 3.44059941e-01 8.70734562e-01 9.35443972e-01 3.77107571e-01 7.26242165e-01 5.86835515e-01 4.79699280e-01 7.32338882e-01 3.28512129e-01 3.88972646e-01 3.83180860e-01 1.21637501e-01 2.29214417e-01 1.18668088e-01 1.39021743e+00 4.67061544e-01 1.08742797e+00 2.49861539e-01 6.39061344e-01 2.32671095e-01 2.13832632e-01 6.07000827e-01 3.42565006e-01 4.82961113e-01 5.12978752e-01 6.37257268e-01 9.93061792e-02 1.37747392e-01 4.75570905e-01 7.59659656e-01 3.19254080e-01 7.74264925e-01 4.25132734e-01 5.21959881e-01 8.75862493e-01 4.22760900e-01 3.27478123e-01 4.36116213e-01 2.79724545e-01 2.15304759e-01 5.43141636e-01 3.56662526e-01 2.97631904e-01 2.77927803e-01 2.59920666e-01 2.53110827e-01 5.93305112e-01 2.43410050e+00 5.38706158e-01 3.94278889e-01 4.59046913e-01 9.28948910e-01 8.63310382e-02 2.64915767e-01 3.26883079e-01 7.58126862e-01 4.92614570e-01 7.79313481e-01 2.51795647e-01 8.54472778e-01 2.72141651e-01 9.21726258e-01 3.74819062e-01 4.96093586e-01 3.62188744e-01 8.72706963e-01 6.49692581e-01 1.75997618e+00 5.53862807e-01 7.58312452e-01 5.11302575e-01 5.96274001e-01 5.92193592e-01 1.15437971e+00 4.77244407e-01 5.06486491e-01 3.95526544e-01 2.82994924e-01 4.14526319e-01 5.13884860e-01 2.71843928e-01 6.22607928e-01 4.02912075e-01 4.36913233e-01 3.63729442e-01 5.80622689e-01 3.33315402e-01 4.95888910e-01 1.36902282e-01 3.47367069e-01 8.35980254e-01 1.35612270e-01 3.21422008e-01 3.16984807e+00 3.23984664e-01 2.52082377e-01 3.22251495e-01 1.17552585e-01 2.78126661e-01 3.09702638e-01 1.50047759e-01 4.51241243e-01 3.46305160e-01 5.56900222e-01 5.09482160e-01 1.96787322e-01 1.63900376e-01 3.81378346e-01 1.50808304e-01 6.24278375e-01 2.81930137e-01 5.71503719e-01 4.04313832e-01 2.69101627e-01 5.91828464e-01 9.84405894e-02 8.91053521e-02 5.39205726e-01 4.16624166e-01 8.15056309e-01 1.38463442e-01 5.28938738e-01 6.72990112e-01 1.07207240e-01 2.54848969e-01 3.14738294e-01 3.02913110e-01 4.99619626e-01 3.70927013e-01 5.35547331e-01 7.54709005e-02 5.83164812e-01 2.76409841e-01 5.40783484e-01 4.32883978e-01 1.45512331e-01 9.69273088e-02 8.85308555e-02 1.84145970e-01 4.99980841e-01 7.51832881e-01 9.66646898e-01 2.02612226e-01 6.53005161e-01 5.46765203e-01 4.66955556e-01 2.35138294e-01 4.47368103e-01 3.03654430e-01 2.15403472e-01 3.08900054e-01 3.92896792e-01 3.06951540e-01 9.66073750e-02 2.72370812e-01 2.29718462e-01 1.78002426e-01 3.73211545e-01 5.07669519e-01 4.60963343e-01 3.49460671e-01 4.31116581e-01 2.54477269e-01 2.88749212e-01 1.64244684e-01 2.81975805e-01 4.25774781e-01 3.65531785e-01 6.42719067e-01 3.16200446e-01 3.49640458e-01 3.33148038e-01 5.25934457e-01 1.97886968e-01 2.17016639e-01 7.41629970e-01 5.11550879e-01 2.22496084e-01 6.92438498e-01 4.88602798e-01 3.91064081e-01 3.57944332e-01 1.25245752e-01 1.02771697e+00 4.63209093e-01 2.49344149e-01 6.90962427e-02 4.26793001e-01 5.59641667e-01 5.73891679e-01 1.94044575e-01 5.67890517e-01 2.69597419e-01 7.15452708e-01 4.86302696e-01 1.25409999e-01 1.05957952e-01 2.45211307e-01 5.04436568e-01 3.07272349e-01 7.15491311e-01 1.13684730e-01 4.01779971e-01 2.63046046e-01 3.52780458e-01 2.45782538e-01 2.05495223e-01 8.31681047e-02 1.82862748e-01 4.75780897e-01 6.30040119e-01 5.96168580e-01 3.53519791e-01 1.97957450e-01 2.60471717e-01 3.13040626e-01 3.00915988e-01 2.02578493e-01 1.02380867e-01 2.88768041e-01 3.02504160e-01 3.15086022e-01 1.43015581e-01 2.44917535e-01 3.76088413e-01 8.01646545e-01 5.89869158e-01 3.46441093e-01 1.80589759e-01 2.95731120e-01 4.89936024e-01 8.40749892e-02 1.14571719e-01 6.96213546e-01 1.85550966e-01 9.12949567e-02 9.00391906e-02 1.37578468e-01 3.13840263e-01 5.74998840e-01 2.90490334e-01 1.31246553e-01 2.91571443e-01 2.15362588e-01 1.39304762e-01 4.80532634e-01 1.96047129e-01 3.98385009e-01 2.51487958e-01 1.66825908e-01 1.72508903e+00 1.35475819e-01 3.39470817e-01 3.29071478e-01 1.46477911e-01 4.21169472e-01 8.76605911e-02 2.57822861e-01 4.09343394e-01 2.37264332e-01 4.36697392e-01 2.71956354e-01 1.89085172e-01 7.18630269e-01 6.63639649e-02 3.60348525e-01 4.04996480e-01 1.70250786e-01 9.49032265e-02 5.20453460e-01 3.11922940e-01 5.00486436e-01 7.12762308e-02 9.18469286e-02 2.53029879e-01 5.70320884e-01 2.45568326e-01 3.07495595e-01 2.36678918e-01 5.41297185e-01 4.59006875e-01 3.00428145e-01 1.50398065e-01 2.98112967e-01 2.65759818e-01 1.67111937e-01 6.66880568e-02 1.62264468e-01 1.38279534e-01 3.24280617e-01 4.22155521e-01 1.45990254e-01 7.17779946e-01 1.09152648e-01 6.49114477e-01 4.70419405e-01 5.52665055e-01 7.27970588e-01 2.88500744e-01 2.86266317e-01 5.49567098e-01 3.13836944e-01 4.05785626e-01 4.80227620e-01 1.57213738e-01 2.85545447e-01 3.15070351e-01 4.05343825e-01 3.17778370e-01 3.11563301e-01 1.00081230e-01 3.19272524e-01 1.57394028e-01 8.76872725e-02 4.09842811e-01 2.37349564e-01 3.19000390e-01 8.02798361e-02 1.47018124e-01 3.66909798e-01 3.78980957e-01 7.78476794e-02 1.40983959e-01 8.53430361e-02 1.04430610e-01 3.22094554e-01 2.47857811e-01 7.68229006e-02 3.32945877e-01 2.94088428e-01 2.56724792e-01 2.68980964e-01 4.05914106e-01 3.82279992e-01 2.01007451e+00 2.38069095e-01 2.91375759e-01 2.92344127e-01 1.01365994e-01 2.67882260e-01 4.40703454e-01 9.26473914e-02 3.25449234e-01 4.34757001e-01 8.04134863e-02 8.75928871e-02 2.55074849e-01 4.03224630e-01 1.10633206e-01 9.66232729e-02 2.24143903e-01 1.69263885e-01 3.24356336e-01 1.80749803e-01 3.74710620e-01 4.27008658e-02 1.88636990e-01 8.10352119e-02 5.23371250e-01 1.80006496e-01 1.51703454e-01 6.02797754e-01 2.62522018e-01 6.04050965e-01 1.12993031e+00 1.47507286e-01 2.93017196e-01 1.99080780e-01 3.19286580e-01 1.99755696e-01 4.70677713e-01 6.86926130e-01 1.17906177e-01 5.27290788e-01 6.16338559e-01 6.75651217e-01 5.09026692e-01 4.71127641e-01 1.61961346e-01 9.04134275e-02 9.89612278e-02 6.06749609e-01 5.81532776e-02 4.16510166e-01 1.20219895e-01 4.44150191e-01 9.62333429e-02 3.24620249e-01 4.50385180e-02 4.49221167e-01 3.86737097e-01 2.95634736e-01 9.75721933e-02 3.01329596e-01 1.49217093e-01 8.47505967e-02 3.05058741e-01 9.70333131e-02 3.12354427e-01 9.78548339e-02 4.60259852e-01 1.34671344e-01 1.85042453e-01 3.42338238e-01 5.34774321e-01 3.25036863e-01 3.56214231e-01 8.97428828e-02 2.11388845e-01 2.06911129e-01 9.94393846e-02 1.42560979e-01 4.83807032e-01 1.91515971e-01 7.89450308e-02 2.39916744e-01 4.75668098e-01 8.38549075e-02 2.28775851e-01 1.07814000e-01 8.09366135e-02 1.74581949e-01 7.99059791e-02 3.24608396e-01 9.16159871e-01 3.56774064e-01 9.72498192e-02 4.57509580e-01 2.49356143e-01 2.87679513e-01 1.23950886e-01 1.45141175e-01 4.38121317e-01 2.82604297e-01 8.51799901e-02 2.50615396e-01 1.05452311e-01 2.03365412e-01 3.95321402e-01 8.73005889e-02 5.72045154e-01 1.49676301e-01 8.62306034e-02 2.64612600e-01 1.09536808e-01 3.74742540e-01 1.94448247e-01 6.55597012e-01 2.33368181e-01 3.26773621e-01 2.60560033e-01 4.28158942e-01 2.84997064e-01 2.52444602e-01 7.29786988e-02 1.21254542e-01 2.44494874e-01 3.31751807e-01 1.71832628e-01 3.93388192e-01 2.62740616e-01 2.20591842e-01 4.74303963e-01 4.45878152e-02 4.55786598e-01 8.99391501e-02 1.46960907e-01 4.22124383e-01 2.31627249e-01 9.83610280e-02 2.42736718e-01 2.45485321e-01 3.27987408e-01 2.41391921e-01 2.73418508e-01 2.77689999e-01 1.74728502e-01 4.35072001e-01 2.48766366e-01 2.86521617e-01 1.86019825e-01 8.77140229e-02 9.56536430e-02 1.54491752e-01 2.17810440e-01 6.83846214e-01 1.17643207e-01 1.72948147e-01 9.26079478e-02 8.38304950e-02 1.18286181e-01 2.74563583e-01 3.34370248e-01 5.68926899e-01 7.40752962e-02 1.27049958e-01 5.19210487e-01 3.96232501e-01 8.62367615e-02 2.87926785e-01 3.07033413e-01 2.91707952e-01 1.06808597e-01 1.83542990e-01 2.77489056e-01 3.00264103e-01 2.20684798e-01 7.44522156e-02 3.18263259e-01 9.06217761e-02 1.32075593e-01 2.95620942e-01 2.47120062e-01 1.69102863e-01 1.74805002e-01 2.19882946e-01 1.32342865e-01 1.20071692e-01 2.89550450e-01 2.66313418e-01 1.36885373e-01 5.47758820e-01 3.32338738e-01 4.31346640e-01 1.27386932e-01 1.05251501e-01 4.03707096e-01 1.07473660e-01 2.39505951e-01 8.73050037e-02 5.82139006e-01 1.26726261e-01 3.46385248e-01 1.40581301e-01 1.73151103e-01 1.03901557e-01 2.24868686e-01 1.96390411e-01 5.66594498e-01 9.52843524e-02 9.09388870e-02 3.30439360e-01 2.54113661e-01 5.77373893e-01 4.63686344e-01 2.75671310e-01 2.10898831e-01 7.89446851e-02 3.66086794e-01 3.02507467e-01 7.00505957e-02 3.07199947e-01 1.20284483e-01 1.62278254e-01 2.40331445e-01 4.35432489e-01 9.66739136e-02 2.62466679e-01 3.83514765e-01 3.23826231e-01 7.40014234e-02 2.40027219e-01 9.22538950e-02 1.15188089e-01 2.37133272e-01 7.81513696e-02 1.42431876e-01 2.81922078e-01 2.38792617e-01 9.48602007e-02 2.90391568e-01 1.15716402e-01 3.42292737e-01 7.74107960e-02 1.20425600e-01 6.07557899e-01 7.18040826e-02 5.44490287e-01 4.06288456e-01 6.20237481e-02 4.62232697e-01 2.00878481e-01 8.44158848e-02 2.87656043e-01 1.06475561e-01 2.98480093e-01 9.80238475e-02 1.25484634e-01 6.23855850e-01 5.10835651e-01 1.22571472e-01 4.07876906e-01 2.47220062e-01 1.24118418e-01 6.47142233e-01 2.36423531e-01 2.96645764e-01 8.84945415e-02 2.35152456e-01 8.56105646e-02 6.34492159e-01 3.59978131e-01 1.09389019e-01 1.92101562e-01 2.75566493e-01 7.99156117e-01 1.25440308e-01 2.47182040e-01 3.13015581e-01 1.19032747e-01 1.53860535e-01 4.43701109e-01 8.23976855e-02 3.34968772e-01 2.33441877e-01 1.83011677e-01 2.58632427e-01 4.53578775e-01 9.04611843e-02 2.90014819e-01 2.63479637e-01 1.80030763e-01 1.66497037e-01 8.91149785e-02 8.35470748e-02 3.10657753e-01 1.33021838e-01 1.24126383e-01 1.03670059e-01 6.25597484e-01 2.80471559e-01 2.39444775e-01 1.43487083e-01 2.52378573e-01 3.93974370e-01 1.41951710e-01 3.18730035e-01 9.61405668e-02 1.28098627e-01 6.88922209e-01 1.12111480e-01 1.06942567e-01 7.85866983e-02 9.30264679e-02 1.43061121e-01 1.29038607e-01 6.91037363e-02 2.15023919e-01 7.15790683e-01 1.28854317e-01 2.56489162e-01 3.52856915e-02 3.11136815e-01 7.81680224e-02 1.02001837e-01 1.20626279e-01 1.11696958e-01 3.59958459e-01 9.55380681e-02 3.31984208e-01 2.05400623e-01 3.56036917e-01 6.91811974e-02 5.96293861e-01 8.03300177e-02 1.17948473e-01 2.48098245e-01 2.78361427e-01 1.07396255e-01 5.84641766e-02 4.70984115e-01 4.60438708e-01 3.28996098e-01 3.40646136e-01 1.20453472e-01 1.34879118e-01 1.94701829e-01 2.57928071e-01 1.41374883e-01 2.74891516e-01 2.41280690e-01 9.73226908e-02 1.94563118e-01 7.98082888e-02 6.05544353e-02 9.57367237e-02 1.42982140e-01 9.26081302e-02 8.89166354e-02 1.36805163e-01 1.11554283e-01 7.07334931e-02 9.35816206e-02 8.86691123e-02 3.23090427e-01 1.57929626e-01 1.37022133e-01 2.34707151e-01 1.19190472e-01 5.88521299e-01 1.13629502e-01 8.04841786e-02 5.97667668e-02 1.08794280e-01 1.28202771e-01 1.31018741e-01 1.13877171e-01 7.79562082e-02 3.05740282e-01 7.61598421e-02 1.19309997e-01 4.51244634e-01 2.34640490e-01 7.73498708e-02 1.11747196e-01 1.75280018e-01 1.62235404e-01 9.79026710e-02 2.57622464e-01 2.56227272e-01 6.26995834e-02 1.90974644e-01 7.70600941e-02 2.35167365e-01 5.43445172e-02 2.28082465e-01 8.97780520e-02 3.55458703e-01 7.94567822e-02 3.12785981e-01 7.40606409e-02 1.86277416e-01 4.99178455e-01 5.79162538e-02 2.42862830e-01 1.03881536e-01 6.85028797e-02 2.44071447e-01 2.01174584e-01 4.00130923e-01 1.08836823e-01 1.04643647e-01 8.54475916e-02 2.09698593e-01 7.60095660e-02 2.52835750e-01 5.12388713e-02 1.31406095e-01 1.07666149e-01 6.11555203e-02 2.27229769e-01 1.16167597e-01 3.55282192e-01 1.52000695e-01 2.38722612e-01 2.12435630e-01 9.65531437e-02 5.44945725e-02 5.48262148e-01 7.60811950e-02 3.65819791e-01 1.17598437e-01 1.30380605e-01 5.22185257e-02 7.54839035e-02 3.71136329e-01 1.10138725e-01 1.11194766e-01 7.87092814e-02 8.98578394e-02 1.05652283e-01 1.02338866e-01 8.88726713e-02 1.55790944e-01 4.77814774e-01 1.63917098e-01 5.71311622e-02 1.94374478e-01 7.64449113e-02 1.92394930e-01 6.38332757e-02 9.73623956e-02 1.55437809e-01 8.45823057e-02 2.94194120e-02 2.73766189e-01 4.82184064e-02 1.84264782e-01 5.17058548e-02 5.72732762e-02 2.59687906e-01 1.01459628e-01 5.44450212e-02 2.42023016e-01 8.32604281e-02 6.71827582e-02 2.70456196e-01 9.88499366e-02 6.74687310e-02 9.63319313e-02 6.45182831e-02 1.08858199e-01 8.14175050e-02 2.36155765e-01 5.56500001e-02 9.74033881e-02 5.03699014e-02 6.97501992e-01 8.02925660e-02 1.03511276e-01 8.62160680e-02 2.37942133e-01 4.10845064e-02 4.52879663e-02 1.03855801e-01 4.22186568e-02 6.59861745e-02 4.78716615e-02 2.02802006e-01 4.22017121e-02 7.69271563e-02 1.20221986e-01 5.04483517e-02 1.49727268e-01 4.36169514e-02 3.61275491e-02 4.58508611e-02 3.20547145e-02 6.76929072e-02 8.95487926e-01 9.78827033e-02 1.25684707e-01 1.48699272e-01 6.36793132e-02 5.52163501e-02 6.81495074e-02 5.38857234e-02 3.08968727e-01 4.98874151e-02 6.90418586e-02 1.65212646e-02 5.86137324e-02 5.41163555e-02 3.34460283e-02 5.51439510e-02 1.28544482e-01 3.62497946e-02 2.96145694e-02 2.17879282e-01 3.11984449e-01 8.60084875e-02 5.49899001e-02 2.33882621e-02 3.81318692e-02 2.78455324e-02 3.40481006e-02 3.39410331e-02 2.15048730e-02 1.34139424e-02 1.90704383e-02 2.96108794e-02 1.84773550e-02 2.47615506e-02 3.17158977e-02 2.37388670e-02 8.70398789e-03 2.94817012e-02 1.23669108e-02 4.25333082e-02 1.66364979e-02 3.67423626e-02 1.61680782e-02 9.71314859e-03 1.15869271e-02 1.82087353e-01 9.69990178e-03 1.27199696e-02 5.71856447e-03 3.45048345e-03 1.48743659e-02 3.15485713e-02 1.04708280e-02 1.43418243e-03 4.31787129e-02 7.29713972e-03 1.02657033e-02 0.00000000e+00 1.50235483e-02 5.65328656e-03 2.04614998e-03 6.54171956e-03 2.90857780e-03 1.32590628e-04 2.77306858e-03 2.20752902e-04 1.90622719e-03 9.25969098e-04 0.00000000e+00 0.00000000e+00 0.00000000e+00 0.00000000e+00 
      </Histogram>
    </PDF>
  </MVAPdfs>
  <Weights NTrees="200" AnalysisType="1">
    <BinaryTree type="DecisionTree" boostWeight="1.0000000000000000e+00" itree="0">
      <Node pos="s" depth="0" NCoef="0" IVar="11" Cut="3.1076101684570312e+02" cType="1" res="1.7937116445169846e-16" rms="5.0000000000000000e-01" purity="5.0000000000000000e-01" nType="0">
        <Node pos="l" depth="1" NCoef="0" IVar="8" Cut="8.5188442468643188e-01" cType="1" res="-2.3567555844783783e-01" rms="4.4097283482551575e-01" purity="2.6432445645332336e-01" nType="0">
          <Node pos="l" depth="2" NCoef="0" IVar="11" Cut="1.5338520812988281e+02" cType="1" res="-3.8516974449157715e-01" rms="3.1881698966026306e-01" purity="1.1483026295900345e-01" nType="0">
            <Node pos="l" depth="3" NCoef="0" IVar="8" Cut="6.5121269226074219e-01" cType="1" res="-4.4033068418502808e-01" rms="2.3687313497066498e-01" purity="5.9669312089681625e-02" nType="0">
              <Node pos="l" depth="4" NCoef="0" IVar="-1" Cut="0.0000000000000000e+00" cType="1" res="-9.2524215579032898e-02" rms="1.8968851864337921e-01" purity="3.7378914654254913e-02" nType="-99"/>
              <Node pos="r" depth="4" NCoef="0" IVar="-1" Cut="0.0000000000000000e+00" cType="1" res="-8.1487976014614105e-02" rms="2.8981500864028931e-01" purity="9.2560112476348877e-02" nType="-99"/>
            </Node>
            <Node pos="r" depth="3" NCoef="0" IVar="-1" Cut="0.0000000000000000e+00" cType="1" res="-6.4047843217849731e-02" rms="3.8398808240890503e-01" purity="1.7976078391075134e-01" nType="-99"/>
          </Node>
          <Node pos="r" depth="2" NCoef="0" IVar="11" Cut="1.8137205505371094e+02" cType="1" res="-7.3667213320732117e-02" rms="4.9454337358474731e-01" purity="4.2633280158042908e-01" nType="0">
            <Node pos="l" depth="3" NCoef="0" IVar="8" Cut="9.7466528415679932e-01" cType="1" res="-1.9971121847629547e-01" rms="4.5838350057601929e-01" purity="3.0028876662254333e-01" nType="0">
              <Node pos="l" depth="4" NCoef="0" IVar="-1" Cut="0.0000000000000000e+00" cType="1" res="-5.5380277335643768e-02" rms="4.1632393002510071e-01" purity="2.2309862077236176e-01" nType="-99"/>
              <Node pos="r" depth="4" NCoef="0" IVar="-1" Cut="0.0000000000000000e+00" cType="1" res="-2.7477752417325974e-02" rms="4.8075392842292786e-01" purity="3.6261123418807983e-01" nType="-99"/>
            </Node>
            <Node pos="r" depth="3" NCoef="0" IVar="8" Cut="9.8186802864074707e-01" cType="1" res="5.7675797492265701e-02" rms="4.9666234850883484e-01" purity="5.5767577886581421e-01" nType="0">
              <Node pos="l" depth="4" NCoef="0" IVar="-1" Cut="0.0000000000000000e+00" cType="1" res="-7.8449929133057594e-03" rms="4.9845904111862183e-01" purity="4.6077504754066467e-01" nType="-99"/>
              <Node pos="r" depth="4" NCoef="0" IVar="-1" Cut="0.0000000000000000e+00" cType="1" res="3.0009947717189789e-02" rms="4.7695395350456238e-01" purity="6.5004974603652954e-01" nType="-99"/>
            </Node>
          </Node>
        </Node>
        <Node pos="r" depth="1" NCoef="0" IVar="8" Cut="8.7659722566604614e-01" cType="1" res="2.0054455101490021e-01" rms="4.5801952481269836e-01" purity="7.0054459571838379e-01" nType="0">
          <Node pos="l" depth="2" NCoef="0" IVar="8" Cut="6.9936782121658325e-01" cType="1" res="-3.8868288975208998e-03" rms="4.9998489022254944e-01" purity="4.9611315131187439e-01" nType="0">
            <Node pos="l" depth="3" NCoef="0" IVar="-1" Cut="0.0000000000000000e+00" cType="1" res="-2.2298840805888176e-02" rms="4.8741054534912109e-01" purity="3.8850581645965576e-01" nType="-99"/>
            <Node pos="r" depth="3" NCoef="0" IVar="-1" Cut="0.0000000000000000e+00" cType="1" res="2.1899839863181114e-02" rms="4.8786261677742004e-01" purity="6.0949915647506714e-01" nType="-99"/>
          </Node>
          <Node pos="r" depth="2" NCoef="0" IVar="11" Cut="4.5091574096679688e+02" cType="1" res="3.1131723523139954e-01" rms="3.9125642180442810e-01" purity="8.1131726503372192e-01" nType="0">
            <Node pos="l" depth="3" NCoef="0" IVar="-1" Cut="0.0000000000000000e+00" cType="1" res="3.7585973739624023e-02" rms="4.6333828568458557e-01" purity="6.8792986869812012e-01" nType="-99"/>
            <Node pos="r" depth="3" NCoef="0" IVar="11" Cut="8.6114147949218750e+02" cType="1" res="3.5091024637222290e-01" rms="3.5617694258689880e-01" purity="8.5091024637222290e-01" nType="0">
              <Node pos="l" depth="4" NCoef="0" IVar="-1" Cut="0.0000000000000000e+00" cType="1" res="6.1409473419189453e-02" rms="3.9461615681648254e-01" purity="8.0704736709594727e-01" nType="-99"/>
              <Node pos="r" depth="4" NCoef="0" IVar="-1" Cut="0.0000000000000000e+00" cType="1" res="8.1251047551631927e-02" rms="2.9147332906723022e-01" purity="9.0625524520874023e-01" nType="-99"/>
            </Node>
          </Node>
        </Node>
      </Node>
    </BinaryTree>
    <BinaryTree type="DecisionTree" boostWeight="1.0000000000000000e+00" itree="1">
      <Node pos="s" depth="0" NCoef="0" IVar="11" Cut="3.1076101684570312e+02" cType="1" res="-4.1369189602846745e-06" rms="4.8431119322776794e-01" purity="5.0000000000000000e-01" nType="0">
        <Node pos="l" depth="1" NCoef="0" IVar="8" Cut="8.7655872106552124e-01" cType="1" res="-2.1215373277664185e-01" rms="4.3283191323280334e-01" purity="2.6432445645332336e-01" nType="0">
          <Node pos="l" depth="2" NCoef="0" IVar="11" Cut="1.6053656005859375e+02" cType="1" res="-3.3945190906524658e-01" rms="3.2685342431068420e-01" purity="1.2312846630811691e-01" nType="0">
            <Node pos="l" depth="3" NCoef="0" IVar="8" Cut="6.8072623014450073e-01" cType="1" res="-3.8935837149620056e-01" rms="2.5133466720581055e-01" purity="6.8138435482978821e-02" nType="0">
              <Node pos="l" depth="4" NCoef="0" IVar="-1" Cut="0.0000000000000000e+00" cType="1" res="-8.2788348197937012e-02" rms="2.0610813796520233e-01" purity="4.4589016586542130e-02" nType="-99"/>
              <Node pos="r" depth="4" NCoef="0" IVar="-1" Cut="0.0000000000000000e+00" cType="1" res="-7.0821672677993774e-02" rms="3.1206437945365906e-01" purity="1.0957828909158707e-01" nType="-99"/>
            </Node>
            <Node pos="r" depth="3" NCoef="0" IVar="-1" Cut="0.0000000000000000e+00" cType="1" res="-5.4831542074680328e-02" rms="3.9645838737487793e-01" purity="1.9625122845172882e-01" nType="-99"/>
          </Node>
          <Node pos="r" depth="2" NCoef="0" IVar="11" Cut="1.4544123840332031e+02" cType="1" res="-5.7853218168020248e-02" rms="4.9140688776969910e-01" purity="4.3547078967094421e-01" nType="0">
            <Node pos="l" depth="3" NCoef="0" IVar="-1" Cut="0.0000000000000000e+00" cType="1" res="-4.2510714381933212e-02" rms="4.4213807582855225e-01" purity="2.6837638020515442e-01" nType="-99"/>
            <Node pos="r" depth="3" NCoef="0" IVar="7" Cut="1.4082866907119751e+00" cType="1" res="2.9276782646775246e-02" rms="4.9639406800270081e-01" purity="5.2980136871337891e-01" nType="0">
              <Node pos="l" depth="4" NCoef="0" IVar="-1" Cut="0.0000000000000000e+00" cType="1" res="-8.4349932149052620e-03" rms="4.9505567550659180e-01" purity="4.5753064751625061e-01" nType="-99"/>
              <Node pos="r" depth="4" NCoef="0" IVar="-1" Cut="0.0000000000000000e+00" cType="1" res="2.7343951165676117e-02" rms="4.7876095771789551e-01" purity="6.3842934370040894e-01" nType="-99"/>
            </Node>
          </Node>
        </Node>
        <Node pos="r" depth="1" NCoef="0" IVar="8" Cut="8.1491488218307495e-01" cType="1" res="1.8052136898040771e-01" rms="4.5149239897727966e-01" purity="7.0054459571838379e-01" nType="0">
          <Node pos="l" depth="2" NCoef="0" IVar="8" Cut="6.7405056953430176e-01" cType="1" res="-3.7960577756166458e-02" rms="4.9637863039970398e-01" purity="4.5865869522094727e-01" nType="0">
            <Node pos="l" depth="3" NCoef="0" IVar="-1" Cut="0.0000000000000000e+00" cType="1" res="-2.2584551945328712e-02" rms="4.8437637090682983e-01" purity="3.7598583102226257e-01" nType="-99"/>
            <Node pos="r" depth="3" NCoef="0" IVar="-1" Cut="0.0000000000000000e+00" cType="1" res="1.2725138105452061e-02" rms="4.9439889192581177e-01" purity="5.7074427604675293e-01" nType="-99"/>
          </Node>
          <Node pos="r" depth="2" NCoef="0" IVar="11" Cut="7.3121197509765625e+02" cType="1" res="2.6466506719589233e-01" rms="4.0248665213584900e-01" purity="7.9370176792144775e-01" nType="0">
            <Node pos="l" depth="3" NCoef="0" IVar="8" Cut="9.3228012323379517e-01" cType="1" res="2.0450606942176819e-01" rms="4.4351840019226074e-01" purity="7.2845935821533203e-01" nType="0">
              <Node pos="l" depth="4" NCoef="0" IVar="-1" Cut="0.0000000000000000e+00" cType="1" res="1.5095557086169720e-02" rms="4.9011138081550598e-01" purity="5.9427231550216675e-01" nType="-99"/>
              <Node pos="r" depth="4" NCoef="0" IVar="-1" Cut="0.0000000000000000e+00" cType="1" res="4.9670405685901642e-02" rms="4.1801381111145020e-01" purity="7.7329885959625244e-01" nType="-99"/>
            </Node>
            <Node pos="r" depth="3" NCoef="0" IVar="10" Cut="1.9609589874744415e-01" cType="1" res="3.4652692079544067e-01" rms="3.2114371657371521e-01" purity="8.8248097896575928e-01" nType="0">
              <Node pos="l" depth="4" NCoef="0" IVar="-1" Cut="0.0000000000000000e+00" cType="1" res="6.1483390629291534e-02" rms="3.6412709951400757e-01" purity="8.4172278642654419e-01" nType="-99"/>
              <Node pos="r" depth="4" NCoef="0" IVar="-1" Cut="0.0000000000000000e+00" cType="1" res="7.4941292405128479e-02" rms="2.8725856542587280e-01" purity="9.0858852863311768e-01" nType="-99"/>
            </Node>
          </Node>
        </Node>
      </Node>
    </BinaryTree>
    <BinaryTree type="DecisionTree" boostWeight="1.0000000000000000e+00" itree="2">
      <Node pos="s" depth="0" NCoef="0" IVar="11" Cut="3.1076101684570312e+02" cType="1" res="-1.7124524674727581e-05" rms="4.7116431593894958e-01" purity="5.0000000000000000e-01" nType="0">
        <Node pos="l" depth="1" NCoef="0" IVar="8" Cut="8.5188442468643188e-01" cType="1" res="-1.9108039140701294e-01" rms="4.2624500393867493e-01" purity="2.6432445645332336e-01" nType="0">
          <Node pos="l" depth="2" NCoef="0" IVar="11" Cut="1.5338520812988281e+02" cType="1" res="-3.1292325258255005e-01" rms="3.1660252809524536e-01" purity="1.1483026295900345e-01" nType="0">
            <Node pos="l" depth="3" NCoef="0" IVar="11" Cut="1.0033885192871094e+02" cType="1" res="-3.5763597488403320e-01" rms="2.3631176352500916e-01" purity="5.9669312089681625e-02" nType="0">
              <Node pos="l" depth="4" NCoef="0" IVar="-1" Cut="0.0000000000000000e+00" cType="1" res="-7.8281059861183167e-02" rms="1.8739461898803711e-01" purity="3.6618851125240326e-02" nType="-99"/>
              <Node pos="r" depth="4" NCoef="0" IVar="-1" Cut="0.0000000000000000e+00" cType="1" res="-6.8282157182693481e-02" rms="2.7865621447563171e-01" purity="8.5303552448749542e-02" nType="-99"/>
            </Node>
            <Node pos="r" depth="3" NCoef="0" IVar="-1" Cut="0.0000000000000000e+00" cType="1" res="-5.2819475531578064e-02" rms="3.8388836383819580e-01" purity="1.7976078391075134e-01" nType="-99"/>
          </Node>
          <Node pos="r" depth="2" NCoef="0" IVar="11" Cut="1.5262739562988281e+02" cType="1" res="-5.9038057923316956e-02" rms="4.8623743653297424e-01" purity="4.2633280158042908e-01" nType="0">
            <Node pos="l" depth="3" NCoef="0" IVar="-1" Cut="0.0000000000000000e+00" cType="1" res="-3.8484521210193634e-02" rms="4.4105434417724609e-01" purity="2.6805025339126587e-01" nType="-99"/>
            <Node pos="r" depth="3" NCoef="0" IVar="8" Cut="9.8186802864074707e-01" cType="1" res="2.7572246268391609e-02" rms="4.9495685100555420e-01" purity="5.3018414974212646e-01" nType="0">
              <Node pos="l" depth="4" NCoef="0" IVar="-1" Cut="0.0000000000000000e+00" cType="1" res="-9.6771074458956718e-03" rms="4.9496993422508240e-01" purity="4.4356951117515564e-01" nType="-99"/>
              <Node pos="r" depth="4" NCoef="0" IVar="-1" Cut="0.0000000000000000e+00" cType="1" res="1.9907895475625992e-02" rms="4.8410886526107788e-01" purity="6.1213994026184082e-01" nType="-99"/>
            </Node>
          </Node>
        </Node>
        <Node pos="r" depth="1" NCoef="0" IVar="8" Cut="8.7659722566604614e-01" cType="1" res="1.6256527602672577e-01" rms="4.4587135314941406e-01" purity="7.0054459571838379e-01" nType="0">
          <Node pos="l" depth="2" NCoef="0" IVar="11" Cut="5.5965661621093750e+02" cType="1" res="-4.1506728157401085e-03" rms="4.9480566382408142e-01" purity="4.9611315131187439e-01" nType="0">
            <Node pos="l" depth="3" NCoef="0" IVar="-1" Cut="0.0000000000000000e+00" cType="1" res="-2.2958105430006981e-02" rms="4.8110428452491760e-01" purity="3.8205793499946594e-01" nType="-99"/>
            <Node pos="r" depth="3" NCoef="0" IVar="-1" Cut="0.0000000000000000e+00" cType="1" res="1.7226060852408409e-02" rms="4.8751890659332275e-01" purity="5.8911055326461792e-01" nType="-99"/>
          </Node>
          <Node pos="r" depth="2" NCoef="0" IVar="11" Cut="4.5091574096679688e+02" cType="1" res="2.5290158390998840e-01" rms="3.8812068104743958e-01" purity="8.1131726503372192e-01" nType="0">
            <Node pos="l" depth="3" NCoef="0" IVar="-1" Cut="0.0000000000000000e+00" cType="1" res="2.9639726504683495e-02" rms="4.6259984374046326e-01" purity="6.8792986869812012e-01" nType="-99"/>
            <Node pos="r" depth="3" NCoef="0" IVar="10" Cut="-1.6759176552295685e-01" cType="1" res="2.8682234883308411e-01" rms="3.5435822606086731e-01" purity="8.5091024637222290e-01" nType="0">
              <Node pos="l" depth="4" NCoef="0" IVar="-1" Cut="0.0000000000000000e+00" cType="1" res="4.5015554875135422e-02" rms="4.1076138615608215e-01" purity="7.8236103057861328e-01" nType="-99"/>
              <Node pos="r" depth="4" NCoef="0" IVar="-1" Cut="0.0000000000000000e+00" cType="1" res="6.3502348959445953e-02" rms="3.2663470506668091e-01" purity="8.7730401754379272e-01" nType="-99"/>
            </Node>
          </Node>
        </Node>
      </Node>
    </BinaryTree>
    <BinaryTree type="DecisionTree" boostWeight="1.0000000000000000e+00" itree="3">
      <Node pos="s" depth="0" NCoef="0" IVar="11" Cut="3.1076101684570312e+02" cType="1" res="-3.5481258237268776e-05" rms="4.6024096012115479e-01" purity="5.0000000000000000e-01" nType="0">
        <Node pos="l" depth="1" NCoef="0" IVar="8" Cut="8.5188442468643188e-01" cType="1" res="-1.7216880619525909e-01" rms="4.2080265283584595e-01" purity="2.6432445645332336e-01" nType="0">
          <Node pos="l" depth="2" NCoef="0" IVar="11" Cut="1.8914195251464844e+02" cType="1" res="-2.8198492527008057e-01" rms="3.1583017110824585e-01" purity="1.1483026295900345e-01" nType="0">
            <Node pos="l" depth="3" NCoef="0" IVar="8" Cut="6.7736923694610596e-01" cType="1" res="-3.1266552209854126e-01" rms="2.6252269744873047e-01" purity="7.5545296072959900e-02" nType="0">
              <Node pos="l" depth="4" NCoef="0" IVar="-1" Cut="0.0000000000000000e+00" cType="1" res="-7.0294685661792755e-02" rms="2.2209215164184570e-01" purity="5.2693948149681091e-02" nType="-99"/>
              <Node pos="r" depth="4" NCoef="0" IVar="-1" Cut="0.0000000000000000e+00" cType="1" res="-5.7139821350574493e-02" rms="3.2485312223434448e-01" purity="1.2104637175798416e-01" nType="-99"/>
            </Node>
            <Node pos="r" depth="3" NCoef="0" IVar="-1" Cut="0.0000000000000000e+00" cType="1" res="-4.4733032584190369e-02" rms="3.9832952618598938e-01" purity="1.9778551161289215e-01" nType="-99"/>
          </Node>
          <Node pos="r" depth="2" NCoef="0" IVar="11" Cut="1.8137205505371094e+02" cType="1" res="-5.3159985691308975e-02" rms="4.8336508870124817e-01" purity="4.2633280158042908e-01" nType="0">
            <Node pos="l" depth="3" NCoef="0" IVar="12" Cut="2.6155610084533691e+00" cType="1" res="-1.4961247146129608e-01" rms="4.5413690805435181e-01" purity="3.0028876662254333e-01" nType="0">
              <Node pos="l" depth="4" NCoef="0" IVar="-1" Cut="0.0000000000000000e+00" cType="1" res="-4.2096748948097229e-02" rms="4.2450278997421265e-01" purity="2.4156555533409119e-01" nType="-99"/>
              <Node pos="r" depth="4" NCoef="0" IVar="-1" Cut="0.0000000000000000e+00" cType="1" res="-1.7873741686344147e-02" rms="4.7569352388381958e-01" purity="3.6203539371490479e-01" nType="-99"/>
            </Node>
            <Node pos="r" depth="3" NCoef="0" IVar="8" Cut="9.8186802864074707e-01" cType="1" res="4.7347452491521835e-02" rms="4.9234068393707275e-01" purity="5.5767577886581421e-01" nType="0">
              <Node pos="l" depth="4" NCoef="0" IVar="-1" Cut="0.0000000000000000e+00" cType="1" res="-6.1308643780648708e-03" rms="4.9749702215194702e-01" purity="4.6077504754066467e-01" nType="-99"/>
              <Node pos="r" depth="4" NCoef="0" IVar="-1" Cut="0.0000000000000000e+00" cType="1" res="2.4422090500593185e-02" rms="4.7561818361282349e-01" purity="6.5004974603652954e-01" nType="-99"/>
            </Node>
          </Node>
        </Node>
        <Node pos="r" depth="1" NCoef="0" IVar="8" Cut="7.4089610576629639e-01" cType="1" res="1.4643877744674683e-01" rms="4.4127231836318970e-01" purity="7.0054459571838379e-01" nType="0">
          <Node pos="l" depth="2" NCoef="0" IVar="-1" Cut="0.0000000000000000e+00" cType="1" res="-1.3906269334256649e-02" rms="4.8841264843940735e-01" purity="4.1496387124061584e-01" nType="-99"/>
          <Node pos="r" depth="2" NCoef="0" IVar="11" Cut="8.7136010742187500e+02" cType="1" res="2.0483231544494629e-01" rms="4.0847429633140564e-01" purity="7.7781516313552856e-01" nType="0">
            <Node pos="l" depth="3" NCoef="0" IVar="8" Cut="9.4943386316299438e-01" cType="1" res="1.6058100759983063e-01" rms="4.4152602553367615e-01" purity="7.2376793622970581e-01" nType="0">
              <Node pos="l" depth="4" NCoef="0" IVar="-1" Cut="0.0000000000000000e+00" cType="1" res="1.3211044482886791e-02" rms="4.8492270708084106e-01" purity="6.0645824670791626e-01" nType="-99"/>
              <Node pos="r" depth="4" NCoef="0" IVar="-1" Cut="0.0000000000000000e+00" cType="1" res="4.4278498739004135e-02" rms="4.0390768647193909e-01" purity="7.9216122627258301e-01" nType="-99"/>
            </Node>
            <Node pos="r" depth="3" NCoef="0" IVar="-1" Cut="0.0000000000000000e+00" cType="1" res="6.1961531639099121e-02" rms="3.0776640772819519e-01" purity="8.9185917377471924e-01" nType="-99"/>
          </Node>
        </Node>
      </Node>
    </BinaryTree>
    <BinaryTree type="DecisionTree" boostWeight="1.0000000000000000e+00" itree="4">
      <Node pos="s" depth="0" NCoef="0" IVar="11" Cut="3.1076101684570312e+02" cType="1" res="-5.2261872042436153e-05" rms="4.5095744729042053e-01" purity="5.0000000000000000e-01" nType="0">
        <Node pos="l" depth="1" NCoef="0" IVar="8" Cut="8.7655872106552124e-01" cType="1" res="-1.5517209470272064e-01" rms="4.1604533791542053e-01" purity="2.6432445645332336e-01" nType="0">
          <Node pos="l" depth="2" NCoef="0" IVar="8" Cut="7.2730755805969238e-01" cType="1" res="-2.4887561798095703e-01" rms="3.2353392243385315e-01" purity="1.2312846630811691e-01" nType="0">
            <Node pos="l" depth="3" NCoef="0" IVar="7" Cut="1.1656845808029175e+00" cType="1" res="-2.7807992696762085e-01" rms="2.8032398223876953e-01" purity="8.8229224085807800e-02" nType="0">
              <Node pos="l" depth="4" NCoef="0" IVar="-1" Cut="0.0000000000000000e+00" cType="1" res="-6.6488415002822876e-02" rms="2.3118291795253754e-01" purity="5.7757489383220673e-02" nType="-99"/>
              <Node pos="r" depth="4" NCoef="0" IVar="-1" Cut="0.0000000000000000e+00" cType="1" res="-5.1446344703435898e-02" rms="3.3043444156646729e-01" purity="1.2864153087139130e-01" nType="-99"/>
            </Node>
            <Node pos="r" depth="3" NCoef="0" IVar="-1" Cut="0.0000000000000000e+00" cType="1" res="-3.7643026560544968e-02" rms="4.0123090147972107e-01" purity="2.0795941352844238e-01" nType="-99"/>
          </Node>
          <Node pos="r" depth="2" NCoef="0" IVar="11" Cut="1.8137205505371094e+02" cType="1" res="-4.1592266410589218e-02" rms="4.8216500878334045e-01" purity="4.3547078967094421e-01" nType="0">
            <Node pos="l" depth="3" NCoef="0" IVar="7" Cut="8.9985889196395874e-01" cType="1" res="-1.2841860949993134e-01" rms="4.5723050832748413e-01" purity="3.0868718028068542e-01" nType="0">
              <Node pos="l" depth="4" NCoef="0" IVar="-1" Cut="0.0000000000000000e+00" cType="1" res="-3.8269028067588806e-02" rms="4.2865020036697388e-01" purity="2.4697284400463104e-01" nType="-99"/>
              <Node pos="r" depth="4" NCoef="0" IVar="-1" Cut="0.0000000000000000e+00" cType="1" res="-1.4438851736485958e-02" rms="4.7627815604209900e-01" purity="3.6840200424194336e-01" nType="-99"/>
            </Node>
            <Node pos="r" depth="3" NCoef="0" IVar="10" Cut="3.0258622765541077e-01" cType="1" res="4.6629734337329865e-02" rms="4.9075436592102051e-01" purity="5.6429231166839600e-01" nType="0">
              <Node pos="l" depth="4" NCoef="0" IVar="-1" Cut="0.0000000000000000e+00" cType="1" res="-4.3220054358243942e-03" rms="4.9324148893356323e-01" purity="4.9443590641021729e-01" nType="-99"/>
              <Node pos="r" depth="4" NCoef="0" IVar="-1" Cut="0.0000000000000000e+00" cType="1" res="2.3591239005327225e-02" rms="4.7796356678009033e-01" purity="6.3690096139907837e-01" nType="-99"/>
            </Node>
          </Node>
        </Node>
        <Node pos="r" depth="1" NCoef="0" IVar="8" Cut="8.1491488218307495e-01" cType="1" res="1.3194461166858673e-01" rms="4.3728822469711304e-01" purity="7.0054459571838379e-01" nType="0">
          <Node pos="l" depth="2" NCoef="0" IVar="10" Cut="6.3104778528213501e-02" cType="1" res="-3.1237000599503517e-02" rms="4.9098098278045654e-01" purity="4.5865869522094727e-01" nType="0">
            <Node pos="l" depth="3" NCoef="0" IVar="-1" Cut="0.0000000000000000e+00" cType="1" res="-2.4606050923466682e-02" rms="4.7455713152885437e-01" purity="3.6480972170829773e-01" nType="-99"/>
            <Node pos="r" depth="3" NCoef="0" IVar="-1" Cut="0.0000000000000000e+00" cType="1" res="6.5626124851405621e-03" rms="4.9217477440834045e-01" purity="5.2434438467025757e-01" nType="-99"/>
          </Node>
          <Node pos="r" depth="2" NCoef="0" IVar="11" Cut="7.3121197509765625e+02" cType="1" res="1.9479055702686310e-01" rms="3.9726659655570984e-01" purity="7.9370176792144775e-01" nType="0">
            <Node pos="l" depth="3" NCoef="0" IVar="8" Cut="9.4581645727157593e-01" cType="1" res="1.4762738347053528e-01" rms="4.3998521566390991e-01" purity="7.2845935821533203e-01" nType="0">
              <Node pos="l" depth="4" NCoef="0" IVar="-1" Cut="0.0000000000000000e+00" cType="1" res="1.2342323549091816e-02" rms="4.8558047413825989e-01" purity="6.1066561937332153e-01" nType="-99"/>
              <Node pos="r" depth="4" NCoef="0" IVar="-1" Cut="0.0000000000000000e+00" cType="1" res="3.8278058171272278e-02" rms="4.1362771391868591e-01" purity="7.7854859828948975e-01" nType="-99"/>
            </Node>
            <Node pos="r" depth="3" NCoef="0" IVar="5" Cut="2.0377917480468750e+02" cType="1" res="2.5896823406219482e-01" rms="3.1938368082046509e-01" purity="8.8248097896575928e-01" nType="0">
              <Node pos="l" depth="4" NCoef="0" IVar="-1" Cut="0.0000000000000000e+00" cType="1" res="4.7893967479467392e-02" rms="3.5751983523368835e-01" purity="8.4793078899383545e-01" nType="-99"/>
              <Node pos="r" depth="4" NCoef="0" IVar="-1" Cut="0.0000000000000000e+00" cType="1" res="6.0615077614784241e-02" rms="2.8565481305122375e-01" purity="9.0778917074203491e-01" nType="-99"/>
            </Node>
          </Node>
        </Node>
      </Node>
    </BinaryTree>
    <BinaryTree type="DecisionTree" boostWeight="1.0000000000000000e+00" itree="5">
      <Node pos="s" depth="0" NCoef="0" IVar="11" Cut="3.1076101684570312e+02" cType="1" res="-6.4731480961199850e-05" rms="4.4321775436401367e-01" purity="5.0000000000000000e-01" nType="0">
        <Node pos="l" depth="1" NCoef="0" IVar="8" Cut="8.5188442468643188e-01" cType="1" res="-1.3987742364406586e-01" rms="4.1210812330245972e-01" purity="2.6432445645332336e-01" nType="0">
          <Node pos="l" depth="2" NCoef="0" IVar="11" Cut="1.5338520812988281e+02" cType="1" res="-2.2934979200363159e-01" rms="3.1439185142517090e-01" purity="1.1483026295900345e-01" nType="0">
            <Node pos="l" depth="3" NCoef="0" IVar="11" Cut="1.0696519470214844e+02" cType="1" res="-2.6721560955047607e-01" rms="2.3534972965717316e-01" purity="5.9669312089681625e-02" nType="0">
              <Node pos="l" depth="4" NCoef="0" IVar="-1" Cut="0.0000000000000000e+00" cType="1" res="-6.5239161252975464e-02" rms="1.9303242862224579e-01" purity="3.9070867002010345e-02" nType="-99"/>
              <Node pos="r" depth="4" NCoef="0" IVar="-1" Cut="0.0000000000000000e+00" cType="1" res="-5.4587844759225845e-02" rms="2.8164482116699219e-01" purity="8.8216952979564667e-02" nType="-99"/>
            </Node>
            <Node pos="r" depth="3" NCoef="0" IVar="-1" Cut="0.0000000000000000e+00" cType="1" res="-3.9897091686725616e-02" rms="3.8251331448554993e-01" purity="1.7976078391075134e-01" nType="-99"/>
          </Node>
          <Node pos="r" depth="2" NCoef="0" IVar="11" Cut="1.4544123840332031e+02" cType="1" res="-4.2915329337120056e-02" rms="4.7821494936943054e-01" purity="4.2633280158042908e-01" nType="0">
            <Node pos="l" depth="3" NCoef="0" IVar="-1" Cut="0.0000000000000000e+00" cType="1" res="-3.1286925077438354e-02" rms="4.3576294183731079e-01" purity="2.5917932391166687e-01" nType="-99"/>
            <Node pos="r" depth="3" NCoef="0" IVar="7" Cut="1.4082866907119751e+00" cType="1" res="2.0754830911755562e-02" rms="4.9042955040931702e-01" purity="5.2450448274612427e-01" nType="0">
              <Node pos="l" depth="4" NCoef="0" IVar="-1" Cut="0.0000000000000000e+00" cType="1" res="-8.0966763198375702e-03" rms="4.8954313993453979e-01" purity="4.5444253087043762e-01" nType="-99"/>
              <Node pos="r" depth="4" NCoef="0" IVar="-1" Cut="0.0000000000000000e+00" cType="1" res="2.2120701149106026e-02" rms="4.7794306278228760e-01" purity="6.2682682275772095e-01" nType="-99"/>
            </Node>
          </Node>
        </Node>
        <Node pos="r" depth="1" NCoef="0" IVar="8" Cut="7.0388674736022949e-01" cType="1" res="1.1890676617622375e-01" rms="4.3393141031265259e-01" purity="7.0054459571838379e-01" nType="0">
          <Node pos="l" depth="2" NCoef="0" IVar="-1" Cut="0.0000000000000000e+00" cType="1" res="-1.5505667775869370e-02" rms="4.8402798175811768e-01" purity="3.9162594079971313e-01" nType="-99"/>
          <Node pos="r" depth="2" NCoef="0" IVar="11" Cut="8.7136010742187500e+02" cType="1" res="1.6281391680240631e-01" rms="4.0922078490257263e-01" purity="7.6972514390945435e-01" nType="0">
            <Node pos="l" depth="3" NCoef="0" IVar="8" Cut="9.4942373037338257e-01" cType="1" res="1.2312383204698563e-01" rms="4.4279482960700989e-01" purity="7.1347969770431519e-01" nType="0">
              <Node pos="l" depth="4" NCoef="0" IVar="-1" Cut="0.0000000000000000e+00" cType="1" res="8.6291348561644554e-03" rms="4.8632669448852539e-01" purity="5.9165167808532715e-01" nType="-99"/>
              <Node pos="r" depth="4" NCoef="0" IVar="-1" Cut="0.0000000000000000e+00" cType="1" res="3.7106938660144806e-02" rms="4.0377551317214966e-01" purity="7.9216122627258301e-01" nType="-99"/>
            </Node>
            <Node pos="r" depth="3" NCoef="0" IVar="-1" Cut="0.0000000000000000e+00" cType="1" res="5.4060041904449463e-02" rms="3.1047081947326660e-01" purity="8.8897442817687988e-01" nType="-99"/>
          </Node>
        </Node>
      </Node>
    </BinaryTree>
    <BinaryTree type="DecisionTree" boostWeight="1.0000000000000000e+00" itree="6">
      <Node pos="s" depth="0" NCoef="0" IVar="11" Cut="4.5809637451171875e+02" cType="1" res="-7.9519159044139087e-05" rms="4.3668964505195618e-01" purity="5.0000000000000000e-01" nType="0">
        <Node pos="l" depth="1" NCoef="0" IVar="8" Cut="8.2721012830734253e-01" cType="1" res="-9.4633042812347412e-02" rms="4.2933100461959839e-01" purity="3.3582222461700439e-01" nType="0">
          <Node pos="l" depth="2" NCoef="0" IVar="8" Cut="7.2969818115234375e-01" cType="1" res="-2.0355045795440674e-01" rms="3.3885988593101501e-01" purity="1.4498624205589294e-01" nType="0">
            <Node pos="l" depth="3" NCoef="0" IVar="7" Cut="1.0491389036178589e+00" cType="1" res="-2.2454023361206055e-01" rms="3.1121003627777100e-01" purity="1.1610315740108490e-01" nType="0">
              <Node pos="l" depth="4" NCoef="0" IVar="-1" Cut="0.0000000000000000e+00" cType="1" res="-5.9368051588535309e-02" rms="2.5401443243026733e-01" purity="7.2124376893043518e-02" nType="-99"/>
              <Node pos="r" depth="4" NCoef="0" IVar="-1" Cut="0.0000000000000000e+00" cType="1" res="-4.1959136724472046e-02" rms="3.5746169090270996e-01" purity="1.6178224980831146e-01" nType="-99"/>
            </Node>
            <Node pos="r" depth="3" NCoef="0" IVar="-1" Cut="0.0000000000000000e+00" cType="1" res="-2.7189353480935097e-02" rms="4.1775625944137573e-01" purity="2.5357818603515625e-01" nType="-99"/>
          </Node>
          <Node pos="r" depth="2" NCoef="0" IVar="11" Cut="2.5326335144042969e+02" cType="1" res="-5.0879456102848053e-03" rms="4.7296044230461121e-01" purity="4.9271565675735474e-01" nType="0">
            <Node pos="l" depth="3" NCoef="0" IVar="7" Cut="1.2372549772262573e+00" cType="1" res="-7.9903587698936462e-02" rms="4.6434524655342102e-01" purity="3.6180692911148071e-01" nType="0">
              <Node pos="l" depth="4" NCoef="0" IVar="-1" Cut="0.0000000000000000e+00" cType="1" res="-2.6859855279326439e-02" rms="4.4838345050811768e-01" purity="3.0116197466850281e-01" nType="-99"/>
              <Node pos="r" depth="4" NCoef="0" IVar="-1" Cut="0.0000000000000000e+00" cType="1" res="-1.6283422010019422e-03" rms="4.7723841667175293e-01" purity="4.4894003868103027e-01" nType="-99"/>
            </Node>
            <Node pos="r" depth="3" NCoef="0" IVar="10" Cut="6.5039947628974915e-02" cType="1" res="9.2540092766284943e-02" rms="4.6625477075576782e-01" purity="6.6354042291641235e-01" nType="0">
              <Node pos="l" depth="4" NCoef="0" IVar="-1" Cut="0.0000000000000000e+00" cType="1" res="2.3699204903095961e-03" rms="4.8982182145118713e-01" purity="5.8361107110977173e-01" nType="-99"/>
              <Node pos="r" depth="4" NCoef="0" IVar="-1" Cut="0.0000000000000000e+00" cType="1" res="2.9158608987927437e-02" rms="4.4456368684768677e-01" purity="7.1134197711944580e-01" nType="-99"/>
            </Node>
          </Node>
        </Node>
        <Node pos="r" depth="1" NCoef="0" IVar="8" Cut="8.7662446498870850e-01" cType="1" res="1.4685814082622528e-01" rms="4.0634590387344360e-01" purity="7.5513482093811035e-01" nType="0">
          <Node pos="l" depth="2" NCoef="0" IVar="-1" Cut="0.0000000000000000e+00" cType="1" res="9.6976133063435555e-03" rms="4.8495694994926453e-01" purity="5.6134736537933350e-01" nType="-99"/>
          <Node pos="r" depth="2" NCoef="0" IVar="12" Cut="1.9306384325027466e+00" cType="1" res="1.9613711535930634e-01" rms="3.5062438249588013e-01" purity="8.5158246755599976e-01" nType="0">
            <Node pos="l" depth="3" NCoef="0" IVar="-1" Cut="0.0000000000000000e+00" cType="1" res="2.7294395491480827e-02" rms="4.0687930583953857e-01" purity="7.7810084819793701e-01" nType="-99"/>
            <Node pos="r" depth="3" NCoef="0" IVar="8" Cut="9.9093747138977051e-01" cType="1" res="2.1597953140735626e-01" rms="3.3099871873855591e-01" purity="8.7146157026290894e-01" nType="0">
              <Node pos="l" depth="4" NCoef="0" IVar="-1" Cut="0.0000000000000000e+00" cType="1" res="4.2247515171766281e-02" rms="3.6075875163078308e-01" purity="8.4185516834259033e-01" nType="-99"/>
              <Node pos="r" depth="4" NCoef="0" IVar="-1" Cut="0.0000000000000000e+00" cType="1" res="5.5161863565444946e-02" rms="2.8721380233764648e-01" purity="9.0793597698211670e-01" nType="-99"/>
            </Node>
          </Node>
        </Node>
      </Node>
    </BinaryTree>
    <BinaryTree type="DecisionTree" boostWeight="1.0000000000000000e+00" itree="7">
      <Node pos="s" depth="0" NCoef="0" IVar="11" Cut="4.5809637451171875e+02" cType="1" res="-8.3713952335529029e-05" rms="4.3096163868904114e-01" purity="5.0000000000000000e-01" nType="0">
        <Node pos="l" depth="1" NCoef="0" IVar="8" Cut="8.1487298011779785e-01" cType="1" res="-8.5314854979515076e-02" rms="4.2563161253929138e-01" purity="3.3582222461700439e-01" nType="0">
          <Node pos="l" depth="2" NCoef="0" IVar="10" Cut="-6.2883339822292328e-02" cType="1" res="-1.8616941571235657e-01" rms="3.3503556251525879e-01" purity="1.4112849533557892e-01" nType="0">
            <Node pos="l" depth="3" NCoef="0" IVar="7" Cut="1.0159133672714233e+00" cType="1" res="-2.2993199527263641e-01" rms="2.8608125448226929e-01" purity="9.5138303935527802e-02" nType="0">
              <Node pos="l" depth="4" NCoef="0" IVar="-1" Cut="0.0000000000000000e+00" cType="1" res="-5.8833673596382141e-02" rms="2.3880244791507721e-01" purity="6.3543319702148438e-02" nType="-99"/>
              <Node pos="r" depth="4" NCoef="0" IVar="-1" Cut="0.0000000000000000e+00" cType="1" res="-4.8020333051681519e-02" rms="3.2425603270530701e-01" purity="1.2573252618312836e-01" nType="-99"/>
            </Node>
            <Node pos="r" depth="3" NCoef="0" IVar="11" Cut="1.8969059753417969e+02" cType="1" res="-1.5149579942226410e-01" rms="3.6554136872291565e-01" purity="1.7756707966327667e-01" nType="0">
              <Node pos="l" depth="4" NCoef="0" IVar="-1" Cut="0.0000000000000000e+00" cType="1" res="-4.9146130681037903e-02" rms="2.7777600288391113e-01" purity="8.6684711277484894e-02" nType="-99"/>
              <Node pos="r" depth="4" NCoef="0" IVar="-1" Cut="0.0000000000000000e+00" cType="1" res="-1.7968732863664627e-02" rms="4.5067089796066284e-01" purity="3.0226108431816101e-01" nType="-99"/>
            </Node>
          </Node>
          <Node pos="r" depth="2" NCoef="0" IVar="11" Cut="2.1014096069335938e+02" cType="1" res="-6.6447332501411438e-03" rms="4.6988716721534729e-01" purity="4.8769021034240723e-01" nType="0">
            <Node pos="l" depth="3" NCoef="0" IVar="12" Cut="2.6907045841217041e+00" cType="1" res="-9.6350386738777161e-02" rms="4.5159950852394104e-01" purity="3.1620436906814575e-01" nType="0">
              <Node pos="l" depth="4" NCoef="0" IVar="-1" Cut="0.0000000000000000e+00" cType="1" res="-3.1969763338565826e-02" rms="4.2401188611984253e-01" purity="2.5368884205818176e-01" nType="-99"/>
              <Node pos="r" depth="4" NCoef="0" IVar="-1" Cut="0.0000000000000000e+00" cType="1" res="-5.2244379185140133e-03" rms="4.7521701455116272e-01" purity="3.9625096321105957e-01" nType="-99"/>
            </Node>
            <Node pos="r" depth="3" NCoef="0" IVar="10" Cut="-6.1752777546644211e-02" cType="1" res="6.5194770693778992e-02" rms="4.7189426422119141e-01" purity="6.2502223253250122e-01" nType="0">
              <Node pos="l" depth="4" NCoef="0" IVar="-1" Cut="0.0000000000000000e+00" cType="1" res="-4.7289193607866764e-03" rms="4.9165233969688416e-01" purity="5.2757358551025391e-01" nType="-99"/>
              <Node pos="r" depth="4" NCoef="0" IVar="-1" Cut="0.0000000000000000e+00" cType="1" res="2.3338804021477699e-02" rms="4.5391654968261719e-01" purity="6.7734777927398682e-01" nType="-99"/>
            </Node>
          </Node>
        </Node>
        <Node pos="r" depth="1" NCoef="0" IVar="8" Cut="8.7662446498870850e-01" cType="1" res="1.3236682116985321e-01" rms="4.0495797991752625e-01" purity="7.5513482093811035e-01" nType="0">
          <Node pos="l" depth="2" NCoef="0" IVar="-1" Cut="0.0000000000000000e+00" cType="1" res="8.7331756949424744e-03" rms="4.8496755957603455e-01" purity="5.6134736537933350e-01" nType="-99"/>
          <Node pos="r" depth="2" NCoef="0" IVar="10" Cut="-1.6759176552295685e-01" cType="1" res="1.7681404948234558e-01" rms="3.5015520453453064e-01" purity="8.5158246755599976e-01" nType="0">
            <Node pos="l" depth="3" NCoef="0" IVar="-1" Cut="0.0000000000000000e+00" cType="1" res="2.6886321604251862e-02" rms="4.0511283278465271e-01" purity="7.8302252292633057e-01" nType="-99"/>
            <Node pos="r" depth="3" NCoef="0" IVar="2" Cut="4.0880176424980164e-01" cType="1" res="1.9874936342239380e-01" rms="3.2396763563156128e-01" purity="8.7787455320358276e-01" nType="0">
              <Node pos="l" depth="4" NCoef="0" IVar="-1" Cut="0.0000000000000000e+00" cType="1" res="3.9215810596942902e-02" rms="3.5541209578514099e-01" purity="8.4783542156219482e-01" nType="-99"/>
              <Node pos="r" depth="4" NCoef="0" IVar="-1" Cut="0.0000000000000000e+00" cType="1" res="5.4015327244997025e-02" rms="2.7587187290191650e-01" purity="9.1537815332412720e-01" nType="-99"/>
            </Node>
          </Node>
        </Node>
      </Node>
    </BinaryTree>
    <BinaryTree type="DecisionTree" boostWeight="1.0000000000000000e+00" itree="8">
      <Node pos="s" depth="0" NCoef="0" IVar="11" Cut="4.5809637451171875e+02" cType="1" res="-9.7116040706168860e-05" rms="4.2603290081024170e-01" purity="5.0000000000000000e-01" nType="0">
        <Node pos="l" depth="1" NCoef="0" IVar="8" Cut="9.2590731382369995e-01" cType="1" res="-7.6938368380069733e-02" rms="4.2225512862205505e-01" purity="3.3582222461700439e-01" nType="0">
          <Node pos="l" depth="2" NCoef="0" IVar="11" Cut="1.5685650634765625e+02" cType="1" res="-1.4563122391700745e-01" rms="3.6864110827445984e-01" purity="1.9425038993358612e-01" nType="0">
            <Node pos="l" depth="3" NCoef="0" IVar="12" Cut="2.4652616977691650e+00" cType="1" res="-2.0126421749591827e-01" rms="2.6049229502677917e-01" purity="7.6754778623580933e-02" nType="0">
              <Node pos="l" depth="4" NCoef="0" IVar="-1" Cut="0.0000000000000000e+00" cType="1" res="-5.8466643095016479e-02" rms="2.0392753183841705e-01" purity="4.4594973325729370e-02" nType="-99"/>
              <Node pos="r" depth="4" NCoef="0" IVar="-1" Cut="0.0000000000000000e+00" cType="1" res="-4.5539420098066330e-02" rms="2.8891468048095703e-01" purity="9.7131311893463135e-02" nType="-99"/>
            </Node>
            <Node pos="r" depth="3" NCoef="0" IVar="8" Cut="7.2579342126846313e-01" cType="1" res="-1.0278416424989700e-01" rms="4.2904466390609741e-01" purity="2.8474238514900208e-01" nType="0">
              <Node pos="l" depth="4" NCoef="0" IVar="-1" Cut="0.0000000000000000e+00" cType="1" res="-3.6080703139305115e-02" rms="3.7847191095352173e-01" purity="1.8001887202262878e-01" nType="-99"/>
              <Node pos="r" depth="4" NCoef="0" IVar="-1" Cut="0.0000000000000000e+00" cType="1" res="-6.1292476020753384e-03" rms="4.7662845253944397e-01" purity="4.1984418034553528e-01" nType="-99"/>
            </Node>
          </Node>
          <Node pos="r" depth="2" NCoef="0" IVar="11" Cut="2.5326335144042969e+02" cType="1" res="1.8520679324865341e-02" rms="4.7069644927978516e-01" purity="5.3255760669708252e-01" nType="0">
            <Node pos="l" depth="3" NCoef="0" IVar="7" Cut="1.2372866868972778e+00" cType="1" res="-4.3379519134759903e-02" rms="4.7315675020217896e-01" purity="3.9898771047592163e-01" nType="0">
              <Node pos="l" depth="4" NCoef="0" IVar="-1" Cut="0.0000000000000000e+00" cType="1" res="-2.0799901336431503e-02" rms="4.5785620808601379e-01" purity="3.2369902729988098e-01" nType="-99"/>
              <Node pos="r" depth="4" NCoef="0" IVar="-1" Cut="0.0000000000000000e+00" cType="1" res="8.7787676602602005e-03" rms="4.8288851976394653e-01" purity="5.1333534717559814e-01" nType="-99"/>
            </Node>
            <Node pos="r" depth="3" NCoef="0" IVar="5" Cut="2.0209443664550781e+02" cType="1" res="9.5039576292037964e-02" rms="4.5617201924324036e-01" purity="6.9767200946807861e-01" nType="0">
              <Node pos="l" depth="4" NCoef="0" IVar="-1" Cut="0.0000000000000000e+00" cType="1" res="1.0417109355330467e-02" rms="4.7314625978469849e-01" purity="6.5084576606750488e-01" nType="-99"/>
              <Node pos="r" depth="4" NCoef="0" IVar="-1" Cut="0.0000000000000000e+00" cType="1" res="3.1323768198490143e-02" rms="4.2919260263442993e-01" purity="7.5282710790634155e-01" nType="-99"/>
            </Node>
          </Node>
        </Node>
        <Node pos="r" depth="1" NCoef="0" IVar="8" Cut="8.7662446498870850e-01" cType="1" res="1.1931540071964264e-01" rms="4.0379315614700317e-01" purity="7.5513482093811035e-01" nType="0">
          <Node pos="l" depth="2" NCoef="0" IVar="-1" Cut="0.0000000000000000e+00" cType="1" res="7.8654661774635315e-03" rms="4.8497837781906128e-01" purity="5.6134736537933350e-01" nType="-99"/>
          <Node pos="r" depth="2" NCoef="0" IVar="12" Cut="1.9306384325027466e+00" cType="1" res="1.5940940380096436e-01" rms="3.4971415996551514e-01" purity="8.5158246755599976e-01" nType="0">
            <Node pos="l" depth="3" NCoef="0" IVar="-1" Cut="0.0000000000000000e+00" cType="1" res="2.1655991673469543e-02" rms="4.0619179606437683e-01" purity="7.7810084819793701e-01" nType="-99"/>
            <Node pos="r" depth="3" NCoef="0" IVar="9" Cut="2.4821584224700928e+00" cType="1" res="1.7736917734146118e-01" rms="3.3050826191902161e-01" purity="8.7146157026290894e-01" nType="0">
              <Node pos="l" depth="4" NCoef="0" IVar="-1" Cut="0.0000000000000000e+00" cType="1" res="3.2736457884311676e-02" rms="3.7117901444435120e-01" purity="8.3061760663986206e-01" nType="-99"/>
              <Node pos="r" depth="4" NCoef="0" IVar="-1" Cut="0.0000000000000000e+00" cType="1" res="4.6703986823558807e-02" rms="3.0563437938690186e-01" purity="8.9247655868530273e-01" nType="-99"/>
            </Node>
          </Node>
        </Node>
      </Node>
    </BinaryTree>
    <BinaryTree type="DecisionTree" boostWeight="1.0000000000000000e+00" itree="9">
      <Node pos="s" depth="0" NCoef="0" IVar="11" Cut="4.5809637451171875e+02" cType="1" res="-1.0996605851687491e-04" rms="4.2191401124000549e-01" purity="5.0000000000000000e-01" nType="0">
        <Node pos="l" depth="1" NCoef="0" IVar="8" Cut="7.6552432775497437e-01" cType="1" res="-6.9390289485454559e-02" rms="4.1937929391860962e-01" purity="3.3582222461700439e-01" nType="0">
          <Node pos="l" depth="2" NCoef="0" IVar="7" Cut="1.0491389036178589e+00" cType="1" res="-1.6122142970561981e-01" rms="3.1987166404724121e-01" purity="1.2607818841934204e-01" nType="0">
            <Node pos="l" depth="3" NCoef="0" IVar="-1" Cut="0.0000000000000000e+00" cType="1" res="-4.9608208239078522e-02" rms="2.6583510637283325e-01" purity="8.1509523093700409e-02" nType="-99"/>
            <Node pos="r" depth="3" NCoef="0" IVar="-1" Cut="0.0000000000000000e+00" cType="1" res="-3.0623903498053551e-02" rms="3.6503919959068298e-01" purity="1.7306910455226898e-01" nType="-99"/>
          </Node>
          <Node pos="r" depth="2" NCoef="0" IVar="11" Cut="2.1014096069335938e+02" cType="1" res="-1.0607686825096607e-02" rms="4.6272364258766174e-01" purity="4.7008278965950012e-01" nType="0">
            <Node pos="l" depth="3" NCoef="0" IVar="8" Cut="9.7135192155838013e-01" cType="1" res="-8.4589399397373199e-02" rms="4.4103085994720459e-01" purity="2.9988485574722290e-01" nType="0">
              <Node pos="l" depth="4" NCoef="0" IVar="-1" Cut="0.0000000000000000e+00" cType="1" res="-3.0385244637727737e-02" rms="4.0091666579246521e-01" purity="2.1847540140151978e-01" nType="-99"/>
              <Node pos="r" depth="4" NCoef="0" IVar="-1" Cut="0.0000000000000000e+00" cType="1" res="-5.1033059135079384e-03" rms="4.7636345028877258e-01" purity="3.9424628019332886e-01" nType="-99"/>
            </Node>
            <Node pos="r" depth="3" NCoef="0" IVar="10" Cut="-6.1752777546644211e-02" cType="1" res="5.0278663635253906e-02" rms="4.7120720148086548e-01" purity="6.1015427112579346e-01" nType="0">
              <Node pos="l" depth="4" NCoef="0" IVar="-1" Cut="0.0000000000000000e+00" cType="1" res="-6.5195886418223381e-03" rms="4.8816505074501038e-01" purity="5.0965249538421631e-01" nType="-99"/>
              <Node pos="r" depth="4" NCoef="0" IVar="-1" Cut="0.0000000000000000e+00" cType="1" res="1.9845053553581238e-02" rms="4.5571386814117432e-01" purity="6.6444098949432373e-01" nType="-99"/>
            </Node>
          </Node>
        </Node>
        <Node pos="r" depth="1" NCoef="0" IVar="11" Cut="8.6777459716796875e+02" cType="1" res="1.0755274444818497e-01" rms="4.0283390879631042e-01" purity="7.5513482093811035e-01" nType="0">
          <Node pos="l" depth="2" NCoef="0" IVar="8" Cut="9.5062690973281860e-01" cType="1" res="5.9917002916336060e-02" rms="4.3668341636657715e-01" purity="6.8665170669555664e-01" nType="0">
            <Node pos="l" depth="3" NCoef="0" IVar="-1" Cut="0.0000000000000000e+00" cType="1" res="-4.0323054417967796e-03" rms="4.8369297385215759e-01" purity="5.3476935625076294e-01" nType="-99"/>
            <Node pos="r" depth="3" NCoef="0" IVar="-1" Cut="0.0000000000000000e+00" cType="1" res="3.2884214073419571e-02" rms="3.6812984943389893e-01" purity="8.3681434392929077e-01" nType="-99"/>
          </Node>
          <Node pos="r" depth="2" NCoef="0" IVar="12" Cut="2.4590163230895996e+00" cType="1" res="1.7082358896732330e-01" rms="3.4280252456665039e-01" purity="8.4609568119049072e-01" nType="0">
            <Node pos="l" depth="3" NCoef="0" IVar="-1" Cut="0.0000000000000000e+00" cType="1" res="2.8621165081858635e-02" rms="3.8407173752784729e-01" purity="7.8746622800827026e-01" nType="-99"/>
            <Node pos="r" depth="3" NCoef="0" IVar="-1" Cut="0.0000000000000000e+00" cType="1" res="5.0133928656578064e-02" rms="3.0154314637184143e-01" purity="8.9167338609695435e-01" nType="-99"/>
          </Node>
        </Node>
      </Node>
    </BinaryTree>
    <BinaryTree type="DecisionTree" boostWeight="1.0000000000000000e+00" itree="10">
      <Node pos="s" depth="0" NCoef="0" IVar="11" Cut="3.1076101684570312e+02" cType="1" res="-1.1168159107910469e-04" rms="4.1819813847541809e-01" purity="5.0000000000000000e-01" nType="0">
        <Node pos="l" depth="1" NCoef="0" IVar="8" Cut="9.6291881799697876e-01" cType="1" res="-8.5143432021141052e-02" rms="3.9913582801818848e-01" purity="2.6432445645332336e-01" nType="0">
          <Node pos="l" depth="2" NCoef="0" IVar="11" Cut="1.6027952575683594e+02" cType="1" res="-1.2694902718067169e-01" rms="3.5094568133354187e-01" purity="1.6803687810897827e-01" nType="0">
            <Node pos="l" depth="3" NCoef="0" IVar="12" Cut="2.3901185989379883e+00" cType="1" res="-1.6476915776729584e-01" rms="2.7781823277473450e-01" purity="8.9666090905666351e-02" nType="0">
              <Node pos="l" depth="4" NCoef="0" IVar="-1" Cut="0.0000000000000000e+00" cType="1" res="-5.3962420672178268e-02" rms="2.1607311069965363e-01" purity="5.1210891455411911e-02" nType="-99"/>
              <Node pos="r" depth="4" NCoef="0" IVar="-1" Cut="0.0000000000000000e+00" cType="1" res="-3.8670293986797333e-02" rms="3.0424830317497253e-01" purity="1.1046671122312546e-01" nType="-99"/>
            </Node>
            <Node pos="r" depth="3" NCoef="0" IVar="12" Cut="2.5537915229797363e+00" cType="1" res="-8.1906400620937347e-02" rms="4.1736212372779846e-01" purity="2.6137408614158630e-01" nType="0">
              <Node pos="l" depth="4" NCoef="0" IVar="-1" Cut="0.0000000000000000e+00" cType="1" res="-3.3436652272939682e-02" rms="3.7935841083526611e-01" purity="1.9584348797798157e-01" nType="-99"/>
              <Node pos="r" depth="4" NCoef="0" IVar="-1" Cut="0.0000000000000000e+00" cType="1" res="-6.2544592656195164e-03" rms="4.4071158766746521e-01" purity="3.1864222884178162e-01" nType="-99"/>
            </Node>
          </Node>
          <Node pos="r" depth="2" NCoef="0" IVar="7" Cut="1.1735324859619141e+00" cType="1" res="6.9460859522223473e-03" rms="4.7602817416191101e-01" purity="4.7642701864242554e-01" nType="0">
            <Node pos="l" depth="3" NCoef="0" IVar="-1" Cut="0.0000000000000000e+00" cType="1" res="-1.0152710601687431e-02" rms="4.6782729029655457e-01" purity="3.9371937513351440e-01" nType="-99"/>
            <Node pos="r" depth="3" NCoef="0" IVar="-1" Cut="0.0000000000000000e+00" cType="1" res="1.6281474381685257e-02" rms="4.7685852646827698e-01" purity="5.8381813764572144e-01" nType="-99"/>
          </Node>
        </Node>
        <Node pos="r" depth="1" NCoef="0" IVar="8" Cut="6.5454089641571045e-01" cType="1" res="7.2244800627231598e-02" rms="4.2042768001556396e-01" purity="7.0054459571838379e-01" nType="0">
          <Node pos="l" depth="2" NCoef="0" IVar="-1" Cut="0.0000000000000000e+00" cType="1" res="-1.5506969764828682e-02" rms="4.7008278965950012e-01" purity="3.7015098333358765e-01" nType="-99"/>
          <Node pos="r" depth="2" NCoef="0" IVar="5" Cut="3.8158169555664062e+02" cType="1" res="9.7568616271018982e-02" rms="4.0595746040344238e-01" purity="7.5711679458618164e-01" nType="0">
            <Node pos="l" depth="3" NCoef="0" IVar="2" Cut="6.8133652210235596e-01" cType="1" res="7.4888795614242554e-02" rms="4.2051115632057190e-01" purity="7.3130798339843750e-01" nType="0">
              <Node pos="l" depth="4" NCoef="0" IVar="-1" Cut="0.0000000000000000e+00" cType="1" res="8.8021317496895790e-03" rms="4.4112446904182434e-01" purity="6.8579083681106567e-01" nType="-99"/>
              <Node pos="r" depth="4" NCoef="0" IVar="-1" Cut="0.0000000000000000e+00" cType="1" res="3.3656746149063110e-02" rms="3.6907616257667542e-01" purity="8.1720107793807983e-01" nType="-99"/>
            </Node>
            <Node pos="r" depth="3" NCoef="0" IVar="-1" Cut="0.0000000000000000e+00" cType="1" res="4.6626169234514236e-02" rms="3.1541755795478821e-01" purity="8.7092912197113037e-01" nType="-99"/>
          </Node>
        </Node>
      </Node>
    </BinaryTree>
    <BinaryTree type="DecisionTree" boostWeight="1.0000000000000000e+00" itree="11">
      <Node pos="s" depth="0" NCoef="0" IVar="11" Cut="4.5809637451171875e+02" cType="1" res="-1.2433603114914149e-04" rms="4.1519853472709656e-01" purity="5.0000000000000000e-01" nType="0">
        <Node pos="l" depth="1" NCoef="0" IVar="8" Cut="7.4085003137588501e-01" cType="1" res="-5.7757370173931122e-02" rms="4.1484913229942322e-01" purity="3.3582222461700439e-01" nType="0">
          <Node pos="l" depth="2" NCoef="0" IVar="7" Cut="1.2822303771972656e+00" cType="1" res="-1.3963496685028076e-01" rms="3.1181231141090393e-01" purity="1.1864902079105377e-01" nType="0">
            <Node pos="l" depth="3" NCoef="0" IVar="10" Cut="5.7168252766132355e-02" cType="1" res="-1.6369310021400452e-01" rms="2.6678231358528137e-01" purity="8.2132607698440552e-02" nType="0">
              <Node pos="l" depth="4" NCoef="0" IVar="-1" Cut="0.0000000000000000e+00" cType="1" res="-5.0285670906305313e-02" rms="2.3380179703235626e-01" purity="5.9440311044454575e-02" nType="-99"/>
              <Node pos="r" depth="4" NCoef="0" IVar="-1" Cut="0.0000000000000000e+00" cType="1" res="-4.0127623826265335e-02" rms="2.9345071315765381e-01" purity="1.0342794656753540e-01" nType="-99"/>
            </Node>
            <Node pos="r" depth="3" NCoef="0" IVar="-1" Cut="0.0000000000000000e+00" cType="1" res="-2.6744714006781578e-02" rms="3.6479213833808899e-01" purity="1.7178826034069061e-01" nType="-99"/>
          </Node>
          <Node pos="r" depth="2" NCoef="0" IVar="11" Cut="1.3467680358886719e+02" cType="1" res="-1.0323645547032356e-02" rms="4.5753884315490723e-01" purity="4.6163606643676758e-01" nType="0">
            <Node pos="l" depth="3" NCoef="0" IVar="-1" Cut="0.0000000000000000e+00" cType="1" res="-2.5401310995221138e-02" rms="4.0235692262649536e-01" purity="2.1629172563552856e-01" nType="-99"/>
            <Node pos="r" depth="3" NCoef="0" IVar="10" Cut="-6.1752777546644211e-02" cType="1" res="2.1470729261636734e-02" rms="4.6935665607452393e-01" purity="5.3988760709762573e-01" nType="0">
              <Node pos="l" depth="4" NCoef="0" IVar="-1" Cut="0.0000000000000000e+00" cType="1" res="-9.9559221416711807e-03" rms="4.7378349304199219e-01" purity="4.4325226545333862e-01" nType="-99"/>
              <Node pos="r" depth="4" NCoef="0" IVar="-1" Cut="0.0000000000000000e+00" cType="1" res="1.3080673292279243e-02" rms="4.6207413077354431e-01" purity="5.9607452154159546e-01" nType="-99"/>
            </Node>
          </Node>
        </Node>
        <Node pos="r" depth="1" NCoef="0" IVar="11" Cut="8.6777459716796875e+02" cType="1" res="8.9438304305076599e-02" rms="3.9957141876220703e-01" purity="7.5513482093811035e-01" nType="0">
          <Node pos="l" depth="2" NCoef="0" IVar="8" Cut="8.7662446498870850e-01" cType="1" res="4.6918217092752457e-02" rms="4.3355739116668701e-01" purity="6.8665170669555664e-01" nType="0">
            <Node pos="l" depth="3" NCoef="0" IVar="-1" Cut="0.0000000000000000e+00" cType="1" res="-9.6735274419188499e-03" rms="4.9100413918495178e-01" purity="4.6543845534324646e-01" nType="-99"/>
            <Node pos="r" depth="3" NCoef="0" IVar="8" Cut="9.9093747138977051e-01" cType="1" res="9.7895927727222443e-02" rms="3.8984972238540649e-01" purity="8.0559074878692627e-01" nType="0">
              <Node pos="l" depth="4" NCoef="0" IVar="-1" Cut="0.0000000000000000e+00" cType="1" res="1.5001229010522366e-02" rms="4.2183238267898560e-01" purity="7.5922822952270508e-01" nType="-99"/>
              <Node pos="r" depth="4" NCoef="0" IVar="-1" Cut="0.0000000000000000e+00" cType="1" res="3.5893451422452927e-02" rms="3.3788159489631653e-01" purity="8.6655849218368530e-01" nType="-99"/>
            </Node>
          </Node>
          <Node pos="r" depth="2" NCoef="0" IVar="12" Cut="2.4590163230895996e+00" cType="1" res="1.4591443538665771e-01" rms="3.4125968813896179e-01" purity="8.4609568119049072e-01" nType="0">
            <Node pos="l" depth="3" NCoef="0" IVar="-1" Cut="0.0000000000000000e+00" cType="1" res="2.4935234338045120e-02" rms="3.8274785876274109e-01" purity="7.8746622800827026e-01" nType="-99"/>
            <Node pos="r" depth="3" NCoef="0" IVar="-1" Cut="0.0000000000000000e+00" cType="1" res="4.5730251818895340e-02" rms="3.0088457465171814e-01" purity="8.9167338609695435e-01" nType="-99"/>
          </Node>
        </Node>
      </Node>
    </BinaryTree>
    <BinaryTree type="DecisionTree" boostWeight="1.0000000000000000e+00" itree="12">
      <Node pos="s" depth="0" NCoef="0" IVar="11" Cut="4.5809637451171875e+02" cType="1" res="-1.2429831258486956e-04" rms="4.1245952248573303e-01" purity="5.0000000000000000e-01" nType="0">
        <Node pos="l" depth="1" NCoef="0" IVar="8" Cut="9.2590731382369995e-01" cType="1" res="-5.2093449980020523e-02" rms="4.1317346692085266e-01" purity="3.3582222461700439e-01" nType="0">
          <Node pos="l" depth="2" NCoef="0" IVar="10" Cut="-6.2883339822292328e-02" cType="1" res="-1.0102073103189468e-01" rms="3.6350902915000916e-01" purity="1.9425038993358612e-01" nType="0">
            <Node pos="l" depth="3" NCoef="0" IVar="7" Cut="7.8968727588653564e-01" cType="1" res="-1.4402593672275543e-01" rms="3.2222598791122437e-01" purity="1.3553859293460846e-01" nType="0">
              <Node pos="l" depth="4" NCoef="0" IVar="-1" Cut="0.0000000000000000e+00" cType="1" res="-4.8616897314786911e-02" rms="2.5745034217834473e-01" purity="7.8333795070648193e-02" nType="-99"/>
              <Node pos="r" depth="4" NCoef="0" IVar="-1" Cut="0.0000000000000000e+00" cType="1" res="-3.0705599114298820e-02" rms="3.5698810219764709e-01" purity="1.7344130575656891e-01" nType="-99"/>
            </Node>
            <Node pos="r" depth="3" NCoef="0" IVar="11" Cut="1.5685647583007812e+02" cType="1" res="-6.8355537950992584e-02" rms="3.8880544900894165e-01" purity="2.3884576559066772e-01" nType="0">
              <Node pos="l" depth="4" NCoef="0" IVar="-1" Cut="0.0000000000000000e+00" cType="1" res="-3.6443937569856644e-02" rms="2.8710228204727173e-01" purity="9.5611251890659332e-02" nType="-99"/>
