<?xml version="1.0"?>
<MethodSetup Method="BDT::tZq">
  <GeneralInfo>
    <Info name="TMVA Release" value="4.2.1 [262657]"/>
    <Info name="ROOT Release" value="6.18/04 [397828]"/>
    <Info name="Creator" value="ntonon"/>
    <Info name="Date" value="Tue Jan 21 18:23:13 2020"/>
    <Info name="Host" value="Linux cmspcx36679 4.15.0-1065-oem #75-Ubuntu SMP Wed Nov 20 10:51:26 UTC 2019 x86_64 x86_64 x86_64 GNU/Linux"/>
    <Info name="Dir" value="/home/ntonon/Postdoc/EFTSimulations/myAnalysis"/>
    <Info name="Training events" value="200000"/>
    <Info name="TrainingTime" value="2.71274107e+02"/>
    <Info name="AnalysisType" value="Classification"/>
  </GeneralInfo>
  <Options>
    <Option name="V" modified="Yes">False</Option>
    <Option name="VerbosityLevel" modified="No">Default</Option>
    <Option name="VarTransform" modified="No">None</Option>
    <Option name="H" modified="Yes">False</Option>
    <Option name="CreateMVAPdfs" modified="No">False</Option>
    <Option name="IgnoreNegWeightsInTraining" modified="No">False</Option>
    <Option name="NTrees" modified="Yes">800</Option>
    <Option name="MaxDepth" modified="Yes">2</Option>
    <Option name="MinNodeSize" modified="Yes">5%</Option>
    <Option name="nCuts" modified="Yes">200</Option>
    <Option name="BoostType" modified="Yes">Grad</Option>
    <Option name="AdaBoostR2Loss" modified="No">quadratic</Option>
    <Option name="UseBaggedBoost" modified="No">True</Option>
    <Option name="Shrinkage" modified="Yes">1.000000e-01</Option>
    <Option name="AdaBoostBeta" modified="No">5.000000e-01</Option>
    <Option name="UseRandomisedTrees" modified="No">False</Option>
    <Option name="UseNvars" modified="No">4</Option>
    <Option name="UsePoissonNvars" modified="No">True</Option>
    <Option name="BaggedSampleFraction" modified="Yes">5.000000e-01</Option>
    <Option name="UseYesNoLeaf" modified="No">True</Option>
    <Option name="NegWeightTreatment" modified="Yes">pairnegweightsglobal</Option>
    <Option name="Css" modified="No">1.000000e+00</Option>
    <Option name="Cts_sb" modified="No">1.000000e+00</Option>
    <Option name="Ctb_ss" modified="No">1.000000e+00</Option>
    <Option name="Cbb" modified="No">1.000000e+00</Option>
    <Option name="NodePurityLimit" modified="No">5.000000e-01</Option>
    <Option name="SeparationType" modified="No">giniindex</Option>
    <Option name="RegressionLossFunctionBDTG" modified="No">huber</Option>
    <Option name="HuberQuantile" modified="No">7.000000e-01</Option>
    <Option name="DoBoostMonitor" modified="No">False</Option>
    <Option name="UseFisherCuts" modified="No">False</Option>
    <Option name="MinLinCorrForFisher" modified="No">8.000000e-01</Option>
    <Option name="UseExclusiveVars" modified="No">False</Option>
    <Option name="DoPreselection" modified="No">False</Option>
    <Option name="SigToBkgFraction" modified="No">1.000000e+00</Option>
    <Option name="PruneMethod" modified="No">nopruning</Option>
    <Option name="PruneStrength" modified="No">0.000000e+00</Option>
    <Option name="PruningValFraction" modified="No">5.000000e-01</Option>
    <Option name="SkipNormalization" modified="No">False</Option>
    <Option name="nEventsMin" modified="No">0</Option>
    <Option name="UseBaggedGrad" modified="Yes">True</Option>
    <Option name="GradBaggingFraction" modified="No">5.000000e-01</Option>
    <Option name="UseNTrainEvents" modified="No">0</Option>
    <Option name="NNodesMax" modified="Yes">5</Option>
  </Options>
  <Variables NVar="13">
    <Variable VarIndex="0" Expression="maxDijetDelR" Label="maxDijetDelR" Title="maxDijetDelR" Unit="" Internal="maxDijetDelR" Type="F" Min="4.01793510e-01" Max="9.66277504e+00"/>
    <Variable VarIndex="1" Expression="dEtaFwdJetBJet" Label="dEtaFwdJetBJet" Title="dEtaFwdJetBJet" Unit="" Internal="dEtaFwdJetBJet" Type="F" Min="0.00000000e+00" Max="6.83793736e+00"/>
    <Variable VarIndex="2" Expression="dEtaFwdJetClosestLep" Label="dEtaFwdJetClosestLep" Title="dEtaFwdJetClosestLep" Unit="" Internal="dEtaFwdJetClosestLep" Type="F" Min="7.45058060e-09" Max="5.45582581e+00"/>
    <Variable VarIndex="3" Expression="mHT" Label="mHT" Title="mHT" Unit="" Internal="mHT" Type="F" Min="1.18073715e+02" Max="4.20214307e+03"/>
    <Variable VarIndex="4" Expression="mTW" Label="mTW" Title="mTW" Unit="" Internal="mTW" Type="F" Min="8.56877305e-04" Max="1.24785889e+03"/>
    <Variable VarIndex="5" Expression="Mass_3l" Label="Mass_3l" Title="Mass_3l" Unit="" Internal="Mass_3l" Type="F" Min="8.28153076e+01" Max="2.13868579e+03"/>
    <Variable VarIndex="6" Expression="forwardJetAbsEta" Label="forwardJetAbsEta" Title="forwardJetAbsEta" Unit="" Internal="forwardJetAbsEta" Type="F" Min="6.97035016e-03" Max="4.88483524e+00"/>
    <Variable VarIndex="7" Expression="jPrimeAbsEta" Label="jPrimeAbsEta" Title="jPrimeAbsEta" Unit="" Internal="jPrimeAbsEta" Type="F" Min="1.30850040e-05" Max="4.84562540e+00"/>
    <Variable VarIndex="8" Expression="maxDeepCSV" Label="maxDeepCSV" Title="maxDeepCSV" Unit="" Internal="maxDeepCSV" Type="F" Min="4.18403000e-01" Max="9.99999940e-01"/>
    <Variable VarIndex="9" Expression="delRljPrime" Label="delRljPrime" Title="delRljPrime" Unit="" Internal="delRljPrime" Type="F" Min="8.43482278e-03" Max="7.49064302e+00"/>
    <Variable VarIndex="10" Expression="lAsymmetry" Label="lAsymmetry" Title="lAsymmetry" Unit="" Internal="lAsymmetry" Type="F" Min="-2.49835038e+00" Max="2.49996543e+00"/>
    <Variable VarIndex="11" Expression="maxDijetMass" Label="maxDijetMass" Title="maxDijetMass" Unit="" Internal="maxDijetMass" Type="F" Min="1.44029379e+01" Max="7.93218506e+03"/>
    <Variable VarIndex="12" Expression="maxDelPhiLL" Label="maxDelPhiLL" Title="maxDelPhiLL" Unit="" Internal="maxDelPhiLL" Type="F" Min="7.61103630e-03" Max="3.14159250e+00"/>
  </Variables>
  <Spectators NSpec="0"/>
  <Classes NClass="2">
    <Class Name="Signal" Index="0"/>
    <Class Name="Background" Index="1"/>
  </Classes>
  <Transformations NTransformations="0"/>
  <MVAPdfs/>
  <Weights NTrees="800" AnalysisType="1">
    <BinaryTree type="DecisionTree" boostWeight="1.0000000000000000e+00" itree="0">
      <Node pos="s" depth="0" NCoef="0" IVar="7" Cut="1.7098724842071533e+00" cType="1" res="-7.1825855411589146e-04" rms="4.9999949336051941e-01" purity="4.9928176403045654e-01" nType="0">
        <Node pos="l" depth="1" NCoef="0" IVar="0" Cut="3.2771782875061035e+00" cType="1" res="-1.5605005621910095e-01" rms="4.7502461075782776e-01" purity="3.4394994378089905e-01" nType="0">
          <Node pos="l" depth="2" NCoef="0" IVar="-1" Cut="0.0000000000000000e+00" cType="1" res="-4.7856286168098450e-02" rms="4.3902665376663208e-01" purity="2.6071855425834656e-01" nType="-99"/>
          <Node pos="r" depth="2" NCoef="0" IVar="-1" Cut="0.0000000000000000e+00" cType="1" res="-1.5945179387927055e-02" rms="4.9360287189483643e-01" purity="4.2027410864830017e-01" nType="-99"/>
        </Node>
        <Node pos="r" depth="1" NCoef="0" IVar="8" Cut="7.8013789653778076e-01" cType="1" res="2.1315424144268036e-01" rms="4.5228892564773560e-01" purity="7.1315419673919678e-01" nType="0">
          <Node pos="l" depth="2" NCoef="0" IVar="-1" Cut="0.0000000000000000e+00" cType="1" res="3.9370032027363777e-03" rms="4.9961236119270325e-01" purity="5.1968502998352051e-01" nType="-99"/>
          <Node pos="r" depth="2" NCoef="0" IVar="-1" Cut="0.0000000000000000e+00" cType="1" res="5.5956497788429260e-02" rms="4.1439324617385864e-01" purity="7.7978247404098511e-01" nType="-99"/>
        </Node>
      </Node>
    </BinaryTree>
    <BinaryTree type="DecisionTree" boostWeight="1.0000000000000000e+00" itree="1">
      <Node pos="s" depth="0" NCoef="0" IVar="7" Cut="1.8303571939468384e+00" cType="1" res="2.0477295038290322e-04" rms="4.9215850234031677e-01" purity="5.0037598609924316e-01" nType="0">
        <Node pos="l" depth="1" NCoef="0" IVar="8" Cut="8.0614060163497925e-01" cType="1" res="-1.2975808978080750e-01" rms="4.7714635729789734e-01" purity="3.5685938596725464e-01" nType="0">
          <Node pos="l" depth="2" NCoef="0" IVar="-1" Cut="0.0000000000000000e+00" cType="1" res="-4.9870077520608902e-02" rms="4.2229062318801880e-01" purity="2.3539052903652191e-01" nType="-99"/>
          <Node pos="r" depth="2" NCoef="0" IVar="-1" Cut="0.0000000000000000e+00" cType="1" res="-1.5695147216320038e-02" rms="4.9005764722824097e-01" purity="4.0918907523155212e-01" nType="-99"/>
        </Node>
        <Node pos="r" depth="1" NCoef="0" IVar="0" Cut="3.3009042739868164e+00" cType="1" res="2.0469729602336884e-01" rms="4.4353401660919189e-01" purity="7.2619491815567017e-01" nType="0">
          <Node pos="l" depth="2" NCoef="0" IVar="-1" Cut="0.0000000000000000e+00" cType="1" res="-1.7024587141349912e-03" rms="4.9684137105941772e-01" purity="5.1089513301849365e-01" nType="-99"/>
          <Node pos="r" depth="2" NCoef="0" IVar="-1" Cut="0.0000000000000000e+00" cType="1" res="5.1885616034269333e-02" rms="4.1175112128257751e-01" purity="7.8083372116088867e-01" nType="-99"/>
        </Node>
      </Node>
    </BinaryTree>
    <BinaryTree type="DecisionTree" boostWeight="1.0000000000000000e+00" itree="2">
      <Node pos="s" depth="0" NCoef="0" IVar="7" Cut="1.8682881593704224e+00" cType="1" res="6.1126686632633209e-03" rms="4.8573222756385803e-01" purity="5.0650948286056519e-01" nType="0">
        <Node pos="l" depth="1" NCoef="0" IVar="3" Cut="5.8068713378906250e+02" cType="1" res="-1.0714928805828094e-01" rms="4.7883349657058716e-01" purity="3.6782017350196838e-01" nType="0">
          <Node pos="l" depth="2" NCoef="0" IVar="-1" Cut="0.0000000000000000e+00" cType="1" res="-1.0647338815033436e-02" rms="4.8951295018196106e-01" purity="4.2071309685707092e-01" nType="-99"/>
          <Node pos="r" depth="2" NCoef="0" IVar="-1" Cut="0.0000000000000000e+00" cType="1" res="-4.2070917785167694e-02" rms="4.4002020359039307e-01" purity="2.6760065555572510e-01" nType="-99"/>
        </Node>
        <Node pos="r" depth="1" NCoef="0" IVar="11" Cut="2.0844242858886719e+02" cType="1" res="1.9111353158950806e-01" rms="4.3775099515914917e-01" purity="7.3304307460784912e-01" nType="0">
          <Node pos="l" depth="2" NCoef="0" IVar="-1" Cut="0.0000000000000000e+00" cType="1" res="-3.7278118543326855e-03" rms="4.9530768394470215e-01" purity="5.0556463003158569e-01" nType="-99"/>
          <Node pos="r" depth="2" NCoef="0" IVar="-1" Cut="0.0000000000000000e+00" cType="1" res="4.7070529311895370e-02" rms="4.1258889436721802e-01" purity="7.7874213457107544e-01" nType="-99"/>
        </Node>
      </Node>
    </BinaryTree>
    <BinaryTree type="DecisionTree" boostWeight="1.0000000000000000e+00" itree="3">
      <Node pos="s" depth="0" NCoef="0" IVar="7" Cut="2.0852844715118408e+00" cType="1" res="1.9792422244790941e-04" rms="4.8034748435020447e-01" purity="5.0101321935653687e-01" nType="0">
        <Node pos="l" depth="1" NCoef="0" IVar="1" Cut="1.6354075670242310e+00" cType="1" res="-8.9971907436847687e-02" rms="4.7881421446800232e-01" purity="3.8211211562156677e-01" nType="0">
          <Node pos="l" depth="2" NCoef="0" IVar="-1" Cut="0.0000000000000000e+00" cType="1" res="-2.7921427041292191e-02" rms="4.6480417251586914e-01" purity="3.2987746596336365e-01" nType="-99"/>
          <Node pos="r" depth="2" NCoef="0" IVar="-1" Cut="0.0000000000000000e+00" cType="1" res="8.8645573705434799e-03" rms="4.9112963676452637e-01" purity="5.2598029375076294e-01" nType="-99"/>
        </Node>
        <Node pos="r" depth="1" NCoef="0" IVar="8" Cut="8.7273061275482178e-01" cType="1" res="1.9125223159790039e-01" rms="4.2440629005432129e-01" purity="7.5294417142868042e-01" nType="0">
          <Node pos="l" depth="2" NCoef="0" IVar="-1" Cut="0.0000000000000000e+00" cType="1" res="1.2527097016572952e-02" rms="4.8054385185241699e-01" purity="6.0912287235260010e-01" nType="-99"/>
          <Node pos="r" depth="2" NCoef="0" IVar="-1" Cut="0.0000000000000000e+00" cType="1" res="5.3326193243265152e-02" rms="3.7242826819419861e-01" purity="8.3074229955673218e-01" nType="-99"/>
        </Node>
      </Node>
    </BinaryTree>
    <BinaryTree type="DecisionTree" boostWeight="1.0000000000000000e+00" itree="4">
      <Node pos="s" depth="0" NCoef="0" IVar="7" Cut="1.4209483861923218e+00" cType="1" res="4.7710686922073364e-03" rms="4.7553265094757080e-01" purity="5.0675624608993530e-01" nType="0">
        <Node pos="l" depth="1" NCoef="0" IVar="8" Cut="8.5821753740310669e-01" cType="1" res="-1.2502853572368622e-01" rms="4.6496826410293579e-01" purity="3.2594150304794312e-01" nType="0">
          <Node pos="l" depth="2" NCoef="0" IVar="-1" Cut="0.0000000000000000e+00" cType="1" res="-4.2801998555660248e-02" rms="4.1885298490524292e-01" purity="2.3091350495815277e-01" nType="-99"/>
          <Node pos="r" depth="2" NCoef="0" IVar="-1" Cut="0.0000000000000000e+00" cType="1" res="-1.5854744240641594e-02" rms="4.8174843192100525e-01" purity="3.7730351090431213e-01" nType="-99"/>
        </Node>
        <Node pos="r" depth="1" NCoef="0" IVar="11" Cut="1.7560649108886719e+02" cType="1" res="1.2525688111782074e-01" rms="4.5298820734024048e-01" purity="6.7459666728973389e-01" nType="0">
          <Node pos="l" depth="2" NCoef="0" IVar="-1" Cut="0.0000000000000000e+00" cType="1" res="-1.8182124942541122e-02" rms="4.8299843072891235e-01" purity="4.1232857108116150e-01" nType="-99"/>
          <Node pos="r" depth="2" NCoef="0" IVar="-1" Cut="0.0000000000000000e+00" cType="1" res="3.2880980521440506e-02" rms="4.3793743848800659e-01" purity="7.1741938591003418e-01" nType="-99"/>
        </Node>
      </Node>
    </BinaryTree>
    <BinaryTree type="DecisionTree" boostWeight="1.0000000000000000e+00" itree="5">
      <Node pos="s" depth="0" NCoef="0" IVar="7" Cut="1.6634502410888672e+00" cType="1" res="-2.3114802315831184e-03" rms="4.7119340300559998e-01" purity="4.9836555123329163e-01" nType="0">
        <Node pos="l" depth="1" NCoef="0" IVar="8" Cut="7.6562500000000000e-01" cType="1" res="-9.8141528666019440e-02" rms="4.6868479251861572e-01" purity="3.4344583749771118e-01" nType="0">
          <Node pos="l" depth="2" NCoef="0" IVar="-1" Cut="0.0000000000000000e+00" cType="1" res="-4.5207470655441284e-02" rms="3.9779251813888550e-01" purity="2.0204225182533264e-01" nType="-99"/>
          <Node pos="r" depth="2" NCoef="0" IVar="-1" Cut="0.0000000000000000e+00" cType="1" res="-1.0180144570767879e-02" rms="4.8538690805435181e-01" purity="3.9883971214294434e-01" nType="-99"/>
        </Node>
        <Node pos="r" depth="1" NCoef="0" IVar="11" Cut="2.0844242858886719e+02" cType="1" res="1.2066870927810669e-01" rms="4.4512885808944702e-01" purity="6.9717639684677124e-01" nType="0">
          <Node pos="l" depth="2" NCoef="0" IVar="-1" Cut="0.0000000000000000e+00" cType="1" res="-1.3878133147954941e-02" rms="4.8781970143318176e-01" purity="4.5205476880073547e-01" nType="-99"/>
          <Node pos="r" depth="2" NCoef="0" IVar="-1" Cut="0.0000000000000000e+00" cType="1" res="3.4010130912065506e-02" rms="4.2321184277534485e-01" purity="7.5276404619216919e-01" nType="-99"/>
        </Node>
      </Node>
    </BinaryTree>
    <BinaryTree type="DecisionTree" boostWeight="1.0000000000000000e+00" itree="6">
      <Node pos="s" depth="0" NCoef="0" IVar="7" Cut="1.2523672580718994e+00" cType="1" res="6.3542166026309133e-04" rms="4.6768841147422791e-01" purity="5.0179475545883179e-01" nType="0">
        <Node pos="l" depth="1" NCoef="0" IVar="11" Cut="3.4969238281250000e+02" cType="1" res="-1.1715730279684067e-01" rms="4.5711204409599304e-01" purity="3.1091541051864624e-01" nType="0">
          <Node pos="l" depth="2" NCoef="0" IVar="-1" Cut="0.0000000000000000e+00" cType="1" res="-3.4284986555576324e-02" rms="4.3219202756881714e-01" purity="2.5783628225326538e-01" nType="-99"/>
          <Node pos="r" depth="2" NCoef="0" IVar="-1" Cut="0.0000000000000000e+00" cType="1" res="-5.6386012583971024e-03" rms="4.8595261573791504e-01" purity="4.0597265958786011e-01" nType="-99"/>
        </Node>
        <Node pos="r" depth="1" NCoef="0" IVar="0" Cut="3.4887874126434326e+00" cType="1" res="9.1140978038311005e-02" rms="4.5540696382522583e-01" purity="6.4845615625381470e-01" nType="0">
          <Node pos="l" depth="2" NCoef="0" IVar="-1" Cut="0.0000000000000000e+00" cType="1" res="-6.8815648555755615e-03" rms="4.8479229211807251e-01" purity="4.7171634435653687e-01" nType="-99"/>
          <Node pos="r" depth="2" NCoef="0" IVar="-1" Cut="0.0000000000000000e+00" cType="1" res="3.1088421121239662e-02" rms="4.2921096086502075e-01" purity="7.2969239950180054e-01" nType="-99"/>
        </Node>
      </Node>
    </BinaryTree>
    <BinaryTree type="DecisionTree" boostWeight="1.0000000000000000e+00" itree="7">
      <Node pos="s" depth="0" NCoef="0" IVar="7" Cut="1.7357548475265503e+00" cType="1" res="-3.5248571075499058e-03" rms="4.6481695771217346e-01" purity="4.9784770607948303e-01" nType="0">
        <Node pos="l" depth="1" NCoef="0" IVar="11" Cut="3.4661932373046875e+02" cType="1" res="-8.1592179834842682e-02" rms="4.6680104732513428e-01" purity="3.4637233614921570e-01" nType="0">
          <Node pos="l" depth="2" NCoef="0" IVar="-1" Cut="0.0000000000000000e+00" cType="1" res="-2.7823332697153091e-02" rms="4.4334480166435242e-01" purity="2.8226616978645325e-01" nType="-99"/>
          <Node pos="r" depth="2" NCoef="0" IVar="-1" Cut="0.0000000000000000e+00" cType="1" res="-3.1820830190554261e-04" rms="4.8928058147430420e-01" purity="4.4291186332702637e-01" nType="-99"/>
        </Node>
        <Node pos="r" depth="1" NCoef="0" IVar="8" Cut="7.8301143646240234e-01" cType="1" res="1.0570491105318069e-01" rms="4.3932917714118958e-01" purity="7.0978820323944092e-01" nType="0">
          <Node pos="l" depth="2" NCoef="0" IVar="-1" Cut="0.0000000000000000e+00" cType="1" res="-9.6109826117753983e-03" rms="4.8588702082633972e-01" purity="5.2087938785552979e-01" nType="-99"/>
          <Node pos="r" depth="2" NCoef="0" IVar="-1" Cut="0.0000000000000000e+00" cType="1" res="3.3975470811128616e-02" rms="4.0852287411689758e-01" purity="7.7606981992721558e-01" nType="-99"/>
        </Node>
      </Node>
    </BinaryTree>
    <BinaryTree type="DecisionTree" boostWeight="1.0000000000000000e+00" itree="8">
      <Node pos="s" depth="0" NCoef="0" IVar="7" Cut="1.1078093051910400e+00" cType="1" res="2.7925025206059217e-03" rms="4.6166133880615234e-01" purity="5.0461083650588989e-01" nType="0">
        <Node pos="l" depth="1" NCoef="0" IVar="3" Cut="5.1555419921875000e+02" cType="1" res="-1.0577724874019623e-01" rms="4.5223790407180786e-01" purity="3.0201452970504761e-01" nType="0">
          <Node pos="l" depth="2" NCoef="0" IVar="-1" Cut="0.0000000000000000e+00" cType="1" res="-9.5215616747736931e-03" rms="4.7127726674079895e-01" purity="3.5900866985321045e-01" nType="-99"/>
          <Node pos="r" depth="2" NCoef="0" IVar="-1" Cut="0.0000000000000000e+00" cType="1" res="-3.7761520594358444e-02" rms="4.1432237625122070e-01" purity="2.2938737273216248e-01" nType="-99"/>
        </Node>
        <Node pos="r" depth="1" NCoef="0" IVar="0" Cut="3.9495327472686768e+00" cType="1" res="7.1738727390766144e-02" rms="4.5426988601684570e-01" purity="6.3326776027679443e-01" nType="0">
          <Node pos="l" depth="2" NCoef="0" IVar="-1" Cut="0.0000000000000000e+00" cType="1" res="-1.7365278908982873e-03" rms="4.7819995880126953e-01" purity="5.0696414709091187e-01" nType="-99"/>
          <Node pos="r" depth="2" NCoef="0" IVar="-1" Cut="0.0000000000000000e+00" cType="1" res="3.0183590948581696e-02" rms="4.2037814855575562e-01" purity="7.4247086048126221e-01" nType="-99"/>
        </Node>
      </Node>
    </BinaryTree>
    <BinaryTree type="DecisionTree" boostWeight="1.0000000000000000e+00" itree="9">
      <Node pos="s" depth="0" NCoef="0" IVar="7" Cut="2.2290291786193848e+00" cType="1" res="7.1954203303903341e-04" rms="4.5838057994842529e-01" purity="5.0101840496063232e-01" nType="0">
        <Node pos="l" depth="1" NCoef="0" IVar="3" Cut="5.7601123046875000e+02" cType="1" res="-5.1344659179449081e-02" rms="4.6753805875778198e-01" purity="3.9528825879096985e-01" nType="0">
          <Node pos="l" depth="2" NCoef="0" IVar="-1" Cut="0.0000000000000000e+00" cType="1" res="-5.9715594397857785e-04" rms="4.7479656338691711e-01" purity="4.4626602530479431e-01" nType="-99"/>
          <Node pos="r" depth="2" NCoef="0" IVar="-1" Cut="0.0000000000000000e+00" cType="1" res="-3.0054176226258278e-02" rms="4.3868157267570496e-01" purity="2.9784452915191650e-01" nType="-99"/>
        </Node>
        <Node pos="r" depth="1" NCoef="0" IVar="8" Cut="8.5244768857955933e-01" cType="1" res="1.3327597081661224e-01" rms="4.0503358840942383e-01" purity="7.7020919322967529e-01" nType="0">
          <Node pos="l" depth="2" NCoef="0" IVar="-1" Cut="0.0000000000000000e+00" cType="1" res="3.0910742934793234e-03" rms="4.7165444493293762e-01" purity="6.0795629024505615e-01" nType="-99"/>
          <Node pos="r" depth="2" NCoef="0" IVar="-1" Cut="0.0000000000000000e+00" cType="1" res="4.2810667306184769e-02" rms="3.5373824834823608e-01" purity="8.4979480504989624e-01" nType="-99"/>
        </Node>
      </Node>
    </BinaryTree>
    <BinaryTree type="DecisionTree" boostWeight="1.0000000000000000e+00" itree="10">
      <Node pos="s" depth="0" NCoef="0" IVar="0" Cut="3.5777359008789062e+00" cType="1" res="-2.1637280005961657e-03" rms="4.5762333273887634e-01" purity="4.9951624870300293e-01" nType="0">
        <Node pos="l" depth="1" NCoef="0" IVar="8" Cut="8.7270259857177734e-01" cType="1" res="-8.6455911397933960e-02" rms="4.5543181896209717e-01" purity="3.5159304738044739e-01" nType="0">
          <Node pos="l" depth="2" NCoef="0" IVar="-1" Cut="0.0000000000000000e+00" cType="1" res="-3.7026289850473404e-02" rms="4.1406086087226868e-01" purity="2.3997205495834351e-01" nType="-99"/>
          <Node pos="r" depth="2" NCoef="0" IVar="-1" Cut="0.0000000000000000e+00" cType="1" res="-4.6080397441983223e-03" rms="4.7285470366477966e-01" purity="4.3235990405082703e-01" nType="-99"/>
        </Node>
        <Node pos="r" depth="1" NCoef="0" IVar="3" Cut="5.2508807373046875e+02" cType="1" res="7.0460580289363861e-02" rms="4.4693082571029663e-01" purity="6.2696367502212524e-01" nType="0">
          <Node pos="l" depth="2" NCoef="0" IVar="-1" Cut="0.0000000000000000e+00" cType="1" res="3.2336346805095673e-02" rms="4.1434800624847412e-01" purity="7.3605567216873169e-01" nType="-99"/>
          <Node pos="r" depth="2" NCoef="0" IVar="-1" Cut="0.0000000000000000e+00" cType="1" res="-9.5514096319675446e-03" rms="4.6752116084098816e-01" purity="4.6672707796096802e-01" nType="-99"/>
        </Node>
      </Node>
    </BinaryTree>
    <BinaryTree type="DecisionTree" boostWeight="1.0000000000000000e+00" itree="11">
      <Node pos="s" depth="0" NCoef="0" IVar="7" Cut="2.3384428024291992e+00" cType="1" res="2.4992052931338549e-03" rms="4.5304298400878906e-01" purity="5.0395303964614868e-01" nType="0">
        <Node pos="l" depth="1" NCoef="0" IVar="11" Cut="3.8547567749023438e+02" cType="1" res="-4.3432727456092834e-02" rms="4.6450728178024292e-01" purity="4.0408763289451599e-01" nType="0">
          <Node pos="l" depth="2" NCoef="0" IVar="-1" Cut="0.0000000000000000e+00" cType="1" res="-1.8994381651282310e-02" rms="4.5103695988655090e-01" purity="3.3074694871902466e-01" nType="-99"/>
          <Node pos="r" depth="2" NCoef="0" IVar="-1" Cut="0.0000000000000000e+00" cType="1" res="6.3498974777758121e-03" rms="4.7577673196792603e-01" purity="5.2000427246093750e-01" nType="-99"/>
        </Node>
        <Node pos="r" depth="1" NCoef="0" IVar="8" Cut="7.8025835752487183e-01" cType="1" res="1.3590323925018311e-01" rms="3.8829421997070312e-01" purity="7.9400068521499634e-01" nType="0">
          <Node pos="l" depth="2" NCoef="0" IVar="-1" Cut="0.0000000000000000e+00" cType="1" res="4.1960016824305058e-03" rms="4.7507265210151672e-01" purity="6.0960423946380615e-01" nType="-99"/>
          <Node pos="r" depth="2" NCoef="0" IVar="-1" Cut="0.0000000000000000e+00" cType="1" res="4.0563799440860748e-02" rms="3.4592828154563904e-01" purity="8.5577321052551270e-01" nType="-99"/>
        </Node>
      </Node>
    </BinaryTree>
    <BinaryTree type="DecisionTree" boostWeight="1.0000000000000000e+00" itree="12">
      <Node pos="s" depth="0" NCoef="0" IVar="3" Cut="4.2831726074218750e+02" cType="1" res="-3.5267710336484015e-04" rms="4.5190486311912537e-01" purity="5.0148403644561768e-01" nType="0">
        <Node pos="l" depth="1" NCoef="0" IVar="11" Cut="1.5377629089355469e+02" cType="1" res="7.2406977415084839e-02" rms="4.4022366404533386e-01" purity="5.9407472610473633e-01" nType="0">
          <Node pos="l" depth="2" NCoef="0" IVar="-1" Cut="0.0000000000000000e+00" cType="1" res="-1.8204910680651665e-02" rms="4.5075887441635132e-01" purity="3.1951725482940674e-01" nType="-99"/>
          <Node pos="r" depth="2" NCoef="0" IVar="-1" Cut="0.0000000000000000e+00" cType="1" res="3.1566750258207321e-02" rms="4.1614753007888794e-01" purity="7.1771478652954102e-01" nType="-99"/>
        </Node>
        <Node pos="r" depth="1" NCoef="0" IVar="11" Cut="4.6103317260742188e+02" cType="1" res="-6.6627316176891327e-02" rms="4.5221218466758728e-01" purity="4.1714590787887573e-01" nType="0">
          <Node pos="l" depth="2" NCoef="0" IVar="-1" Cut="0.0000000000000000e+00" cType="1" res="-3.5903740674257278e-02" rms="4.1980642080307007e-01" purity="2.6078149676322937e-01" nType="-99"/>
          <Node pos="r" depth="2" NCoef="0" IVar="-1" Cut="0.0000000000000000e+00" cType="1" res="6.6818515770137310e-03" rms="4.6072852611541748e-01" purity="5.6772649288177490e-01" nType="-99"/>
        </Node>
      </Node>
    </BinaryTree>
    <BinaryTree type="DecisionTree" boostWeight="1.0000000000000000e+00" itree="13">
      <Node pos="s" depth="0" NCoef="0" IVar="1" Cut="1.7349990606307983e+00" cType="1" res="6.5969495335593820e-04" rms="4.4890961050987244e-01" purity="5.0196897983551025e-01" nType="0">
        <Node pos="l" depth="1" NCoef="0" IVar="3" Cut="3.7014709472656250e+02" cType="1" res="-4.2229846119880676e-02" rms="4.5236071944236755e-01" purity="4.2646574974060059e-01" nType="0">
          <Node pos="l" depth="2" NCoef="0" IVar="-1" Cut="0.0000000000000000e+00" cType="1" res="1.3209088705480099e-02" rms="4.5156458020210266e-01" purity="5.6343179941177368e-01" nType="-99"/>
          <Node pos="r" depth="2" NCoef="0" IVar="-1" Cut="0.0000000000000000e+00" cType="1" res="-2.0772401243448257e-02" rms="4.4324421882629395e-01" purity="3.5422950983047485e-01" nType="-99"/>
        </Node>
        <Node pos="r" depth="1" NCoef="0" IVar="2" Cut="2.7145903557538986e-02" cType="1" res="9.5053374767303467e-02" rms="4.2628118395805359e-01" purity="6.6814064979553223e-01" nType="0">
          <Node pos="l" depth="2" NCoef="0" IVar="-1" Cut="0.0000000000000000e+00" cType="1" res="-6.1042928136885166e-03" rms="4.4729664921760559e-01" purity="4.9150276184082031e-01" nType="-99"/>
          <Node pos="r" depth="2" NCoef="0" IVar="-1" Cut="0.0000000000000000e+00" cType="1" res="3.2879419624805450e-02" rms="4.0531575679779053e-01" purity="7.4493157863616943e-01" nType="-99"/>
        </Node>
      </Node>
    </BinaryTree>
    <BinaryTree type="DecisionTree" boostWeight="1.0000000000000000e+00" itree="14">
      <Node pos="s" depth="0" NCoef="0" IVar="3" Cut="6.1683410644531250e+02" cType="1" res="5.5180271156132221e-03" rms="4.4672772288322449e-01" purity="5.0783932209014893e-01" nType="0">
        <Node pos="l" depth="1" NCoef="0" IVar="11" Cut="2.8868225097656250e+02" cType="1" res="4.3577231466770172e-02" rms="4.4309222698211670e-01" purity="5.6329858303070068e-01" nType="0">
          <Node pos="l" depth="2" NCoef="0" IVar="-1" Cut="0.0000000000000000e+00" cType="1" res="-9.4701545313000679e-03" rms="4.5637452602386475e-01" purity="3.9403271675109863e-01" nType="-99"/>
          <Node pos="r" depth="2" NCoef="0" IVar="-1" Cut="0.0000000000000000e+00" cType="1" res="2.9471673071384430e-02" rms="4.1112738847732544e-01" purity="7.3211604356765747e-01" nType="-99"/>
        </Node>
        <Node pos="r" depth="1" NCoef="0" IVar="11" Cut="5.3426763916015625e+02" cType="1" res="-1.0928396135568619e-01" rms="4.3792095780372620e-01" purity="3.4055200219154358e-01" nType="0">
          <Node pos="l" depth="2" NCoef="0" IVar="-1" Cut="0.0000000000000000e+00" cType="1" res="-4.4330224394798279e-02" rms="3.7282711267471313e-01" purity="1.7801082134246826e-01" nType="-99"/>
          <Node pos="r" depth="2" NCoef="0" IVar="-1" Cut="0.0000000000000000e+00" cType="1" res="-7.1396818384528160e-03" rms="4.7180667519569397e-01" purity="4.7472211718559265e-01" nType="-99"/>
        </Node>
      </Node>
    </BinaryTree>
    <BinaryTree type="DecisionTree" boostWeight="1.0000000000000000e+00" itree="15">
      <Node pos="s" depth="0" NCoef="0" IVar="8" Cut="6.8172240257263184e-01" cType="1" res="-3.6353275645524263e-03" rms="4.4401988387107849e-01" purity="4.9797579646110535e-01" nType="0">
        <Node pos="l" depth="1" NCoef="0" IVar="11" Cut="3.1088528442382812e+02" cType="1" res="-1.3470578193664551e-01" rms="4.1169574856758118e-01" purity="2.9807201027870178e-01" nType="0">
          <Node pos="l" depth="2" NCoef="0" IVar="-1" Cut="0.0000000000000000e+00" cType="1" res="-4.4689416885375977e-02" rms="3.5621991753578186e-01" purity="1.7113746702671051e-01" nType="-99"/>
          <Node pos="r" depth="2" NCoef="0" IVar="-1" Cut="0.0000000000000000e+00" cType="1" res="-9.4157671555876732e-03" rms="4.6135616302490234e-01" purity="4.7014811635017395e-01" nType="-99"/>
        </Node>
        <Node pos="r" depth="1" NCoef="0" IVar="3" Cut="4.5478625488281250e+02" cType="1" res="2.5724560022354126e-02" rms="4.4568973779678345e-01" purity="5.4275441169738770e-01" nType="0">
          <Node pos="l" depth="2" NCoef="0" IVar="-1" Cut="0.0000000000000000e+00" cType="1" res="2.1954907104372978e-02" rms="4.3168270587921143e-01" purity="6.5364354848861694e-01" nType="-99"/>
          <Node pos="r" depth="2" NCoef="0" IVar="-1" Cut="0.0000000000000000e+00" cType="1" res="-1.0921601206064224e-02" rms="4.4736275076866150e-01" purity="4.2760160565376282e-01" nType="-99"/>
        </Node>
      </Node>
    </BinaryTree>
    <BinaryTree type="DecisionTree" boostWeight="1.0000000000000000e+00" itree="16">
      <Node pos="s" depth="0" NCoef="0" IVar="1" Cut="2.1107227802276611e+00" cType="1" res="-2.9777637682855129e-03" rms="4.4528290629386902e-01" purity="5.0154978036880493e-01" nType="0">
        <Node pos="l" depth="1" NCoef="0" IVar="3" Cut="4.1962255859375000e+02" cType="1" res="-3.3663988113403320e-02" rms="4.5112997293472290e-01" purity="4.3854176998138428e-01" nType="0">
          <Node pos="l" depth="2" NCoef="0" IVar="-1" Cut="0.0000000000000000e+00" cType="1" res="7.2654602117836475e-03" rms="4.5273613929748535e-01" purity="5.5119240283966064e-01" nType="-99"/>
          <Node pos="r" depth="2" NCoef="0" IVar="-1" Cut="0.0000000000000000e+00" cType="1" res="-1.9412580877542496e-02" rms="4.4224399328231812e-01" purity="3.4549346566200256e-01" nType="-99"/>
        </Node>
        <Node pos="r" depth="1" NCoef="0" IVar="2" Cut="2.2823700308799744e-01" cType="1" res="9.7366273403167725e-02" rms="4.0986505150794983e-01" purity="7.0758628845214844e-01" nType="0">
          <Node pos="l" depth="2" NCoef="0" IVar="-1" Cut="0.0000000000000000e+00" cType="1" res="-3.2480610534548759e-03" rms="4.5082607865333557e-01" purity="5.1654660701751709e-01" nType="-99"/>
          <Node pos="r" depth="2" NCoef="0" IVar="-1" Cut="0.0000000000000000e+00" cType="1" res="3.6050893366336823e-02" rms="3.7436389923095703e-01" purity="8.0550956726074219e-01" nType="-99"/>
        </Node>
      </Node>
    </BinaryTree>
    <BinaryTree type="DecisionTree" boostWeight="1.0000000000000000e+00" itree="17">
      <Node pos="s" depth="0" NCoef="0" IVar="11" Cut="4.2976095581054688e+02" cType="1" res="3.7896116264164448e-03" rms="4.4204416871070862e-01" purity="5.0508576631546021e-01" nType="0">
        <Node pos="l" depth="1" NCoef="0" IVar="3" Cut="3.9309738159179688e+02" cType="1" res="-4.2197804898023605e-02" rms="4.4511073827743530e-01" purity="4.0667909383773804e-01" nType="0">
          <Node pos="l" depth="2" NCoef="0" IVar="-1" Cut="0.0000000000000000e+00" cType="1" res="5.7556168176233768e-03" rms="4.5449498295783997e-01" purity="5.2157729864120483e-01" nType="-99"/>
          <Node pos="r" depth="2" NCoef="0" IVar="-1" Cut="0.0000000000000000e+00" cType="1" res="-2.6027537882328033e-02" rms="4.2195895314216614e-01" purity="2.8094714879989624e-01" nType="-99"/>
        </Node>
        <Node pos="r" depth="1" NCoef="0" IVar="3" Cut="8.0023107910156250e+02" cType="1" res="7.1973696351051331e-02" rms="4.2846786975860596e-01" purity="6.5099012851715088e-01" nType="0">
          <Node pos="l" depth="2" NCoef="0" IVar="-1" Cut="0.0000000000000000e+00" cType="1" res="2.8018323704600334e-02" rms="4.0665909647941589e-01" purity="7.3628163337707520e-01" nType="-99"/>
          <Node pos="r" depth="2" NCoef="0" IVar="-1" Cut="0.0000000000000000e+00" cType="1" res="-2.2441070526838303e-02" rms="4.5600920915603638e-01" purity="3.4945315122604370e-01" nType="-99"/>
        </Node>
      </Node>
    </BinaryTree>
    <BinaryTree type="DecisionTree" boostWeight="1.0000000000000000e+00" itree="18">
      <Node pos="s" depth="0" NCoef="0" IVar="11" Cut="2.1507978820800781e+02" cType="1" res="-7.8595569357275963e-03" rms="4.4193911552429199e-01" purity="4.9421575665473938e-01" nType="0">
        <Node pos="l" depth="1" NCoef="0" IVar="8" Cut="8.7561362981796265e-01" cType="1" res="-1.0340026021003723e-01" rms="4.4070857763290405e-01" purity="3.0982008576393127e-01" nType="0">
          <Node pos="l" depth="2" NCoef="0" IVar="-1" Cut="0.0000000000000000e+00" cType="1" res="-4.3518338352441788e-02" rms="3.8963598012924194e-01" purity="1.8884578347206116e-01" nType="-99"/>
          <Node pos="r" depth="2" NCoef="0" IVar="-1" Cut="0.0000000000000000e+00" cType="1" res="-4.4656707905232906e-03" rms="4.6551394462585449e-01" purity="4.1542071104049683e-01" nType="-99"/>
        </Node>
        <Node pos="r" depth="1" NCoef="0" IVar="3" Cut="5.2279614257812500e+02" cType="1" res="3.3508569002151489e-02" rms="4.3602386116981506e-01" purity="5.7405716180801392e-01" nType="0">
          <Node pos="l" depth="2" NCoef="0" IVar="-1" Cut="0.0000000000000000e+00" cType="1" res="2.2792816162109375e-02" rms="4.1153168678283691e-01" purity="7.1159428358078003e-01" nType="-99"/>
          <Node pos="r" depth="2" NCoef="0" IVar="-1" Cut="0.0000000000000000e+00" cType="1" res="-9.2739313840866089e-03" rms="4.5137622952461243e-01" purity="4.1363039612770081e-01" nType="-99"/>
        </Node>
      </Node>
    </BinaryTree>
    <BinaryTree type="DecisionTree" boostWeight="1.0000000000000000e+00" itree="19">
      <Node pos="s" depth="0" NCoef="0" IVar="11" Cut="2.9014660644531250e+02" cType="1" res="3.7072345148772001e-03" rms="4.3758621811866760e-01" purity="5.0571191310882568e-01" nType="0">
        <Node pos="l" depth="1" NCoef="0" IVar="3" Cut="3.5271362304687500e+02" cType="1" res="-5.7006854563951492e-02" rms="4.3989157676696777e-01" purity="3.5936900973320007e-01" nType="0">
          <Node pos="l" depth="2" NCoef="0" IVar="-1" Cut="0.0000000000000000e+00" cType="1" res="5.0056446343660355e-03" rms="4.6161967515945435e-01" purity="4.8498192429542542e-01" nType="-99"/>
          <Node pos="r" depth="2" NCoef="0" IVar="-1" Cut="0.0000000000000000e+00" cType="1" res="-3.0118295922875404e-02" rms="4.0332251787185669e-01" purity="2.3902304470539093e-01" nType="-99"/>
        </Node>
        <Node pos="r" depth="1" NCoef="0" IVar="3" Cut="7.0099609375000000e+02" cType="1" res="4.8206865787506104e-02" rms="4.3048465251922607e-01" purity="6.1297208070755005e-01" nType="0">
          <Node pos="l" depth="2" NCoef="0" IVar="-1" Cut="0.0000000000000000e+00" cType="1" res="2.2116146981716156e-02" rms="4.1549772024154663e-01" purity="7.0559298992156982e-01" nType="-99"/>
          <Node pos="r" depth="2" NCoef="0" IVar="-1" Cut="0.0000000000000000e+00" cType="1" res="-1.8614968284964561e-02" rms="4.4432193040847778e-01" purity="3.4931641817092896e-01" nType="-99"/>
        </Node>
      </Node>
    </BinaryTree>
    <BinaryTree type="DecisionTree" boostWeight="1.0000000000000000e+00" itree="20">
      <Node pos="s" depth="0" NCoef="0" IVar="8" Cut="8.7557935714721680e-01" cType="1" res="-8.3360597491264343e-03" rms="4.3717256188392639e-01" purity="4.9405694007873535e-01" nType="0">
        <Node pos="l" depth="1" NCoef="0" IVar="11" Cut="1.8413735961914062e+02" cType="1" res="-8.4545865654945374e-02" rms="4.3119141459465027e-01" purity="3.6949369311332703e-01" nType="0">
          <Node pos="l" depth="2" NCoef="0" IVar="-1" Cut="0.0000000000000000e+00" cType="1" res="-4.2191091924905777e-02" rms="3.7121769785881042e-01" purity="1.6815115511417389e-01" nType="-99"/>
          <Node pos="r" depth="2" NCoef="0" IVar="-1" Cut="0.0000000000000000e+00" cType="1" res="-8.1769702956080437e-03" rms="4.4912385940551758e-01" purity="4.6562093496322632e-01" nType="-99"/>
        </Node>
        <Node pos="r" depth="1" NCoef="0" IVar="3" Cut="5.0286532592773438e+02" cType="1" res="3.8978818804025650e-02" rms="4.3416574597358704e-01" purity="5.7139199972152710e-01" nType="0">
          <Node pos="l" depth="2" NCoef="0" IVar="-1" Cut="0.0000000000000000e+00" cType="1" res="2.1824069321155548e-02" rms="4.1835939884185791e-01" purity="6.7686736583709717e-01" nType="-99"/>
          <Node pos="r" depth="2" NCoef="0" IVar="-1" Cut="0.0000000000000000e+00" cType="1" res="-9.1253425925970078e-03" rms="4.4382297992706299e-01" purity="4.2022046446800232e-01" nType="-99"/>
        </Node>
      </Node>
    </BinaryTree>
    <BinaryTree type="DecisionTree" boostWeight="1.0000000000000000e+00" itree="21">
      <Node pos="s" depth="0" NCoef="0" IVar="8" Cut="8.8715267181396484e-01" cType="1" res="1.9986156257800758e-04" rms="4.3434381484985352e-01" purity="5.0182801485061646e-01" nType="0">
        <Node pos="l" depth="1" NCoef="0" IVar="11" Cut="4.9124093627929688e+02" cType="1" res="-6.4438752830028534e-02" rms="4.2948195338249207e-01" purity="3.8294771313667297e-01" nType="0">
          <Node pos="l" depth="2" NCoef="0" IVar="-1" Cut="0.0000000000000000e+00" cType="1" res="-2.4700850248336792e-02" rms="4.1565296053886414e-01" purity="2.9053270816802979e-01" nType="-99"/>
          <Node pos="r" depth="2" NCoef="0" IVar="-1" Cut="0.0000000000000000e+00" cType="1" res="8.8729271665215492e-03" rms="4.4387134909629822e-01" purity="6.0341757535934448e-01" nType="-99"/>
        </Node>
        <Node pos="r" depth="1" NCoef="0" IVar="3" Cut="4.1940905761718750e+02" cType="1" res="4.1822422295808792e-02" rms="4.3236100673675537e-01" purity="5.7837820053100586e-01" nType="0">
          <Node pos="l" depth="2" NCoef="0" IVar="-1" Cut="0.0000000000000000e+00" cType="1" res="2.5578733533620834e-02" rms="4.0960535407066345e-01" purity="7.1501678228378296e-01" nType="-99"/>
          <Node pos="r" depth="2" NCoef="0" IVar="-1" Cut="0.0000000000000000e+00" cType="1" res="-2.3111342452466488e-03" rms="4.4200074672698975e-01" purity="4.7365009784698486e-01" nType="-99"/>
        </Node>
      </Node>
    </BinaryTree>
    <BinaryTree type="DecisionTree" boostWeight="1.0000000000000000e+00" itree="22">
      <Node pos="s" depth="0" NCoef="0" IVar="11" Cut="4.2653619384765625e+02" cType="1" res="-3.4332107752561569e-03" rms="4.3170574307441711e-01" purity="4.9625590443611145e-01" nType="0">
        <Node pos="l" depth="1" NCoef="0" IVar="3" Cut="3.6376229858398438e+02" cType="1" res="-4.5305643230676651e-02" rms="4.3470865488052368e-01" purity="3.9363747835159302e-01" nType="0">
          <Node pos="l" depth="2" NCoef="0" IVar="-1" Cut="0.0000000000000000e+00" cType="1" res="5.3986688144505024e-03" rms="4.4743570685386658e-01" purity="5.2690136432647705e-01" nType="-99"/>
          <Node pos="r" depth="2" NCoef="0" IVar="-1" Cut="0.0000000000000000e+00" cType="1" res="-2.3098705336451530e-02" rms="4.1605922579765320e-01" purity="2.8751716017723083e-01" nType="-99"/>
        </Node>
        <Node pos="r" depth="1" NCoef="0" IVar="3" Cut="6.9761035156250000e+02" cType="1" res="5.9591367840766907e-02" rms="4.1933602094650269e-01" purity="6.5071266889572144e-01" nType="0">
          <Node pos="l" depth="2" NCoef="0" IVar="-1" Cut="0.0000000000000000e+00" cType="1" res="2.6010984554886818e-02" rms="3.8990551233291626e-01" purity="7.6451659202575684e-01" nType="-99"/>
          <Node pos="r" depth="2" NCoef="0" IVar="-1" Cut="0.0000000000000000e+00" cType="1" res="-9.9150901660323143e-03" rms="4.6055114269256592e-01" purity="4.0046426653862000e-01" nType="-99"/>
        </Node>
      </Node>
    </BinaryTree>
    <BinaryTree type="DecisionTree" boostWeight="1.0000000000000000e+00" itree="23">
      <Node pos="s" depth="0" NCoef="0" IVar="11" Cut="1.8850978088378906e+02" cType="1" res="-5.9885489754378796e-03" rms="4.3223208189010620e-01" purity="4.9596369266510010e-01" nType="0">
        <Node pos="l" depth="1" NCoef="0" IVar="8" Cut="9.7974562644958496e-01" cType="1" res="-9.5871388912200928e-02" rms="4.1989126801490784e-01" purity="2.8585690259933472e-01" nType="0">
          <Node pos="l" depth="2" NCoef="0" IVar="-1" Cut="0.0000000000000000e+00" cType="1" res="-3.1654339283704758e-02" rms="3.9273545145988464e-01" purity="2.2095598280429840e-01" nType="-99"/>
          <Node pos="r" depth="2" NCoef="0" IVar="-1" Cut="0.0000000000000000e+00" cType="1" res="2.0701121538877487e-03" rms="4.6416339278221130e-01" purity="4.4699397683143616e-01" nType="-99"/>
        </Node>
        <Node pos="r" depth="1" NCoef="0" IVar="3" Cut="5.9916784667968750e+02" cType="1" res="2.5569939985871315e-02" rms="4.3206974864006042e-01" purity="5.6973361968994141e-01" nType="0">
          <Node pos="l" depth="2" NCoef="0" IVar="-1" Cut="0.0000000000000000e+00" cType="1" res="1.5098271891474724e-02" rms="4.2339408397674561e-01" purity="6.6794317960739136e-01" nType="-99"/>
          <Node pos="r" depth="2" NCoef="0" IVar="-1" Cut="0.0000000000000000e+00" cType="1" res="-1.1755451560020447e-02" rms="4.3913641571998596e-01" purity="3.6951473355293274e-01" nType="-99"/>
        </Node>
      </Node>
    </BinaryTree>
    <BinaryTree type="DecisionTree" boostWeight="1.0000000000000000e+00" itree="24">
      <Node pos="s" depth="0" NCoef="0" IVar="4" Cut="1.3037429809570312e+02" cType="1" res="2.3493408225476742e-03" rms="4.2935463786125183e-01" purity="5.0317394733428955e-01" nType="0">
        <Node pos="l" depth="1" NCoef="0" IVar="8" Cut="7.0781505107879639e-01" cType="1" res="1.3196037150919437e-02" rms="4.2915967106819153e-01" purity="5.1800328493118286e-01" nType="0">
          <Node pos="l" depth="2" NCoef="0" IVar="-1" Cut="0.0000000000000000e+00" cType="1" res="-1.8139861524105072e-02" rms="4.1485816240310669e-01" purity="3.3168080449104309e-01" nType="-99"/>
          <Node pos="r" depth="2" NCoef="0" IVar="-1" Cut="0.0000000000000000e+00" cType="1" res="8.3051426336169243e-03" rms="4.2970329523086548e-01" purity="5.6461095809936523e-01" nType="-99"/>
        </Node>
        <Node pos="r" depth="1" NCoef="0" IVar="-1" Cut="0.0000000000000000e+00" cType="1" res="-4.0492359548807144e-02" rms="3.9143973588943481e-01" purity="2.5883579254150391e-01" nType="-99"/>
      </Node>
    </BinaryTree>
    <BinaryTree type="DecisionTree" boostWeight="1.0000000000000000e+00" itree="25">
      <Node pos="s" depth="0" NCoef="0" IVar="2" Cut="2.9857763648033142e-01" cType="1" res="-1.3391139218583703e-03" rms="4.3036174774169922e-01" purity="5.0069195032119751e-01" nType="0">
        <Node pos="l" depth="1" NCoef="0" IVar="3" Cut="4.1899624633789062e+02" cType="1" res="-3.6614090204238892e-02" rms="4.3317931890487671e-01" purity="4.3458411097526550e-01" nType="0">
          <Node pos="l" depth="2" NCoef="0" IVar="-1" Cut="0.0000000000000000e+00" cType="1" res="2.9401944484561682e-03" rms="4.3715387582778931e-01" purity="5.4330551624298096e-01" nType="-99"/>
          <Node pos="r" depth="2" NCoef="0" IVar="-1" Cut="0.0000000000000000e+00" cType="1" res="-1.9458502531051636e-02" rms="4.2382553219795227e-01" purity="3.2895126938819885e-01" nType="-99"/>
        </Node>
        <Node pos="r" depth="1" NCoef="0" IVar="1" Cut="1.2587248086929321e+00" cType="1" res="5.5560477077960968e-02" rms="4.1957351565361023e-01" purity="6.0732585191726685e-01" nType="0">
          <Node pos="l" depth="2" NCoef="0" IVar="-1" Cut="0.0000000000000000e+00" cType="1" res="-1.4576236717402935e-03" rms="4.4256171584129333e-01" purity="4.3311429023742676e-01" nType="-99"/>
          <Node pos="r" depth="2" NCoef="0" IVar="-1" Cut="0.0000000000000000e+00" cType="1" res="2.4402769282460213e-02" rms="3.9597558975219727e-01" purity="7.3410195112228394e-01" nType="-99"/>
        </Node>
      </Node>
    </BinaryTree>
    <BinaryTree type="DecisionTree" boostWeight="1.0000000000000000e+00" itree="26">
      <Node pos="s" depth="0" NCoef="0" IVar="12" Cut="1.8630503416061401e+00" cType="1" res="3.7614893517456949e-04" rms="4.2802363634109497e-01" purity="5.0033646821975708e-01" nType="0">
        <Node pos="l" depth="1" NCoef="0" IVar="10" Cut="-4.6089156530797482e-03" cType="1" res="-9.6798382699489594e-02" rms="4.0958413481712341e-01" purity="3.4280940890312195e-01" nType="0">
          <Node pos="l" depth="2" NCoef="0" IVar="-1" Cut="0.0000000000000000e+00" cType="1" res="-3.9144277572631836e-02" rms="3.7782597541809082e-01" purity="2.5270795822143555e-01" nType="-99"/>
          <Node pos="r" depth="2" NCoef="0" IVar="-1" Cut="0.0000000000000000e+00" cType="1" res="-7.8598912805318832e-03" rms="4.2596194148063660e-01" purity="4.2270946502685547e-01" nType="-99"/>
        </Node>
        <Node pos="r" depth="1" NCoef="0" IVar="2" Cut="1.3571719825267792e-01" cType="1" res="2.4123908951878548e-02" rms="4.2907702922821045e-01" purity="5.3883337974548340e-01" nType="0">
          <Node pos="l" depth="2" NCoef="0" IVar="-1" Cut="0.0000000000000000e+00" cType="1" res="-4.1680471040308475e-03" rms="4.3082401156425476e-01" purity="4.6464315056800842e-01" nType="-99"/>
          <Node pos="r" depth="2" NCoef="0" IVar="-1" Cut="0.0000000000000000e+00" cType="1" res="1.6999820247292519e-02" rms="4.2200782895088196e-01" purity="6.2340050935745239e-01" nType="-99"/>
        </Node>
      </Node>
    </BinaryTree>
    <BinaryTree type="DecisionTree" boostWeight="1.0000000000000000e+00" itree="27">
      <Node pos="s" depth="0" NCoef="0" IVar="7" Cut="1.0125291347503662e+00" cType="1" res="-3.6012060008943081e-03" rms="4.2669418454170227e-01" purity="4.9779897928237915e-01" nType="0">
        <Node pos="l" depth="1" NCoef="0" IVar="12" Cut="2.3578362464904785e+00" cType="1" res="-6.2575958669185638e-02" rms="4.2490735650062561e-01" purity="2.8831037878990173e-01" nType="0">
          <Node pos="l" depth="2" NCoef="0" IVar="-1" Cut="0.0000000000000000e+00" cType="1" res="-2.5636432692408562e-02" rms="3.9259812235832214e-01" purity="2.2343197464942932e-01" nType="-99"/>
          <Node pos="r" depth="2" NCoef="0" IVar="-1" Cut="0.0000000000000000e+00" cType="1" res="-7.2127929888665676e-03" rms="4.4219225645065308e-01" purity="3.3094131946563721e-01" nType="-99"/>
        </Node>
        <Node pos="r" depth="1" NCoef="0" IVar="11" Cut="1.8684703063964844e+02" cType="1" res="2.8653167188167572e-02" rms="4.2421409487724304e-01" purity="6.1237221956253052e-01" nType="0">
          <Node pos="l" depth="2" NCoef="0" IVar="-1" Cut="0.0000000000000000e+00" cType="1" res="-1.2628925032913685e-02" rms="4.3784797191619873e-01" purity="3.5452911257743835e-01" nType="-99"/>
          <Node pos="r" depth="2" NCoef="0" IVar="-1" Cut="0.0000000000000000e+00" cType="1" res="1.2036880478262901e-02" rms="4.1809156537055969e-01" purity="6.7599052190780640e-01" nType="-99"/>
        </Node>
      </Node>
    </BinaryTree>
    <BinaryTree type="DecisionTree" boostWeight="1.0000000000000000e+00" itree="28">
      <Node pos="s" depth="0" NCoef="0" IVar="10" Cut="-1.1641466058790684e-02" cType="1" res="-1.9281251297798008e-04" rms="4.2818582057952881e-01" purity="5.0241786241531372e-01" nType="0">
        <Node pos="l" depth="1" NCoef="0" IVar="3" Cut="6.8474993896484375e+02" cType="1" res="-5.3586047142744064e-02" rms="4.2788758873939514e-01" purity="4.2936259508132935e-01" nType="0">
          <Node pos="l" depth="2" NCoef="0" IVar="-1" Cut="0.0000000000000000e+00" cType="1" res="-7.5525343418121338e-03" rms="4.3421375751495361e-01" purity="4.7661760449409485e-01" nType="-99"/>
          <Node pos="r" depth="2" NCoef="0" IVar="-1" Cut="0.0000000000000000e+00" cType="1" res="-3.4471303224563599e-02" rms="3.8559272885322571e-01" purity="2.2401961684226990e-01" nType="-99"/>
        </Node>
        <Node pos="r" depth="1" NCoef="0" IVar="11" Cut="6.1026495361328125e+02" cType="1" res="3.7670504301786423e-02" rms="4.2434522509574890e-01" purity="5.5422437191009521e-01" nType="0">
          <Node pos="l" depth="2" NCoef="0" IVar="-1" Cut="0.0000000000000000e+00" cType="1" res="2.1087916102260351e-03" rms="4.3412226438522339e-01" purity="4.8329722881317139e-01" nType="-99"/>
          <Node pos="r" depth="2" NCoef="0" IVar="-1" Cut="0.0000000000000000e+00" cType="1" res="2.7184361591935158e-02" rms="3.8880875706672668e-01" purity="7.3549830913543701e-01" nType="-99"/>
        </Node>
      </Node>
    </BinaryTree>
    <BinaryTree type="DecisionTree" boostWeight="1.0000000000000000e+00" itree="29">
      <Node pos="s" depth="0" NCoef="0" IVar="10" Cut="-1.2700998224318027e-02" cType="1" res="7.8050588490441442e-04" rms="4.2497909069061279e-01" purity="5.0002282857894897e-01" nType="0">
        <Node pos="l" depth="1" NCoef="0" IVar="3" Cut="3.6189874267578125e+02" cType="1" res="-4.5894175767898560e-02" rms="4.2321127653121948e-01" purity="4.2574363946914673e-01" nType="0">
          <Node pos="l" depth="2" NCoef="0" IVar="-1" Cut="0.0000000000000000e+00" cType="1" res="4.6292445622384548e-03" rms="4.3078008294105530e-01" purity="5.5321836471557617e-01" nType="-99"/>
          <Node pos="r" depth="2" NCoef="0" IVar="-1" Cut="0.0000000000000000e+00" cType="1" res="-1.8432527780532837e-02" rms="4.1577145457267761e-01" purity="3.6392354965209961e-01" nType="-99"/>
        </Node>
        <Node pos="r" depth="1" NCoef="0" IVar="8" Cut="7.3379796743392944e-01" cType="1" res="3.3628161996603012e-02" rms="4.2314341664314270e-01" purity="5.5229747295379639e-01" nType="0">
          <Node pos="l" depth="2" NCoef="0" IVar="-1" Cut="0.0000000000000000e+00" cType="1" res="-1.2772304005920887e-02" rms="4.1540977358818054e-01" purity="3.6197555065155029e-01" nType="-99"/>
          <Node pos="r" depth="2" NCoef="0" IVar="-1" Cut="0.0000000000000000e+00" cType="1" res="1.3899723067879677e-02" rms="4.2202657461166382e-01" purity="6.0657942295074463e-01" nType="-99"/>
        </Node>
      </Node>
    </BinaryTree>
    <BinaryTree type="DecisionTree" boostWeight="1.0000000000000000e+00" itree="30">
      <Node pos="s" depth="0" NCoef="0" IVar="1" Cut="1.4231673479080200e+00" cType="1" res="9.8000315483659506e-04" rms="4.2549815773963928e-01" purity="5.0135022401809692e-01" nType="0">
        <Node pos="l" depth="1" NCoef="0" IVar="3" Cut="3.6047067260742188e+02" cType="1" res="-3.0311083421111107e-02" rms="4.3126580119132996e-01" purity="4.1335627436637878e-01" nType="0">
          <Node pos="l" depth="2" NCoef="0" IVar="-1" Cut="0.0000000000000000e+00" cType="1" res="7.1547590196132660e-03" rms="4.3337267637252808e-01" purity="5.5063277482986450e-01" nType="-99"/>
          <Node pos="r" depth="2" NCoef="0" IVar="-1" Cut="0.0000000000000000e+00" cType="1" res="-1.4213982038199902e-02" rms="4.2701306939125061e-01" purity="3.4556511044502258e-01" nType="-99"/>
        </Node>
        <Node pos="r" depth="1" NCoef="0" IVar="2" Cut="7.7881194651126862e-02" cType="1" res="5.0575256347656250e-02" rms="4.1134530305862427e-01" purity="6.4081746339797974e-01" nType="0">
          <Node pos="l" depth="2" NCoef="0" IVar="-1" Cut="0.0000000000000000e+00" cType="1" res="-4.5180302113294601e-03" rms="4.2754602432250977e-01" purity="4.8648613691329956e-01" nType="-99"/>
          <Node pos="r" depth="2" NCoef="0" IVar="-1" Cut="0.0000000000000000e+00" cType="1" res="2.2934334352612495e-02" rms="3.9537239074707031e-01" purity="7.3374778032302856e-01" nType="-99"/>
        </Node>
      </Node>
    </BinaryTree>
    <BinaryTree type="DecisionTree" boostWeight="1.0000000000000000e+00" itree="31">
      <Node pos="s" depth="0" NCoef="0" IVar="11" Cut="5.6746008300781250e+02" cType="1" res="-3.4502537455409765e-03" rms="4.2505049705505371e-01" purity="4.9703741073608398e-01" nType="0">
        <Node pos="l" depth="1" NCoef="0" IVar="3" Cut="4.1123403930664062e+02" cType="1" res="-2.8349533677101135e-02" rms="4.2985454201698303e-01" purity="4.2554306983947754e-01" nType="0">
          <Node pos="l" depth="2" NCoef="0" IVar="-1" Cut="0.0000000000000000e+00" cType="1" res="2.6970619801431894e-03" rms="4.3942520022392273e-01" purity="5.3607845306396484e-01" nType="-99"/>
          <Node pos="r" depth="2" NCoef="0" IVar="-1" Cut="0.0000000000000000e+00" cType="1" res="-1.7575880512595177e-02" rms="4.1426765918731689e-01" purity="3.0143392086029053e-01" nType="-99"/>
        </Node>
        <Node pos="r" depth="1" NCoef="0" IVar="3" Cut="8.9134063720703125e+02" cType="1" res="5.9315603226423264e-02" rms="4.0597131848335266e-01" purity="6.7725962400436401e-01" nType="0">
          <Node pos="l" depth="2" NCoef="0" IVar="-1" Cut="0.0000000000000000e+00" cType="1" res="2.2196980193257332e-02" rms="3.9042958617210388e-01" purity="7.4972665309906006e-01" nType="-99"/>
          <Node pos="r" depth="2" NCoef="0" IVar="-1" Cut="0.0000000000000000e+00" cType="1" res="-1.5222313813865185e-02" rms="4.4802415370941162e-01" purity="3.5003587603569031e-01" nType="-99"/>
        </Node>
      </Node>
    </BinaryTree>
    <BinaryTree type="DecisionTree" boostWeight="1.0000000000000000e+00" itree="32">
      <Node pos="s" depth="0" NCoef="0" IVar="11" Cut="2.0508914184570312e+02" cType="1" res="1.3385950587689877e-03" rms="4.2449572682380676e-01" purity="5.0044745206832886e-01" nType="0">
        <Node pos="l" depth="1" NCoef="0" IVar="3" Cut="3.3079898071289062e+02" cType="1" res="-6.2087375670671463e-02" rms="4.1969704627990723e-01" purity="3.0377808213233948e-01" nType="0">
          <Node pos="l" depth="2" NCoef="0" IVar="-1" Cut="0.0000000000000000e+00" cType="1" res="-2.2700338158756495e-03" rms="4.4819542765617371e-01" purity="4.0142211318016052e-01" nType="-99"/>
          <Node pos="r" depth="2" NCoef="0" IVar="-1" Cut="0.0000000000000000e+00" cType="1" res="-2.8975028544664383e-02" rms="3.7866806983947754e-01" purity="1.9831275939941406e-01" nType="-99"/>
        </Node>
        <Node pos="r" depth="1" NCoef="0" IVar="3" Cut="5.8544299316406250e+02" cType="1" res="2.6728784665465355e-02" rms="4.2374902963638306e-01" purity="5.7917660474777222e-01" nType="0">
          <Node pos="l" depth="2" NCoef="0" IVar="-1" Cut="0.0000000000000000e+00" cType="1" res="1.5850378200411797e-02" rms="4.1213855147361755e-01" purity="6.9211173057556152e-01" nType="-99"/>
          <Node pos="r" depth="2" NCoef="0" IVar="-1" Cut="0.0000000000000000e+00" cType="1" res="-9.1488966718316078e-03" rms="4.3585148453712463e-01" purity="3.7889373302459717e-01" nType="-99"/>
        </Node>
      </Node>
    </BinaryTree>
    <BinaryTree type="DecisionTree" boostWeight="1.0000000000000000e+00" itree="33">
      <Node pos="s" depth="0" NCoef="0" IVar="4" Cut="1.3273199462890625e+02" cType="1" res="8.3941093180328608e-04" rms="4.2396771907806396e-01" purity="5.0413656234741211e-01" nType="0">
        <Node pos="l" depth="1" NCoef="0" IVar="12" Cut="1.8180259466171265e+00" cType="1" res="1.0266835801303387e-02" rms="4.2392310500144958e-01" purity="5.1885783672332764e-01" nType="0">
          <Node pos="l" depth="2" NCoef="0" IVar="-1" Cut="0.0000000000000000e+00" cType="1" res="-1.7732731997966766e-02" rms="4.1515070199966431e-01" purity="3.6692774295806885e-01" nType="-99"/>
          <Node pos="r" depth="2" NCoef="0" IVar="-1" Cut="0.0000000000000000e+00" cType="1" res="6.7877387627959251e-03" rms="4.2362678050994873e-01" purity="5.5130159854888916e-01" nType="-99"/>
        </Node>
        <Node pos="r" depth="1" NCoef="0" IVar="-1" Cut="0.0000000000000000e+00" cType="1" res="-4.0290087461471558e-02" rms="3.8862583041191101e-01" purity="2.4370345473289490e-01" nType="-99"/>
      </Node>
    </BinaryTree>
    <BinaryTree type="DecisionTree" boostWeight="1.0000000000000000e+00" itree="34">
      <Node pos="s" depth="0" NCoef="0" IVar="8" Cut="7.7141344547271729e-01" cType="1" res="3.3723551314324141e-04" rms="4.2379242181777954e-01" purity="5.0436341762542725e-01" nType="0">
        <Node pos="l" depth="1" NCoef="0" IVar="2" Cut="5.0714379549026489e-01" cType="1" res="-6.2373548746109009e-02" rms="4.1640162467956543e-01" purity="3.4750247001647949e-01" nType="0">
          <Node pos="l" depth="2" NCoef="0" IVar="-1" Cut="0.0000000000000000e+00" cType="1" res="-2.2592732682824135e-02" rms="4.1054049134254456e-01" purity="2.8479027748107910e-01" nType="-99"/>
          <Node pos="r" depth="2" NCoef="0" IVar="-1" Cut="0.0000000000000000e+00" cType="1" res="5.5521489121019840e-03" rms="4.2127174139022827e-01" purity="5.2824598550796509e-01" nType="-99"/>
        </Node>
        <Node pos="r" depth="1" NCoef="0" IVar="3" Cut="4.1427429199218750e+02" cType="1" res="2.1786415949463844e-02" rms="4.2416834831237793e-01" purity="5.5801510810852051e-01" nType="0">
          <Node pos="l" depth="2" NCoef="0" IVar="-1" Cut="0.0000000000000000e+00" cType="1" res="1.6589470207691193e-02" rms="4.1141831874847412e-01" purity="6.8638479709625244e-01" nType="-99"/>
          <Node pos="r" depth="2" NCoef="0" IVar="-1" Cut="0.0000000000000000e+00" cType="1" res="-3.0772380996495485e-03" rms="4.3028143048286438e-01" purity="4.6124950051307678e-01" nType="-99"/>
        </Node>
      </Node>
    </BinaryTree>
    <BinaryTree type="DecisionTree" boostWeight="1.0000000000000000e+00" itree="35">
      <Node pos="s" depth="0" NCoef="0" IVar="4" Cut="1.2416604614257812e+02" cType="1" res="2.4541988968849182e-03" rms="4.2507553100585938e-01" purity="5.0679343938827515e-01" nType="0">
        <Node pos="l" depth="1" NCoef="0" IVar="8" Cut="9.1898185014724731e-01" cType="1" res="1.1866070330142975e-02" rms="4.2516100406646729e-01" purity="5.2306258678436279e-01" nType="0">
          <Node pos="l" depth="2" NCoef="0" IVar="-1" Cut="0.0000000000000000e+00" cType="1" res="-6.1801685951650143e-03" rms="4.3014961481094360e-01" purity="4.2944377660751343e-01" nType="-99"/>
          <Node pos="r" depth="2" NCoef="0" IVar="-1" Cut="0.0000000000000000e+00" cType="1" res="9.6933282911777496e-03" rms="4.1914743185043335e-01" purity="5.9391564130783081e-01" nType="-99"/>
        </Node>
        <Node pos="r" depth="1" NCoef="0" IVar="-1" Cut="0.0000000000000000e+00" cType="1" res="-2.9923425987362862e-02" rms="4.0371051430702209e-01" purity="2.9110777378082275e-01" nType="-99"/>
      </Node>
    </BinaryTree>
    <BinaryTree type="DecisionTree" boostWeight="1.0000000000000000e+00" itree="36">
      <Node pos="s" depth="0" NCoef="0" IVar="10" Cut="-1.0565515756607056e+00" cType="1" res="-8.9023658074438572e-04" rms="4.2093610763549805e-01" purity="4.9894675612449646e-01" nType="0">
        <Node pos="l" depth="1" NCoef="0" IVar="8" Cut="9.4793236255645752e-01" cType="1" res="-9.6145607531070709e-02" rms="4.1208258271217346e-01" purity="3.6604261398315430e-01" nType="0">
          <Node pos="l" depth="2" NCoef="0" IVar="-1" Cut="0.0000000000000000e+00" cType="1" res="-3.5506710410118103e-02" rms="3.9225721359252930e-01" purity="2.7414575219154358e-01" nType="-99"/>
          <Node pos="r" depth="2" NCoef="0" IVar="-1" Cut="0.0000000000000000e+00" cType="1" res="-7.2874305769801140e-03" rms="4.2789411544799805e-01" purity="4.8621767759323120e-01" nType="-99"/>
        </Node>
        <Node pos="r" depth="1" NCoef="0" IVar="8" Cut="5.9206175804138184e-01" cType="1" res="1.6551265493035316e-02" rms="4.2020472884178162e-01" purity="5.2328187227249146e-01" nType="0">
          <Node pos="l" depth="2" NCoef="0" IVar="-1" Cut="0.0000000000000000e+00" cType="1" res="-2.0052082836627960e-02" rms="4.0066128969192505e-01" purity="2.9979610443115234e-01" nType="-99"/>
          <Node pos="r" depth="2" NCoef="0" IVar="-1" Cut="0.0000000000000000e+00" cType="1" res="6.7054256796836853e-03" rms="4.2096549272537231e-01" purity="5.4890406131744385e-01" nType="-99"/>
        </Node>
      </Node>
    </BinaryTree>
    <BinaryTree type="DecisionTree" boostWeight="1.0000000000000000e+00" itree="37">
      <Node pos="s" depth="0" NCoef="0" IVar="11" Cut="6.3081457519531250e+02" cType="1" res="3.9602327160537243e-04" rms="4.2120137810707092e-01" purity="5.0296843051910400e-01" nType="0">
        <Node pos="l" depth="1" NCoef="0" IVar="12" Cut="1.8786425590515137e+00" cType="1" res="-2.1113948896527290e-02" rms="4.2700859904289246e-01" purity="4.4100069999694824e-01" nType="0">
          <Node pos="l" depth="2" NCoef="0" IVar="-1" Cut="0.0000000000000000e+00" cType="1" res="-2.5157295167446136e-02" rms="4.0220585465431213e-01" purity="2.8436675667762756e-01" nType="-99"/>
          <Node pos="r" depth="2" NCoef="0" IVar="-1" Cut="0.0000000000000000e+00" cType="1" res="-6.9302279734984040e-04" rms="4.3029683828353882e-01" purity="4.7622194886207581e-01" nType="-99"/>
        </Node>
        <Node pos="r" depth="1" NCoef="0" IVar="3" Cut="7.8498437500000000e+02" cType="1" res="6.7021146416664124e-02" rms="3.9532458782196045e-01" purity="6.9490772485733032e-01" nType="0">
          <Node pos="l" depth="2" NCoef="0" IVar="-1" Cut="0.0000000000000000e+00" cType="1" res="2.7907546609640121e-02" rms="3.6216044425964355e-01" purity="8.0559355020523071e-01" nType="-99"/>
          <Node pos="r" depth="2" NCoef="0" IVar="-1" Cut="0.0000000000000000e+00" cType="1" res="-7.2508533485233784e-03" rms="4.5782229304313660e-01" purity="3.9996725320816040e-01" nType="-99"/>
        </Node>
      </Node>
    </BinaryTree>
    <BinaryTree type="DecisionTree" boostWeight="1.0000000000000000e+00" itree="38">
      <Node pos="s" depth="0" NCoef="0" IVar="11" Cut="1.3424093627929688e+02" cType="1" res="-5.3702653385698795e-03" rms="4.1958242654800415e-01" purity="4.9540022015571594e-01" nType="0">
        <Node pos="l" depth="1" NCoef="0" IVar="8" Cut="9.4502377510070801e-01" cType="1" res="-9.5737852156162262e-02" rms="4.0440326929092407e-01" purity="2.5474548339843750e-01" nType="0">
          <Node pos="l" depth="2" NCoef="0" IVar="-1" Cut="0.0000000000000000e+00" cType="1" res="-3.2148458063602448e-02" rms="3.6109739542007446e-01" purity="1.7134277522563934e-01" nType="-99"/>
          <Node pos="r" depth="2" NCoef="0" IVar="-1" Cut="0.0000000000000000e+00" cType="1" res="-8.9091416448354721e-03" rms="4.6280854940414429e-01" purity="3.9383187890052795e-01" nType="-99"/>
        </Node>
        <Node pos="r" depth="1" NCoef="0" IVar="3" Cut="5.0316043090820312e+02" cType="1" res="1.0480823926627636e-02" rms="4.2018997669219971e-01" purity="5.3761273622512817e-01" nType="0">
          <Node pos="l" depth="2" NCoef="0" IVar="-1" Cut="0.0000000000000000e+00" cType="1" res="1.1347656138241291e-02" rms="4.1333475708961487e-01" purity="6.5290230512619019e-01" nType="-99"/>
          <Node pos="r" depth="2" NCoef="0" IVar="-1" Cut="0.0000000000000000e+00" cType="1" res="-7.8578414395451546e-03" rms="4.2465609312057495e-01" purity="3.9394000172615051e-01" nType="-99"/>
        </Node>
      </Node>
    </BinaryTree>
    <BinaryTree type="DecisionTree" boostWeight="1.0000000000000000e+00" itree="39">
      <Node pos="s" depth="0" NCoef="0" IVar="7" Cut="2.7324151992797852e+00" cType="1" res="-9.1641012113541365e-04" rms="4.2008268833160400e-01" purity="4.9908527731895447e-01" nType="0">
        <Node pos="l" depth="1" NCoef="0" IVar="10" Cut="-1.4540878534317017e+00" cType="1" res="-1.6145035624504089e-02" rms="4.3211585283279419e-01" purity="4.3231949210166931e-01" nType="0">
          <Node pos="l" depth="2" NCoef="0" IVar="-1" Cut="0.0000000000000000e+00" cType="1" res="-2.9807941988110542e-02" rms="3.8943460583686829e-01" purity="2.7434366941452026e-01" nType="-99"/>
          <Node pos="r" depth="2" NCoef="0" IVar="-1" Cut="0.0000000000000000e+00" cType="1" res="-1.3209081953391433e-03" rms="4.3462765216827393e-01" purity="4.4778469204902649e-01" nType="-99"/>
        </Node>
        <Node pos="r" depth="1" NCoef="0" IVar="10" Cut="-1.0387561470270157e-01" cType="1" res="7.4702993035316467e-02" rms="3.4449830651283264e-01" purity="8.3061796426773071e-01" nType="0">
          <Node pos="l" depth="2" NCoef="0" IVar="-1" Cut="0.0000000000000000e+00" cType="1" res="8.3852736279368401e-03" rms="3.7911477684974670e-01" purity="7.6451075077056885e-01" nType="-99"/>
          <Node pos="r" depth="2" NCoef="0" IVar="-1" Cut="0.0000000000000000e+00" cType="1" res="2.8703881427645683e-02" rms="3.2571133971214294e-01" purity="8.6038082838058472e-01" nType="-99"/>
        </Node>
      </Node>
    </BinaryTree>
    <BinaryTree type="DecisionTree" boostWeight="1.0000000000000000e+00" itree="40">
      <Node pos="s" depth="0" NCoef="0" IVar="10" Cut="-3.6874517798423767e-02" cType="1" res="1.4668608782812953e-03" rms="4.1961359977722168e-01" purity="5.0166887044906616e-01" nType="0">
        <Node pos="l" depth="1" NCoef="0" IVar="1" Cut="1.1906856298446655e+00" cType="1" res="-3.5504002124071121e-02" rms="4.1791757941246033e-01" purity="4.2847889661788940e-01" nType="0">
          <Node pos="l" depth="2" NCoef="0" IVar="-1" Cut="0.0000000000000000e+00" cType="1" res="-1.6497178003191948e-02" rms="4.0985667705535889e-01" purity="3.3887496590614319e-01" nType="-99"/>
          <Node pos="r" depth="2" NCoef="0" IVar="-1" Cut="0.0000000000000000e+00" cType="1" res="1.8922247691079974e-03" rms="4.2479670047760010e-01" purity="5.4991698265075684e-01" nType="-99"/>
        </Node>
        <Node pos="r" depth="1" NCoef="0" IVar="8" Cut="7.4247848987579346e-01" cType="1" res="2.6712181046605110e-02" rms="4.1889721155166626e-01" purity="5.5164623260498047e-01" nType="0">
          <Node pos="l" depth="2" NCoef="0" IVar="-1" Cut="0.0000000000000000e+00" cType="1" res="-7.8811859712004662e-03" rms="4.2328211665153503e-01" purity="3.7714439630508423e-01" nType="-99"/>
          <Node pos="r" depth="2" NCoef="0" IVar="-1" Cut="0.0000000000000000e+00" cType="1" res="1.0985853150486946e-02" rms="4.1592425107955933e-01" purity="6.0490536689758301e-01" nType="-99"/>
        </Node>
      </Node>
    </BinaryTree>
    <BinaryTree type="DecisionTree" boostWeight="1.0000000000000000e+00" itree="41">
      <Node pos="s" depth="0" NCoef="0" IVar="11" Cut="7.3326861572265625e+02" cType="1" res="2.7007458265870810e-03" rms="4.2101621627807617e-01" purity="5.0656580924987793e-01" nType="0">
        <Node pos="l" depth="1" NCoef="0" IVar="3" Cut="3.7337319946289062e+02" cType="1" res="-1.1979618109762669e-02" rms="4.2510446906089783e-01" purity="4.5877027511596680e-01" nType="0">
          <Node pos="l" depth="2" NCoef="0" IVar="-1" Cut="0.0000000000000000e+00" cType="1" res="7.1079744957387447e-03" rms="4.2837479710578918e-01" purity="5.8592975139617920e-01" nType="-99"/>
          <Node pos="r" depth="2" NCoef="0" IVar="-1" Cut="0.0000000000000000e+00" cType="1" res="-9.8904678598046303e-03" rms="4.2052060365676880e-01" purity="3.7180596590042114e-01" nType="-99"/>
        </Node>
        <Node pos="r" depth="1" NCoef="0" IVar="3" Cut="8.1509027099609375e+02" cType="1" res="6.3295878469944000e-02" rms="3.9801421761512756e-01" purity="7.0384824275970459e-01" nType="0">
          <Node pos="l" depth="2" NCoef="0" IVar="-1" Cut="0.0000000000000000e+00" cType="1" res="2.5340456515550613e-02" rms="3.6986309289932251e-01" purity="8.0637055635452271e-01" nType="-99"/>
          <Node pos="r" depth="2" NCoef="0" IVar="-1" Cut="0.0000000000000000e+00" cType="1" res="-3.8417475298047066e-03" rms="4.5913383364677429e-01" purity="4.1390404105186462e-01" nType="-99"/>
        </Node>
      </Node>
    </BinaryTree>
    <BinaryTree type="DecisionTree" boostWeight="1.0000000000000000e+00" itree="42">
      <Node pos="s" depth="0" NCoef="0" IVar="4" Cut="1.2090563964843750e+02" cType="1" res="-1.7359323101118207e-03" rms="4.1963237524032593e-01" purity="5.0150573253631592e-01" nType="0">
        <Node pos="l" depth="1" NCoef="0" IVar="8" Cut="6.8172246217727661e-01" cType="1" res="7.1851667016744614e-03" rms="4.2008811235427856e-01" purity="5.1864993572235107e-01" nType="0">
          <Node pos="l" depth="2" NCoef="0" IVar="-1" Cut="0.0000000000000000e+00" cType="1" res="-1.5446078032255173e-02" rms="4.0724319219589233e-01" purity="3.1754565238952637e-01" nType="-99"/>
          <Node pos="r" depth="2" NCoef="0" IVar="-1" Cut="0.0000000000000000e+00" cType="1" res="5.3662029094994068e-03" rms="4.2141065001487732e-01" purity="5.6220418214797974e-01" nType="-99"/>
        </Node>
        <Node pos="r" depth="1" NCoef="0" IVar="-1" Cut="0.0000000000000000e+00" cType="1" res="-2.7381686493754387e-02" rms="3.9857944846153259e-01" purity="2.9420313239097595e-01" nType="-99"/>
      </Node>
    </BinaryTree>
    <BinaryTree type="DecisionTree" boostWeight="1.0000000000000000e+00" itree="43">
      <Node pos="s" depth="0" NCoef="0" IVar="11" Cut="2.9014660644531250e+02" cType="1" res="-2.5475786533206701e-03" rms="4.1936868429183960e-01" purity="5.0118434429168701e-01" nType="0">
        <Node pos="l" depth="1" NCoef="0" IVar="3" Cut="4.3519787597656250e+02" cType="1" res="-3.8954831659793854e-02" rms="4.2355638742446899e-01" purity="3.5475629568099976e-01" nType="0">
          <Node pos="l" depth="2" NCoef="0" IVar="-1" Cut="0.0000000000000000e+00" cType="1" res="-3.2215265091508627e-03" rms="4.4267266988754272e-01" purity="4.3098476529121399e-01" nType="-99"/>
          <Node pos="r" depth="2" NCoef="0" IVar="-1" Cut="0.0000000000000000e+00" cType="1" res="-2.5965696200728416e-02" rms="3.6891117691993713e-01" purity="1.7744405567646027e-01" nType="-99"/>
        </Node>
        <Node pos="r" depth="1" NCoef="0" IVar="3" Cut="6.7562060546875000e+02" cType="1" res="2.3802340030670166e-02" rms="4.1432070732116699e-01" purity="6.0716235637664795e-01" nType="0">
          <Node pos="l" depth="2" NCoef="0" IVar="-1" Cut="0.0000000000000000e+00" cType="1" res="1.2507990002632141e-02" rms="4.0369614958763123e-01" purity="7.0752549171447754e-01" nType="-99"/>
          <Node pos="r" depth="2" NCoef="0" IVar="-1" Cut="0.0000000000000000e+00" cType="1" res="-8.1847580149769783e-03" rms="4.3390882015228271e-01" purity="3.5996857285499573e-01" nType="-99"/>
        </Node>
      </Node>
    </BinaryTree>
    <BinaryTree type="DecisionTree" boostWeight="1.0000000000000000e+00" itree="44">
      <Node pos="s" depth="0" NCoef="0" IVar="11" Cut="2.1136268615722656e+02" cType="1" res="1.6817641444504261e-03" rms="4.1636380553245544e-01" purity="5.0141370296478271e-01" nType="0">
        <Node pos="l" depth="1" NCoef="0" IVar="3" Cut="3.4728976440429688e+02" cType="1" res="-4.5147232711315155e-02" rms="4.1730335354804993e-01" purity="3.1441295146942139e-01" nType="0">
          <Node pos="l" depth="2" NCoef="0" IVar="-1" Cut="0.0000000000000000e+00" cType="1" res="1.2484118633437902e-04" rms="4.5380744338035583e-01" purity="4.2797493934631348e-01" nType="-99"/>
          <Node pos="r" depth="2" NCoef="0" IVar="-1" Cut="0.0000000000000000e+00" cType="1" res="-2.6292366907000542e-02" rms="3.6279585957527161e-01" purity="1.8150980770587921e-01" nType="-99"/>
        </Node>
        <Node pos="r" depth="1" NCoef="0" IVar="3" Cut="5.4525616455078125e+02" cType="1" res="2.1119654178619385e-02" rms="4.1442203521728516e-01" purity="5.7903444766998291e-01" nType="0">
          <Node pos="l" depth="2" NCoef="0" IVar="-1" Cut="0.0000000000000000e+00" cType="1" res="1.3985275290906429e-02" rms="3.9860537648200989e-01" purity="7.1417415142059326e-01" nType="-99"/>
          <Node pos="r" depth="2" NCoef="0" IVar="-1" Cut="0.0000000000000000e+00" cType="1" res="-5.3029274567961693e-03" rms="4.3118485808372498e-01" purity="3.9624083042144775e-01" nType="-99"/>
        </Node>
      </Node>
    </BinaryTree>
    <BinaryTree type="DecisionTree" boostWeight="1.0000000000000000e+00" itree="45">
      <Node pos="s" depth="0" NCoef="0" IVar="8" Cut="8.9872747659683228e-01" cType="1" res="-5.3164768032729626e-03" rms="4.1802090406417847e-01" purity="4.9533203244209290e-01" nType="0">
        <Node pos="l" depth="1" NCoef="0" IVar="11" Cut="1.4968719482421875e+02" cType="1" res="-4.1777241975069046e-02" rms="4.1651108860969543e-01" purity="3.8240277767181396e-01" nType="0">
          <Node pos="l" depth="2" NCoef="0" IVar="-1" Cut="0.0000000000000000e+00" cType="1" res="-2.8852200135588646e-02" rms="3.5210138559341431e-01" purity="1.5660379827022552e-01" nType="-99"/>
          <Node pos="r" depth="2" NCoef="0" IVar="-1" Cut="0.0000000000000000e+00" cType="1" res="-5.2952063269913197e-03" rms="4.3298891186714172e-01" purity="4.5415431261062622e-01" nType="-99"/>
        </Node>
        <Node pos="r" depth="1" NCoef="0" IVar="3" Cut="3.7376232910156250e+02" cType="1" res="1.9698189571499825e-02" rms="4.1721472144126892e-01" purity="5.7280945777893066e-01" nType="0">
          <Node pos="l" depth="2" NCoef="0" IVar="-1" Cut="0.0000000000000000e+00" cType="1" res="1.7740434035658836e-02" rms="3.9777424931526184e-01" purity="7.2728848457336426e-01" nType="-99"/>
          <Node pos="r" depth="2" NCoef="0" IVar="-1" Cut="0.0000000000000000e+00" cType="1" res="-1.1402547825127840e-03" rms="4.2436340451240540e-01" purity="4.9666714668273926e-01" nType="-99"/>
        </Node>
      </Node>
    </BinaryTree>
    <BinaryTree type="DecisionTree" boostWeight="1.0000000000000000e+00" itree="46">
      <Node pos="s" depth="0" NCoef="0" IVar="2" Cut="3.6344364285469055e-01" cType="1" res="2.0248387008905411e-03" rms="4.1440218687057495e-01" purity="5.0059777498245239e-01" nType="0">
        <Node pos="l" depth="1" NCoef="0" IVar="8" Cut="6.7886722087860107e-01" cType="1" res="-1.7963297665119171e-02" rms="4.1970792412757874e-01" purity="4.3485805392265320e-01" nType="0">
          <Node pos="l" depth="2" NCoef="0" IVar="-1" Cut="0.0000000000000000e+00" cType="1" res="-2.0459711551666260e-02" rms="3.7760701775550842e-01" purity="2.3683723807334900e-01" nType="-99"/>
          <Node pos="r" depth="2" NCoef="0" IVar="-1" Cut="0.0000000000000000e+00" cType="1" res="-8.9591287542134523e-04" rms="4.2854344844818115e-01" purity="4.8504590988159180e-01" nType="-99"/>
        </Node>
        <Node pos="r" depth="1" NCoef="0" IVar="1" Cut="9.1852891445159912e-01" cType="1" res="3.8127083331346512e-02" rms="4.0213274955749512e-01" purity="6.1933588981628418e-01" nType="0">
          <Node pos="l" depth="2" NCoef="0" IVar="-1" Cut="0.0000000000000000e+00" cType="1" res="-3.7896146532148123e-03" rms="4.2119276523590088e-01" purity="4.1926741600036621e-01" nType="-99"/>
          <Node pos="r" depth="2" NCoef="0" IVar="-1" Cut="0.0000000000000000e+00" cType="1" res="1.7668586224317551e-02" rms="3.8901677727699280e-01" purity="7.2303658723831177e-01" nType="-99"/>
        </Node>
      </Node>
    </BinaryTree>
    <BinaryTree type="DecisionTree" boostWeight="1.0000000000000000e+00" itree="47">
      <Node pos="s" depth="0" NCoef="0" IVar="10" Cut="-7.8277629613876343e-01" cType="1" res="1.4850731240585446e-03" rms="4.1598790884017944e-01" purity="5.0212556123733521e-01" nType="0">
        <Node pos="l" depth="1" NCoef="0" IVar="3" Cut="3.6189874267578125e+02" cType="1" res="-5.8412719517946243e-02" rms="4.0664684772491455e-01" purity="3.8448235392570496e-01" nType="0">
          <Node pos="l" depth="2" NCoef="0" IVar="-1" Cut="0.0000000000000000e+00" cType="1" res="-4.2304545640945435e-03" rms="4.1974782943725586e-01" purity="5.0104576349258423e-01" nType="-99"/>
          <Node pos="r" depth="2" NCoef="0" IVar="-1" Cut="0.0000000000000000e+00" cType="1" res="-2.0199004560709000e-02" rms="3.9832139015197754e-01" purity="3.2624316215515137e-01" nType="-99"/>
        </Node>
        <Node pos="r" depth="1" NCoef="0" IVar="7" Cut="6.9923037290573120e-01" cType="1" res="1.8033223226666451e-02" rms="4.1701781749725342e-01" purity="5.3462713956832886e-01" nType="0">
          <Node pos="l" depth="2" NCoef="0" IVar="-1" Cut="0.0000000000000000e+00" cType="1" res="-7.9272883012890816e-03" rms="4.2408427596092224e-01" purity="2.9923316836357117e-01" nType="-99"/>
          <Node pos="r" depth="2" NCoef="0" IVar="-1" Cut="0.0000000000000000e+00" cType="1" res="8.7373331189155579e-03" rms="4.1347202658653259e-01" purity="6.0930043458938599e-01" nType="-99"/>
        </Node>
      </Node>
    </BinaryTree>
    <BinaryTree type="DecisionTree" boostWeight="1.0000000000000000e+00" itree="48">
      <Node pos="s" depth="0" NCoef="0" IVar="1" Cut="1.8030382394790649e+00" cType="1" res="-1.2121032923460007e-03" rms="4.1576683521270752e-01" purity="4.9835097789764404e-01" nType="0">
        <Node pos="l" depth="1" NCoef="0" IVar="12" Cut="2.3033080101013184e+00" cType="1" res="-1.8560789525508881e-02" rms="4.2458707094192505e-01" purity="4.2264467477798462e-01" nType="0">
          <Node pos="l" depth="2" NCoef="0" IVar="-1" Cut="0.0000000000000000e+00" cType="1" res="-1.4092754572629929e-02" rms="4.0853872895240784e-01" purity="3.3378699421882629e-01" nType="-99"/>
          <Node pos="r" depth="2" NCoef="0" IVar="-1" Cut="0.0000000000000000e+00" cType="1" res="-2.5910549447871745e-04" rms="4.3097248673439026e-01" purity="4.6523731946945190e-01" nType="-99"/>
        </Node>
        <Node pos="r" depth="1" NCoef="0" IVar="11" Cut="6.5358764648437500e+02" cType="1" res="4.0829710662364960e-02" rms="3.9038842916488647e-01" purity="6.8181335926055908e-01" nType="0">
          <Node pos="l" depth="2" NCoef="0" IVar="-1" Cut="0.0000000000000000e+00" cType="1" res="3.4096073359251022e-03" rms="4.1217061877250671e-01" purity="6.0016959905624390e-01" nType="-99"/>
          <Node pos="r" depth="2" NCoef="0" IVar="-1" Cut="0.0000000000000000e+00" cType="1" res="2.5164803490042686e-02" rms="3.4736695885658264e-01" purity="8.1499636173248291e-01" nType="-99"/>
        </Node>
      </Node>
    </BinaryTree>
    <BinaryTree type="DecisionTree" boostWeight="1.0000000000000000e+00" itree="49">
      <Node pos="s" depth="0" NCoef="0" IVar="12" Cut="1.8180254697799683e+00" cType="1" res="-2.5389462825842202e-04" rms="4.1759258508682251e-01" purity="5.0148814916610718e-01" nType="0">
        <Node pos="l" depth="1" NCoef="0" IVar="1" Cut="1.5161305665969849e+00" cType="1" res="-6.2755942344665527e-02" rms="3.9826640486717224e-01" purity="3.3707302808761597e-01" nType="0">
          <Node pos="l" depth="2" NCoef="0" IVar="-1" Cut="0.0000000000000000e+00" cType="1" res="-2.3476466536521912e-02" rms="3.7963107228279114e-01" purity="2.4647291004657745e-01" nType="-99"/>
          <Node pos="r" depth="2" NCoef="0" IVar="-1" Cut="0.0000000000000000e+00" cType="1" res="-2.8648758307099342e-03" rms="4.2994424700737000e-01" purity="5.2532029151916504e-01" nType="-99"/>
        </Node>
        <Node pos="r" depth="1" NCoef="0" IVar="10" Cut="1.4964875765144825e-02" cType="1" res="1.3252547942101955e-02" rms="4.2043337225914001e-01" purity="5.3701764345169067e-01" nType="0">
          <Node pos="l" depth="2" NCoef="0" IVar="-1" Cut="0.0000000000000000e+00" cType="1" res="-5.1848012953996658e-03" rms="4.2357212305068970e-01" purity="4.6387568116188049e-01" nType="-99"/>
          <Node pos="r" depth="2" NCoef="0" IVar="-1" Cut="0.0000000000000000e+00" cType="1" res="9.7368573769927025e-03" rms="4.1637143492698669e-01" purity="5.9079116582870483e-01" nType="-99"/>
        </Node>
      </Node>
    </BinaryTree>
    <BinaryTree type="DecisionTree" boostWeight="1.0000000000000000e+00" itree="50">
      <Node pos="s" depth="0" NCoef="0" IVar="7" Cut="1.0066587924957275e+00" cType="1" res="6.4772143959999084e-03" rms="4.1388726234436035e-01" purity="5.0837045907974243e-01" nType="0">
        <Node pos="l" depth="1" NCoef="0" IVar="11" Cut="4.8498226928710938e+02" cType="1" res="-2.8194980695843697e-02" rms="4.1746324300765991e-01" purity="2.9709258675575256e-01" nType="0">
          <Node pos="l" depth="2" NCoef="0" IVar="-1" Cut="0.0000000000000000e+00" cType="1" res="-1.1185809969902039e-02" rms="4.0444624423980713e-01" purity="2.6241335272789001e-01" nType="-99"/>
          <Node pos="r" depth="2" NCoef="0" IVar="-1" Cut="0.0000000000000000e+00" cType="1" res="5.5231973528862000e-03" rms="4.5514142513275146e-01" purity="4.1518658399581909e-01" nType="-99"/>
        </Node>
        <Node pos="r" depth="1" NCoef="0" IVar="12" Cut="2.1450264453887939e+00" cType="1" res="2.5857245549559593e-02" rms="4.1060134768486023e-01" purity="6.2646418809890747e-01" nType="0">
          <Node pos="l" depth="2" NCoef="0" IVar="-1" Cut="0.0000000000000000e+00" cType="1" res="-5.2733151242136955e-03" rms="4.2156913876533508e-01" purity="5.1121199131011963e-01" nType="-99"/>
          <Node pos="r" depth="2" NCoef="0" IVar="-1" Cut="0.0000000000000000e+00" cType="1" res="1.0758263058960438e-02" rms="4.0583565831184387e-01" purity="6.6374915838241577e-01" nType="-99"/>
        </Node>
      </Node>
    </BinaryTree>
    <BinaryTree type="DecisionTree" boostWeight="1.0000000000000000e+00" itree="51">
      <Node pos="s" depth="0" NCoef="0" IVar="10" Cut="-1.6040959358215332e+00" cType="1" res="-7.8672356903553009e-03" rms="4.1310024261474609e-01" purity="4.8848241567611694e-01" nType="0">
        <Node pos="l" depth="1" NCoef="0" IVar="-1" Cut="0.0000000000000000e+00" cType="1" res="-3.1944543123245239e-02" rms="3.9384615421295166e-01" purity="2.9669776558876038e-01" nType="-99"/>
        <Node pos="r" depth="1" NCoef="0" IVar="4" Cut="1.3037500000000000e+02" cType="1" res="1.2014395324513316e-03" rms="4.1309127211570740e-01" purity="5.0290501117706299e-01" nType="0">
          <Node pos="l" depth="2" NCoef="0" IVar="-1" Cut="0.0000000000000000e+00" cType="1" res="2.0673524122685194e-03" rms="4.1494026780128479e-01" purity="5.1999408006668091e-01" nType="-99"/>
          <Node pos="r" depth="2" NCoef="0" IVar="-1" Cut="0.0000000000000000e+00" cType="1" res="-2.8396202251315117e-02" rms="3.6844247579574585e-01" purity="2.4288630485534668e-01" nType="-99"/>
        </Node>
      </Node>
    </BinaryTree>
    <BinaryTree type="DecisionTree" boostWeight="1.0000000000000000e+00" itree="52">
      <Node pos="s" depth="0" NCoef="0" IVar="1" Cut="2.1142587661743164e+00" cType="1" res="-2.3174874950200319e-03" rms="4.1797900199890137e-01" purity="4.9993124604225159e-01" nType="0">
        <Node pos="l" depth="1" NCoef="0" IVar="3" Cut="3.5972744750976562e+02" cType="1" res="-1.6149774193763733e-02" rms="4.2875260114669800e-01" purity="4.3338206410408020e-01" nType="0">
          <Node pos="l" depth="2" NCoef="0" IVar="-1" Cut="0.0000000000000000e+00" cType="1" res="6.1074015684425831e-03" rms="4.3137186765670776e-01" purity="5.7190752029418945e-01" nType="-99"/>
          <Node pos="r" depth="2" NCoef="0" IVar="-1" Cut="0.0000000000000000e+00" cType="1" res="-8.8218096643686295e-03" rms="4.2619624733924866e-01" purity="3.6906492710113525e-01" nType="-99"/>
        </Node>
        <Node pos="r" depth="1" NCoef="0" IVar="2" Cut="5.0815328955650330e-02" cType="1" res="4.4568188488483429e-02" rms="3.7541797757148743e-01" purity="7.2550541162490845e-01" nType="0">
          <Node pos="l" depth="2" NCoef="0" IVar="-1" Cut="0.0000000000000000e+00" cType="1" res="-2.5517845060676336e-03" rms="4.1442760825157166e-01" purity="5.2770835161209106e-01" nType="-99"/>
          <Node pos="r" depth="2" NCoef="0" IVar="-1" Cut="0.0000000000000000e+00" cType="1" res="1.9099390134215355e-02" rms="3.5810551047325134e-01" purity="7.9750901460647583e-01" nType="-99"/>
        </Node>
      </Node>
    </BinaryTree>
    <BinaryTree type="DecisionTree" boostWeight="1.0000000000000000e+00" itree="53">
      <Node pos="s" depth="0" NCoef="0" IVar="4" Cut="1.2924389648437500e+02" cType="1" res="-2.5552674196660519e-03" rms="4.1441896557807922e-01" purity="4.9845305085182190e-01" nType="0">
        <Node pos="l" depth="1" NCoef="0" IVar="11" Cut="9.7522460937500000e+02" cType="1" res="3.9031433407217264e-03" rms="4.1515788435935974e-01" purity="5.1418644189834595e-01" nType="0">
          <Node pos="l" depth="2" NCoef="0" IVar="-1" Cut="0.0000000000000000e+00" cType="1" res="-1.3299481943249702e-03" rms="4.1876298189163208e-01" purity="4.8383545875549316e-01" nType="-99"/>
          <Node pos="r" depth="2" NCoef="0" IVar="-1" Cut="0.0000000000000000e+00" cType="1" res="2.1489325910806656e-02" rms="3.7773454189300537e-01" purity="7.5433886051177979e-01" nType="-99"/>
        </Node>
        <Node pos="r" depth="1" NCoef="0" IVar="-1" Cut="0.0000000000000000e+00" cType="1" res="-2.8049554675817490e-02" rms="3.8879418373107910e-01" purity="2.5126352906227112e-01" nType="-99"/>
      </Node>
    </BinaryTree>
    <BinaryTree type="DecisionTree" boostWeight="1.0000000000000000e+00" itree="54">
      <Node pos="s" depth="0" NCoef="0" IVar="11" Cut="1.4215768432617188e+02" cType="1" res="2.0171429496258497e-03" rms="4.1426667571067810e-01" purity="5.0557076930999756e-01" nType="0">
        <Node pos="l" depth="1" NCoef="0" IVar="3" Cut="3.2401605224609375e+02" cType="1" res="-5.1767796277999878e-02" rms="4.1275390982627869e-01" purity="2.8182923793792725e-01" nType="0">
          <Node pos="l" depth="2" NCoef="0" IVar="-1" Cut="0.0000000000000000e+00" cType="1" res="-2.8445818461477757e-03" rms="4.5414420962333679e-01" purity="3.7774607539176941e-01" nType="-99"/>
          <Node pos="r" depth="2" NCoef="0" IVar="-1" Cut="0.0000000000000000e+00" cType="1" res="-3.0027974396944046e-02" rms="3.4104740619659424e-01" purity="1.5070992708206177e-01" nType="-99"/>
        </Node>
        <Node pos="r" depth="1" NCoef="0" IVar="3" Cut="4.8789508056640625e+02" cType="1" res="1.2062561698257923e-02" rms="4.1377449035644531e-01" purity="5.4735893011093140e-01" nType="0">
          <Node pos="l" depth="2" NCoef="0" IVar="-1" Cut="0.0000000000000000e+00" cType="1" res="1.1101869866251945e-02" rms="4.0464717149734497e-01" purity="6.7812263965606689e-01" nType="-99"/>
          <Node pos="r" depth="2" NCoef="0" IVar="-1" Cut="0.0000000000000000e+00" cType="1" res="-5.1037371158599854e-03" rms="4.2119276523590088e-01" purity="4.0406510233879089e-01" nType="-99"/>
        </Node>
      </Node>
    </BinaryTree>
    <BinaryTree type="DecisionTree" boostWeight="1.0000000000000000e+00" itree="55">
      <Node pos="s" depth="0" NCoef="0" IVar="8" Cut="8.4955459833145142e-01" cType="1" res="-3.8030953146517277e-03" rms="4.1630876064300537e-01" purity="4.9743434786796570e-01" nType="0">
        <Node pos="l" depth="1" NCoef="0" IVar="11" Cut="6.5555725097656250e+02" cType="1" res="-4.4047206640243530e-02" rms="4.1204905509948730e-01" purity="3.6064803600311279e-01" nType="0">
          <Node pos="l" depth="2" NCoef="0" IVar="-1" Cut="0.0000000000000000e+00" cType="1" res="-1.5067017637193203e-02" rms="4.0662285685539246e-01" purity="3.0234310030937195e-01" nType="-99"/>
          <Node pos="r" depth="2" NCoef="0" IVar="-1" Cut="0.0000000000000000e+00" cType="1" res="2.3083603009581566e-03" rms="4.3062204122543335e-01" purity="6.1181938648223877e-01" nType="-99"/>
        </Node>
        <Node pos="r" depth="1" NCoef="0" IVar="3" Cut="3.3813485717773438e+02" cType="1" res="1.7417909577488899e-02" rms="4.1697633266448975e-01" purity="5.6956273317337036e-01" nType="0">
          <Node pos="l" depth="2" NCoef="0" IVar="-1" Cut="0.0000000000000000e+00" cType="1" res="1.6494063660502434e-02" rms="4.0230405330657959e-01" purity="7.2578507661819458e-01" nType="-99"/>
          <Node pos="r" depth="2" NCoef="0" IVar="-1" Cut="0.0000000000000000e+00" cType="1" res="5.3225352894514799e-04" rms="4.2068216204643250e-01" purity="5.1707160472869873e-01" nType="-99"/>
        </Node>
      </Node>
    </BinaryTree>
    <BinaryTree type="DecisionTree" boostWeight="1.0000000000000000e+00" itree="56">
      <Node pos="s" depth="0" NCoef="0" IVar="2" Cut="1.2718118727207184e-01" cType="1" res="-2.1229656413197517e-03" rms="4.1384163498878479e-01" purity="4.9655863642692566e-01" nType="0">
        <Node pos="l" depth="1" NCoef="0" IVar="8" Cut="8.7557846307754517e-01" cType="1" res="-2.9533986002206802e-02" rms="4.1146624088287354e-01" purity="4.2235729098320007e-01" nType="0">
          <Node pos="l" depth="2" NCoef="0" IVar="-1" Cut="0.0000000000000000e+00" cType="1" res="-1.8259378150105476e-02" rms="3.9804384112358093e-01" purity="2.8918114304542542e-01" nType="-99"/>
          <Node pos="r" depth="2" NCoef="0" IVar="-1" Cut="0.0000000000000000e+00" cType="1" res="-5.2496668649837375e-04" rms="4.1859075427055359e-01" purity="5.1705127954483032e-01" nType="-99"/>
        </Node>
        <Node pos="r" depth="1" NCoef="0" IVar="3" Cut="8.0986224365234375e+02" cType="1" res="2.8613684698939323e-02" rms="4.1433793306350708e-01" purity="5.7976251840591431e-01" nType="0">
          <Node pos="l" depth="2" NCoef="0" IVar="-1" Cut="0.0000000000000000e+00" cType="1" res="1.0238250717520714e-02" rms="4.1057851910591125e-01" purity="6.1397469043731689e-01" nType="-99"/>
          <Node pos="r" depth="2" NCoef="0" IVar="-1" Cut="0.0000000000000000e+00" cType="1" res="-9.1086737811565399e-03" rms="4.3336415290832520e-01" purity="3.4618982672691345e-01" nType="-99"/>
        </Node>
      </Node>
    </BinaryTree>
    <BinaryTree type="DecisionTree" boostWeight="1.0000000000000000e+00" itree="57">
      <Node pos="s" depth="0" NCoef="0" IVar="12" Cut="2.2540228366851807e+00" cType="1" res="4.5190304517745972e-03" rms="4.1360020637512207e-01" purity="5.0507044792175293e-01" nType="0">
        <Node pos="l" depth="1" NCoef="0" IVar="11" Cut="5.6874877929687500e+02" cType="1" res="-3.1325213611125946e-02" rms="4.0776824951171875e-01" purity="4.0382727980613708e-01" nType="0">
          <Node pos="l" depth="2" NCoef="0" IVar="-1" Cut="0.0000000000000000e+00" cType="1" res="-1.2950427830219269e-02" rms="4.0253505110740662e-01" purity="3.2686904072761536e-01" nType="-99"/>
          <Node pos="r" depth="2" NCoef="0" IVar="-1" Cut="0.0000000000000000e+00" cType="1" res="2.1853558719158173e-03" rms="4.1706037521362305e-01" purity="5.8398306369781494e-01" nType="-99"/>
        </Node>
        <Node pos="r" depth="1" NCoef="0" IVar="11" Cut="8.8404705810546875e+02" cType="1" res="2.0482774823904037e-02" rms="4.1517639160156250e-01" purity="5.5016058683395386e-01" nType="0">
          <Node pos="l" depth="2" NCoef="0" IVar="-1" Cut="0.0000000000000000e+00" cType="1" res="2.7972203679382801e-03" rms="4.2220824956893921e-01" purity="5.1423186063766479e-01" nType="-99"/>
          <Node pos="r" depth="2" NCoef="0" IVar="-1" Cut="0.0000000000000000e+00" cType="1" res="2.4380823597311974e-02" rms="3.5967776179313660e-01" purity="7.8531110286712646e-01" nType="-99"/>
        </Node>
      </Node>
    </BinaryTree>
    <BinaryTree type="DecisionTree" boostWeight="1.0000000000000000e+00" itree="58">
      <Node pos="s" depth="0" NCoef="0" IVar="4" Cut="1.1174955749511719e+02" cType="1" res="2.1987280342727900e-03" rms="4.1146007180213928e-01" purity="5.0090336799621582e-01" nType="0">
        <Node pos="l" depth="1" NCoef="0" IVar="8" Cut="5.8623915910720825e-01" cType="1" res="9.7690634429454803e-03" rms="4.1179835796356201e-01" purity="5.2020651102066040e-01" nType="0">
          <Node pos="l" depth="2" NCoef="0" IVar="-1" Cut="0.0000000000000000e+00" cType="1" res="-1.5814738348126411e-02" rms="3.8580459356307983e-01" purity="2.8202104568481445e-01" nType="-99"/>
          <Node pos="r" depth="2" NCoef="0" IVar="-1" Cut="0.0000000000000000e+00" cType="1" res="4.5855166390538216e-03" rms="4.1405269503593445e-01" purity="5.4835283756256104e-01" nType="-99"/>
        </Node>
        <Node pos="r" depth="1" NCoef="0" IVar="4" Cut="1.3436065673828125e+02" cType="1" res="-6.2229853123426437e-02" rms="4.0285271406173706e-01" purity="3.3662104606628418e-01" nType="0">
          <Node pos="l" depth="2" NCoef="0" IVar="-1" Cut="0.0000000000000000e+00" cType="1" res="-9.4620063900947571e-03" rms="4.2004963755607605e-01" purity="4.2544978857040405e-01" nType="-99"/>
          <Node pos="r" depth="2" NCoef="0" IVar="-1" Cut="0.0000000000000000e+00" cType="1" res="-2.4855701252818108e-02" rms="3.8164624571800232e-01" purity="2.4128019809722900e-01" nType="-99"/>
        </Node>
      </Node>
    </BinaryTree>
    <BinaryTree type="DecisionTree" boostWeight="1.0000000000000000e+00" itree="59">
      <Node pos="s" depth="0" NCoef="0" IVar="8" Cut="5.7754641771316528e-01" cType="1" res="-3.3847289159893990e-03" rms="4.1189023852348328e-01" purity="4.9531564116477966e-01" nType="0">
        <Node pos="l" depth="1" NCoef="0" IVar="-1" Cut="0.0000000000000000e+00" cType="1" res="-2.1153425797820091e-02" rms="3.6942991614341736e-01" purity="2.3971122503280640e-01" nType="-99"/>
        <Node pos="r" depth="1" NCoef="0" IVar="3" Cut="3.4129306030273438e+02" cType="1" res="4.9674953334033489e-03" rms="4.1584989428520203e-01" purity="5.2563673257827759e-01" nType="0">
          <Node pos="l" depth="2" NCoef="0" IVar="-1" Cut="0.0000000000000000e+00" cType="1" res="1.4296182431280613e-02" rms="4.0555366873741150e-01" purity="6.6632413864135742e-01" nType="-99"/>
          <Node pos="r" depth="2" NCoef="0" IVar="-1" Cut="0.0000000000000000e+00" cType="1" res="-3.4951691050082445e-03" rms="4.1809511184692383e-01" purity="4.7353750467300415e-01" nType="-99"/>
        </Node>
      </Node>
    </BinaryTree>
    <BinaryTree type="DecisionTree" boostWeight="1.0000000000000000e+00" itree="60">
      <Node pos="s" depth="0" NCoef="0" IVar="11" Cut="1.3490063476562500e+02" cType="1" res="-3.8105449639260769e-03" rms="4.1037908196449280e-01" purity="4.9271330237388611e-01" nType="0">
        <Node pos="l" depth="1" NCoef="0" IVar="8" Cut="9.4791698455810547e-01" cType="1" res="-6.6170580685138702e-02" rms="3.9322185516357422e-01" purity="2.5322425365447998e-01" nType="0">
          <Node pos="l" depth="2" NCoef="0" IVar="-1" Cut="0.0000000000000000e+00" cType="1" res="-2.8356645256280899e-02" rms="3.5017403960227966e-01" purity="1.5725886821746826e-01" nType="-99"/>
          <Node pos="r" depth="2" NCoef="0" IVar="-1" Cut="0.0000000000000000e+00" cType="1" res="-2.9535602152463980e-05" rms="4.5841586589813232e-01" purity="4.3953341245651245e-01" nType="-99"/>
        </Node>
        <Node pos="r" depth="1" NCoef="0" IVar="3" Cut="4.1515374755859375e+02" cType="1" res="7.6324790716171265e-03" rms="4.1242754459381104e-01" purity="5.3665941953659058e-01" nType="0">
          <Node pos="l" depth="2" NCoef="0" IVar="-1" Cut="0.0000000000000000e+00" cType="1" res="1.1286188848316669e-02" rms="3.9468261599540710e-01" purity="6.9956552982330322e-01" nType="-99"/>
          <Node pos="r" depth="2" NCoef="0" IVar="-1" Cut="0.0000000000000000e+00" cType="1" res="-3.3179419115185738e-03" rms="4.2163458466529846e-01" purity="4.3670791387557983e-01" nType="-99"/>
        </Node>
      </Node>
    </BinaryTree>
    <BinaryTree type="DecisionTree" boostWeight="1.0000000000000000e+00" itree="61">
      <Node pos="s" depth="0" NCoef="0" IVar="11" Cut="1.8000009155273438e+02" cType="1" res="3.4021807368844748e-03" rms="4.1247293353080750e-01" purity="5.0417733192443848e-01" nType="0">
        <Node pos="l" depth="1" NCoef="0" IVar="3" Cut="3.0592767333984375e+02" cType="1" res="-4.5206096023321152e-02" rms="4.0431478619575500e-01" purity="2.8396409749984741e-01" nType="0">
          <Node pos="l" depth="2" NCoef="0" IVar="-1" Cut="0.0000000000000000e+00" cType="1" res="-2.0147848408669233e-03" rms="4.4118663668632507e-01" purity="3.8904264569282532e-01" nType="-99"/>
          <Node pos="r" depth="2" NCoef="0" IVar="-1" Cut="0.0000000000000000e+00" cType="1" res="-2.1813929080963135e-02" rms="3.6711233854293823e-01" purity="1.9436457753181458e-01" nType="-99"/>
        </Node>
        <Node pos="r" depth="1" NCoef="0" IVar="3" Cut="6.9936871337890625e+02" cType="1" res="1.8550019711256027e-02" rms="4.1381722688674927e-01" purity="5.7280266284942627e-01" nType="0">
          <Node pos="l" depth="2" NCoef="0" IVar="-1" Cut="0.0000000000000000e+00" cType="1" res="9.0150302276015282e-03" rms="4.1150316596031189e-01" purity="6.4317059516906738e-01" nType="-99"/>
          <Node pos="r" depth="2" NCoef="0" IVar="-1" Cut="0.0000000000000000e+00" cType="1" res="-8.4948521107435226e-03" rms="4.1762471199035645e-01" purity="3.2747927308082581e-01" nType="-99"/>
        </Node>
      </Node>
    </BinaryTree>
    <BinaryTree type="DecisionTree" boostWeight="1.0000000000000000e+00" itree="62">
      <Node pos="s" depth="0" NCoef="0" IVar="10" Cut="-9.6814660355448723e-03" cType="1" res="-9.6008554100990295e-04" rms="4.1392040252685547e-01" purity="5.0122857093811035e-01" nType="0">
        <Node pos="l" depth="1" NCoef="0" IVar="3" Cut="7.6827380371093750e+02" cType="1" res="-2.7724251151084900e-02" rms="4.1562417149543762e-01" purity="4.3067568540573120e-01" nType="0">
          <Node pos="l" depth="2" NCoef="0" IVar="-1" Cut="0.0000000000000000e+00" cType="1" res="-4.7254655510187149e-03" rms="4.1947725415229797e-01" purity="4.6396064758300781e-01" nType="-99"/>
          <Node pos="r" depth="2" NCoef="0" IVar="-1" Cut="0.0000000000000000e+00" cType="1" res="-2.4843273684382439e-02" rms="3.8281464576721191e-01" purity="2.0976074039936066e-01" nType="-99"/>
        </Node>
        <Node pos="r" depth="1" NCoef="0" IVar="10" Cut="1.1140518188476562e+00" cType="1" res="1.7845015972852707e-02" rms="4.1167959570884705e-01" purity="5.5080056190490723e-01" nType="0">
          <Node pos="l" depth="2" NCoef="0" IVar="-1" Cut="0.0000000000000000e+00" cType="1" res="1.1593153700232506e-02" rms="4.0812349319458008e-01" purity="5.8523762226104736e-01" nType="-99"/>
          <Node pos="r" depth="2" NCoef="0" IVar="-1" Cut="0.0000000000000000e+00" cType="1" res="-8.9386506006121635e-03" rms="4.1390165686607361e-01" purity="4.8172709345817566e-01" nType="-99"/>
        </Node>
      </Node>
    </BinaryTree>
    <BinaryTree type="DecisionTree" boostWeight="1.0000000000000000e+00" itree="63">
      <Node pos="s" depth="0" NCoef="0" IVar="12" Cut="2.4271538257598877e+00" cType="1" res="5.4667959921061993e-03" rms="4.1255432367324829e-01" purity="5.1213186979293823e-01" nType="0">
        <Node pos="l" depth="1" NCoef="0" IVar="11" Cut="8.9159039306640625e+02" cType="1" res="-2.0822566002607346e-02" rms="4.0932282805442810e-01" purity="4.3283513188362122e-01" nType="0">
          <Node pos="l" depth="2" NCoef="0" IVar="-1" Cut="0.0000000000000000e+00" cType="1" res="-8.3393612876534462e-03" rms="4.0937522053718567e-01" purity="3.9467337727546692e-01" nType="-99"/>
          <Node pos="r" depth="2" NCoef="0" IVar="-1" Cut="0.0000000000000000e+00" cType="1" res="1.0306068696081638e-02" rms="4.0395307540893555e-01" purity="6.4629274606704712e-01" nType="-99"/>
        </Node>
        <Node pos="r" depth="1" NCoef="0" IVar="11" Cut="3.7054226684570312e+02" cType="1" res="2.2449098527431488e-02" rms="4.1374126076698303e-01" purity="5.6335568428039551e-01" nType="0">
          <Node pos="l" depth="2" NCoef="0" IVar="-1" Cut="0.0000000000000000e+00" cType="1" res="1.0386696085333824e-03" rms="4.2821577191352844e-01" purity="4.4373574852943420e-01" nType="-99"/>
          <Node pos="r" depth="2" NCoef="0" IVar="-1" Cut="0.0000000000000000e+00" cType="1" res="1.2355720624327660e-02" rms="3.9512982964515686e-01" purity="7.0281547307968140e-01" nType="-99"/>
